svm_type c_svc
kernel_type rbf
gamma 8
nr_class 2
total_sv 13016
rho -72.2003
label 1 2
nr_sv 11165 1851
SV
32768 0:0.043763676 1:0.02593819 2:0 3:0.004713408 4:0.0039832762 5:0.026483431 6:0.02455967 7:0.02273999 8:0.054347826 9:0.021526419 10:0.014763435 11:0.011509658 12:0.012454106 
32768 0:0.010940919 1:0.0055187638 2:0.043165468 3:0.0017713395 4:0.0011223566 5:0.012927062 6:0.011665451 7:0.012226051 8:0.010869565 9:0.0019569472 10:0.0044065844 11:0.0057545441 12:0.0043068015 
32768 0:0.015317287 1:0.013796909 2:0 3:0.0015788584 4:0.0031601345 5:0.01102777 6:0.012279835 7:0.01286996 8:0.02173913 9:0.01369863 10:0.009473678 11:0.0063462367 12:0.0082346097 
32768 0:0.043763676 1:0.023730684 2:0.021582734 3:0.0080014502 4:0.0053407158 5:0.02698632 6:0.02586482 7:0.023804017 8:0.043478261 9:0.011741683 10:0.010097836 11:0.012759065 12:0.0099044632 
32768 0:0.056892779 1:0.034768212 2:0.21582734 3:0.027386797 4:0.020506976 5:0.070897037 6:0.083510646 7:0.088841277 8:0.02173913 9:0.015655577 10:0.031269124 11:0.038519829 12:0.041259341 
32768 0:0.028446389 1:0.016004415 2:0.15827338 3:0.014235447 4:0.0093676613 5:0.036044935 6:0.043096928 7:0.04516801 8:0 9:0.0039138943 10:0.015456556 11:0.01784863 12:0.019901946 
32768 0:0.067833698 1:0.04580574 2:0 3:0.012557687 4:0.011418445 5:0.074483949 6:0.067825742 7:0.077325629 8:0.054347826 9:0.033268102 10:0.039818147 11:0.045883677 12:0.040851386 
32768 0:0.028446389 1:0.014348786 2:0 3:0.0038589703 4:0.0024451218 5:0.021634401 6:0.022679875 7:0.017977541 8:0.032608696 9:0.0058708415 10:0.0073747473 11:0.0080409959 12:0.0052743709 
32768 0:0.030634573 1:0.023730684 2:0 3:0.0024161518 4:0.0036374568 5:0.031256464 6:0.022337551 7:0.026455523 8:0.065217391 9:0.019569472 10:0.020749703 11:0.017151017 12:0.017761679 
32768 0:0.028446389 1:0.014348786 2:0 3:0.0070918866 4:0.004493563 5:0.022368076 6:0.026744267 7:0.024686326 8:0.02173913 9:0.0039138943 10:0.007624843 11:0.0088874893 12:0.0086082772 
32768 0:0.030634573 1:0.015452539 2:0 3:0.0045389615 4:0.0028759779 5:0.017643765 6:0.017260094 7:0.022109452 8:0.02173913 9:0.0039138943 10:0.0060144169 11:0.010406452 12:0.0073841193 
32768 0:0.015317287 1:0.0077262693 2:0.043165468 3:0.0020466617 4:0.0012968063 5:0.01231423 6:0.012279835 7:0.01286996 8:0.02173913 9:0.0039138943 10:0.0041976818 11:0.0030659747 12:0.003418686 
32768 0:0.04595186 1:0.033112583 2:0 3:0.0063108465 4:0.006896256 5:0.043873224 6:0.040044593 7:0.041968992 8:0.076086957 9:0.037181996 10:0.027915273 11:0.019734433 12:0.023499958 
32768 0:0.050328228 1:0.029801325 2:0 3:0.006863674 4:0.0051579301 5:0.036623347 6:0.041310421 7:0.035955082 8:0.032608696 9:0.017612524 10:0.016653337 11:0.021154123 12:0.022722685 
32768 0:0.037199125 1:0.022626932 2:0.021582734 3:0.0045811743 4:0.0035367234 5:0.029548489 6:0.023883261 7:0.011621519 8:0.065217391 9:0.023483366 10:0.013788701 11:0.010950729 12:0.011109819 
32768 0:0.035010941 1:0.019315673 2:0 3:0.0043642619 4:0.003016265 5:0.02174871 6:0.019177882 7:0.017977541 8:0.032608696 9:0.0097847358 10:0.0087653907 11:0.0049895902 12:0.0089509039 
32768 0:0.050328228 1:0.029249448 2:0 3:0.0077005104 4:0.0054060162 5:0.044565022 6:0.027923417 7:0.021647827 8:0.097826087 9:0.029354207 10:0.019377851 11:0.024765248 12:0.014741269 
32768 0:0.032822757 1:0.02593819 2:0 3:0.0020941972 4:0.0050029887 5:0.019953986 6:0.020022297 7:0.020984496 8:0.02173913 9:0.019569472 10:0.019750841 11:0.012864983 12:0.010614416 
32768 0:0.0065645514 1:0.0033112583 2:0 3:0.0006558834 4:0.00041558101 5:0.0070297173 6:0.005424324 7:0.0056849974 8:0.010869565 9:0.0019569472 10:0.0023962942 11:0.0034109995 12:0 
32768 0:0.04595186 1:0.024834437 2:0 3:0.0066701521 4:0.0048093175 5:0.027285381 6:0.02712162 7:0.028424987 8:0.032608696 9:0.0097847358 10:0.011310661 11:0.011843455 12:0.017009335 
32768 0:0.021881838 1:0.012693157 2:0.050359712 3:0.0050637726 4:0.0035159612 5:0.020940942 6:0.017667264 7:0.014632658 8:0.043478261 9:0.011741683 10:0.0096457091 11:0.0058571477 12:0.0065532088 
32768 0:0.052516411 1:0.028145695 2:0 3:0.016403441 4:0.010769739 5:0.04574489 6:0.050009799 7:0.052413089 8:0.043478261 9:0.011741683 10:0.018555801 11:0.024344749 12:0.02172119 
32768 0:0.028446389 1:0.016004415 2:0.10791367 3:0.011465993 4:0.0075526829 5:0.031529083 6:0.035623809 7:0.031780101 8:0.02173913 9:0.0078277886 10:0.013481478 11:0.015204339 12:0.013514403 
32768 0:0.026258206 1:0.014900662 2:0.12230216 3:0.0093545125 4:0.0062377526 5:0.029976884 6:0.032771178 7:0.034346042 8:0.010869565 9:0.0058708415 10:0.012538266 11:0.014050546 12:0.015666928 
32768 0:0.024070022 1:0.01214128 2:0.050359712 3:0.0031958694 4:0.0020249676 5:0.019083909 6:0.016233746 7:0.014632658 8:0.043478261 9:0.0078277886 10:0.0065053342 11:0.008008075 12:0.0046959655 
32768 0:0.028446389 1:0.014348786 2:0.12230216 3:0.011629941 4:0.0073689665 5:0.032910659 6:0.033929138 7:0.035559649 8:0.010869565 9:0.0019569472 10:0.011218605 11:0.012506352 12:0.0095882593 
32768 0:0.010940919 1:0.0088300221 2:0.021582734 3:0.0005937107 4:0.00083052973 5:0.0057832267 6:0.0069146831 7:0.0072469777 8:0 9:0.011741683 10:0.0048695528 11:0.0049660158 12:0.0027485285 
32768 0:0.021881838 1:0.012693157 2:0.10071942 3:0.0073874849 4:0.0050087989 5:0.023354281 6:0.027923417 7:0.029265316 8:0 9:0.0039138943 10:0.011357036 11:0.010363567 12:0.011555798 
32768 0:0.04595186 1:0.026490066 2:0.021582734 3:0.023721358 4:0.015970273 5:0.056037174 6:0.063315205 7:0.062338008 8:0.032608696 9:0.01369863 10:0.02385446 11:0.031439447 12:0.028247878 
32768 0:0.019693654 1:0.011589404 2:0.086330935 3:0.0057535599 4:0.003868474 5:0.020288903 6:0.024258315 7:0.025424082 8:0 9:0.0039138943 10:0.0088145361 11:0.010628674 12:0.01334322 
32768 0:0.048140044 1:0.028145695 2:0.09352518 3:0.016127112 4:0.011773287 5:0.058025369 6:0.067404961 7:0.058757432 8:0.02173913 9:0.011741683 10:0.025868149 11:0.032751676 12:0.031204732 
32768 0:0.026258206 1:0.017108168 2:0 3:0.0015690519 4:0.00190882 5:0.0078269829 6:0.0069146831 7:0.0072469777 8:0.010869565 9:0.01369863 10:0.0044237856 11:0.004146191 12:0.0038034027 
32768 0:0.010940919 1:0.0071743929 2:0.079136691 3:0.0026953847 4:0.0020556439 5:0.01828817 6:0.02186615 7:0.022916958 8:0 9:0.0039138943 10:0.0094036189 11:0.012124432 12:0.0082240135 
32768 0:0.015317287 1:0.0077262693 2:0.035971223 3:0.0021191408 4:0.0013427306 5:0.011417655 6:0.010327606 7:0.010823914 8:0.02173913 9:0.0039138943 10:0.003892057 11:0.001683588 12:0.00096313074 
32768 0:0.054704595 1:0.039735099 2:0 3:0.0054930477 4:0.0059254185 5:0.036044825 6:0.036108933 7:0.030090085 8:0.054347826 9:0.037181996 10:0.022982594 11:0.021893412 12:0.017550639 
32768 0:0.061269147 1:0.051324503 2:0 3:0.0038000952 4:0.006050495 5:0.037580501 6:0.023013458 7:0.02273999 8:0.14130435 9:0.068493151 10:0.024227552 11:0.017198429 12:0.017100465 
12858.49458565636 0:0.089715536 1:0.045253863 2:0.56115108 3:0.13010647 4:0.082438095 5:0.10916305 6:0.1305202 7:0.13679252 8:0 9:0 10:0.037211564 11:0.064385355 12:0.069507921 
32768 0:0.0043763676 1:0.0038631347 2:0.014388489 3:0.00032045581 4:0.00051327599 5:0.0035866053 6:0.0042883048 7:0.0044943852 8:0 9:0.0078277886 10:0.0017388992 11:0.0021154123 12:0 
32768 0:0.024070022 1:0.01214128 2:0 3:0.0034217105 4:0.0021680651 5:0.022599294 6:0.015814486 7:0.016574473 8:0.043478261 9:0.0078277886 10:0.0077036607 11:0.0078012548 12:0.0086987152 
32768 0:0.04595186 1:0.029249448 2:0 3:0.0028220659 4:0.0027627875 5:0.029770197 6:0.027923417 7:0.020099501 8:0.054347826 9:0.01369863 10:0.01388358 11:0.018544608 12:0.019708557 
32768 0:0.028446389 1:0.016004415 2:0.014388489 3:0.0022873392 4:0.001759533 5:0.010002519 6:0.0081238807 7:0.012534185 8:0.02173913 9:0.011741683 10:0.0039259598 11:0.0021154123 12:0.00024902204 
32768 0:0.052516411 1:0.028697572 2:0.050359712 3:0.014229345 4:0.009151576 5:0.039712449 6:0.03987317 7:0.037780429 8:0.054347826 9:0.017612524 10:0.016630173 11:0.01904769 12:0.020440312 
14451.97691020985 0:0.085339168 1:0.068984547 2:0.21582734 3:0.026756639 4:0.030904961 5:0.10377112 6:0.075606449 7:0.068547524 8:0.17391304 9:0.066536204 10:0.066265439 11:0.057399186 12:0.058174555 
32768 0:0.024070022 1:0.013796909 2:0 3:0.0033098196 4:0.002659358 5:0.014807832 6:0.013961709 7:0.014632658 8:0.02173913 9:0.011741683 10:0.0057482833 11:0.0068872834 12:0.0076796 
32768 0:0.052516411 1:0.036975717 2:0 3:0.0086877757 4:0.0095245829 5:0.024779851 6:0.026125901 7:0.027381417 8:0.043478261 9:0.019569472 10:0.017226022 11:0.018861166 12:0.017414114 
32768 0:0.04595186 1:0.030905077 2:0 3:0.0046372597 4:0.0063692866 5:0.033656222 6:0.025864888 7:0.030411635 8:0.086956522 9:0.019569472 10:0.021002178 11:0.016973777 12:0.023484095 
32768 0:0.04595186 1:0.047461369 2:0 3:0.0030186528 4:0.0067778096 5:0.035587052 6:0.020083338 7:0.030636597 8:0.097826087 9:0.052837573 10:0.03202389 11:0.03526323 12:0.028164908 
32768 0:0.013129103 1:0.0088300221 2:0 3:0.00075798878 4:0.0010115785 5:0.0089911836 6:0.0069146831 7:0.0072469777 8:0.02173913 9:0.0078277886 10:0.0062625078 11:0.0040074943 12:0.0038034027 
32768 0:0.013129103 1:0.0082781457 2:0.021582734 3:0.00085149652 4:0.00072303332 5:0.0089911836 6:0.0069146831 7:0.0072469777 8:0.02173913 9:0.0078277886 10:0.0035178752 11:0.0024649584 12:0.0038034027 
32768 0:0.039387309 1:0.022626932 2:0 3:0.0099462815 4:0.0071153348 5:0.050572878 6:0.051459656 7:0.059353116 8:0.032608696 9:0.0097847358 10:0.021703937 11:0.030072034 12:0.019230873 
32768 0:0.043763676 1:0.02593819 2:0.064748201 3:0.009736415 4:0.0071769069 5:0.034753839 6:0.033727343 7:0.023087961 8:0.065217391 9:0.019569472 10:0.015563103 11:0.013793338 12:0.018551634 
32768 0:0.039387309 1:0.023730684 2:0.10791367 3:0.010658365 4:0.0079354431 5:0.050915412 6:0.057626761 7:0.050011874 8:0.02173913 9:0.015655577 10:0.021939226 11:0.024641462 12:0.030205627 
32768 0:0.024070022 1:0.013796909 2:0.10791367 3:0.007500189 4:0.0049638577 5:0.025361128 6:0.030322893 7:0.031780101 8:0 9:0.0039138943 10:0.010285412 11:0.015904264 12:0.015624151 
32768 0:0.12910284 1:0.092163355 2:0 3:0.035841772 4:0.041089166 5:0.12708241 6:0.11377448 7:0.10140264 8:0.20652174 9:0.091976517 10:0.075748602 11:0.078439961 12:0.059140313 
32768 0:0.010940919 1:0.0055187638 2:0 3:0.0030688226 4:0.0019444682 5:0.019314462 6:0.023093229 7:0.024203006 8:0 9:0 10:0.0065839251 11:0.011391845 12:0.011934539 
32768 0:0.039387309 1:0.021523179 2:0.17266187 3:0.022675671 4:0.014618744 5:0.050165453 6:0.055155369 7:0.04890594 8:0.010869565 9:0.0058708415 10:0.018998872 11:0.027695956 12:0.025527976 
25201.84248718841 0:0.078774617 1:0.057395143 2:0.079136691 3:0.014405167 4:0.01758241 5:0.046546827 6:0.034952952 7:0.030010283 8:0.13043478 9:0.054794521 10:0.028560613 11:0.031712522 12:0.019145467 
32768 0:0.024070022 1:0.01214128 2:0.27338129 3:0.025229911 4:0.015986182 5:0.028809847 6:0.034446334 7:0.036101701 8:0 9:0 10:0.0098207176 11:0.016992309 12:0.018054091 
32768 0:0.026258206 1:0.014900662 2:0 3:0.0036439388 4:0.0025006053 5:0.02178774 6:0.022365062 7:0.023439846 8:0.032608696 9:0.0097847358 10:0.0090673136 11:0.0100866 12:0.011246968 
32768 0:0.035010941 1:0.017660044 2:0 3:0.0054289121 4:0.0034398687 5:0.025349341 6:0.02712162 7:0.023439846 8:0.032608696 9:0.0058708415 10:0.0086410982 11:0.0094784141 12:0.0079524833 
32768 0:0.070021882 1:0.055739514 2:0 3:0.0090699316 4:0.013525364 5:0.05346728 6:0.041044105 7:0.034346042 8:0.097826087 9:0.048923679 10:0.035356062 11:0.03888815 12:0.026148151 
32768 0:0.030634573 1:0.015452539 2:0.15827338 3:0.01341559 4:0.0085003895 5:0.03636471 6:0.043479265 7:0.045568721 8:0 9:0 10:0.012396024 11:0.021448236 12:0.023915652 
32768 0:0.021881838 1:0.011037528 2:0.021582734 3:0.0020311409 4:0.001286972 5:0.01692169 6:0.015491293 7:0.0072469777 8:0.02173913 9:0.0039138943 10:0.0057682757 11:0.0053492723 12:0.0027485285 
32768 0:0.028446389 1:0.01986755 2:0 3:0.0046967674 4:0.0049987744 5:0.026496348 6:0.028919016 7:0.020137761 8:0.032608696 9:0.01369863 10:0.016674777 11:0.0090828947 12:0.021117558 
32768 0:0.013129103 1:0.0082781457 2:0.035971223 3:0.0015223051 4:0.001279794 5:0.016868728 6:0.0097788403 7:0.010248776 8:0.02173913 9:0.0078277886 10:0.0084350256 11:0.0062392813 12:0.0038870069 
32768 0:0.026258206 1:0.015452539 2:0 3:0.0059342394 4:0.0041661486 5:0.025635799 6:0.0269862 7:0.019697431 8:0.032608696 9:0.0097847358 10:0.010925807 11:0.011053969 12:0.0093297357 
32768 0:0.041575492 1:0.024282561 2:0 3:0.0065530443 4:0.0045979454 5:0.042131233 6:0.032994876 7:0.030614649 8:0.032608696 9:0.01369863 10:0.017385362 11:0.020238867 12:0.01300043 
32768 0:0.094091904 1:0.055187638 2:0 3:0.046603311 4:0.032801847 5:0.097348006 6:0.086266764 7:0.093868085 8:0.14130435 9:0.037181996 10:0.041780982 11:0.046094394 12:0.045556635 
32768 0:0.054704595 1:0.027593819 2:0 3:0.012049027 4:0.0076345075 5:0.056687529 6:0.053377444 7:0.046953801 8:0.086956522 9:0.015655577 10:0.019323678 11:0.021119241 12:0.025140622 
32768 0:0.021881838 1:0.012693157 2:0.079136691 3:0.0044174496 4:0.0030020329 5:0.02546138 6:0.024270609 7:0.022916958 8:0.02173913 9:0.0078277886 10:0.010577733 11:0.010330949 12:0.0096686452 
32768 0:0.015317287 1:0.014900662 2:0.028776978 3:0.0010781619 4:0.0027060213 5:0.020223583 6:0.016483853 7:0.0087677561 8:0.02173913 9:0.015655577 10:0.01272072 11:0.014566463 12:0.0095556948 
32768 0:0.056892779 1:0.030905077 2:0.23741007 3:0.028246664 4:0.018336833 5:0.056193861 6:0.06432457 7:0.067415777 8:0.02173913 9:0.0078277886 10:0.022066677 11:0.033623266 12:0.033271807 
32768 0:0.074398249 1:0.051324503 2:0 3:0.023097611 4:0.017622417 5:0.052686198 6:0.052149099 7:0.053249364 8:0.11956522 9:0.052837573 10:0.030840172 11:0.028510451 12:0.027811215 
32768 0:0.013129103 1:0.0082781457 2:0.079136691 3:0.0031661573 4:0.0022882915 5:0.018774089 6:0.022447136 7:0.023525864 8:0 9:0.0039138943 10:0.0080716875 11:0.008957715 12:0.010855168 
32768 0:0.032822757 1:0.016556291 2:0 3:0.0077699807 4:0.0049232172 5:0.029472358 6:0.02382408 7:0.020984496 8:0.043478261 9:0.0078277886 10:0.010046555 11:0.0076272274 12:0.0085046676 
32768 0:0.024070022 1:0.01214128 2:0.079136691 3:0.0053485167 4:0.0033889286 5:0.021132175 6:0.023795054 7:0.022916958 8:0.02173913 9:0.0039138943 10:0.0072035484 11:0.010786529 12:0.0086916118 
6200.40031094852 0:0.14223195 1:0.10209713 2:0.56115108 3:0.16919376 4:0.13150078 5:0.14398023 6:0.15350539 7:0.15699498 8:0.032608696 9:0.11545988 10:0.11564701 11:0.10656596 12:0.10662371 
23239.35294939652 0:0.085339168 1:0.056843267 2:0.26618705 3:0.052316855 4:0.046646844 5:0.090546632 6:0.104426 7:0.083783371 8:0.02173913 9:0.072407045 10:0.066809096 11:0.066347767 12:0.059972002 
546.128459571481 0:0.14660832 1:0.19039735 2:0.16546763 3:0.063524489 4:0.10232856 5:0.13112154 6:0.13618978 7:0.13248709 8:0.076086957 9:0.15655577 10:0.13209126 11:0.10863286 12:0.087655472 
32768 0:0.04595186 1:0.022075055 2:0.10791367 3:0.0089984182 4:0.0057015801 5:0.02719037 6:0.028766823 7:0.030149252 8:0.02173913 9:0.025440313 10:0.016694679 11:0.013244576 12:0.015823113 
5247.767159696418 0:0.16849015 1:0.11203091 2:0.53956835 3:0.1616125 4:0.12804529 5:0.14658731 6:0.14880311 7:0.15193415 8:0.10869565 9:0.11937378 10:0.10870046 11:0.099108404 12:0.10742465 
32768 0:0.04595186 1:0.024834437 2:0 3:0.014426892 4:0.0094233215 5:0.051726756 6:0.06184681 7:0.060432353 8:0.010869565 9:0.0058708415 10:0.018531369 11:0.024975083 12:0.029611731 
32768 0:0.039387309 1:0.01986755 2:0 3:0.01210492 4:0.0076699225 5:0.035716695 6:0.037770516 7:0.026038202 8:0.032608696 9:0.0058708415 10:0.012175128 11:0.017028421 12:0.011606952 
32768 0:0.01750547 1:0.010485651 2:0.10071942 3:0.00504104 4:0.0035093358 5:0.023844857 6:0.028509971 7:0.029880057 8:0 9:0.0039138943 10:0.010813053 11:0.015401815 12:0.012346027 
32768 0:0.10065646 1:0.075607064 2:0 3:0.031856448 4:0.041669347 5:0.085690684 6:0.075342371 7:0.071232814 8:0.14130435 9:0.064579256 10:0.06005943 11:0.039996824 12:0.039655449 
32768 0:0.050328228 1:0.032560706 2:0 3:0.0078722209 4:0.007406112 5:0.036117891 6:0.032299855 7:0.027467216 8:0.065217391 9:0.031311155 10:0.01851816 11:0.011659524 12:0.013170401 
32768 0:0.0065645514 1:0.0049668874 2:0.050359712 3:0.0011347404 4:0.0010065923 5:0.01122785 6:0.013424517 7:0.014069651 8:0 9:0.0039138943 10:0.0065611821 11:0.0047302056 12:0.0042194968 
32768 0:0.026258206 1:0.016556291 2:0.12230216 3:0.0075251852 4:0.005616786 5:0.028058166 6:0.033547591 7:0.035159766 8:0 9:0.011741683 10:0.012569575 11:0.015511882 12:0.016343014 
32768 0:0.030634573 1:0.019315673 2:0.079136691 3:0.0071207007 4:0.0062697037 5:0.030678517 6:0.021507859 7:0.022591262 8:0.054347826 9:0.01369863 10:0.014831832 11:0.013612568 12:0.013948347 
32768 0:0.083150985 1:0.04580574 2:0.057553957 3:0.024303134 4:0.01733577 5:0.067611905 6:0.050489261 7:0.040863682 8:0.11956522 9:0.029354207 10:0.030702298 11:0.024328808 12:0.013647247 
32768 0:0.04595186 1:0.029801325 2:0.043165468 3:0.012866116 4:0.010279978 5:0.048427973 6:0.043233601 7:0.04133836 8:0.076086957 9:0.029354207 10:0.025056293 11:0.02144904 12:0.013726424 
32768 0:0.019693654 1:0.011589404 2:0.050359712 3:0.0027515829 4:0.0022034357 5:0.013610209 6:0.013829368 7:0.014493957 8:0.02173913 9:0.0039138943 10:0.0054892653 11:0.0059120127 12:0.0042710008 
32768 0:0.028446389 1:0.016004415 2:0.10791367 3:0.010825405 4:0.0074665329 5:0.031031202 6:0.033449435 7:0.031202817 8:0.02173913 9:0.0078277886 10:0.014021567 11:0.01078588 12:0.012026693 
32768 0:0.037199125 1:0.023178808 2:0.035971223 3:0.0092333986 4:0.0077932715 5:0.02972587 6:0.034202262 7:0.029275178 8:0.054347826 9:0.021526419 10:0.012385136 11:0.014396387 12:0.014510017 
32768 0:0.024070022 1:0.016556291 2:0.10071942 3:0.0058778025 4:0.0041700982 5:0.026084725 6:0.027458547 7:0.028778105 8:0.02173913 9:0.015655577 10:0.014555436 11:0.014491288 12:0.016595317 
32768 0:0.035010941 1:0.022626932 2:0.071942446 3:0.0082082324 4:0.006344204 5:0.022181545 6:0.021565585 7:0.020693704 8:0.032608696 9:0.017612524 10:0.012513814 11:0.0093003565 12:0.0089998683 
32768 0:0.04595186 1:0.025386313 2:0.10791367 3:0.012706867 4:0.0090179019 5:0.030986281 6:0.026513147 7:0.030417747 8:0.076086957 9:0.021526419 10:0.012661012 11:0.012028651 12:0.014348742 
32768 0:0.019693654 1:0.015452539 2:0 3:0.0027423461 4:0.0032010428 5:0.010144451 6:0.012129157 7:0.01271204 8:0 9:0.011741683 10:0.0080301275 11:0.0091116781 12:0.0066716097 
32768 0:0.01750547 1:0.0088300221 2:0.035971223 3:0.0023292864 4:0.001475883 5:0.0093527226 6:0.011182531 7:0.011719923 8:0 9:0 10:0.0031881616 11:0.0055163206 12:0.00143338 
32768 0:0.021881838 1:0.012693157 2:0.10791367 3:0.0070067713 4:0.0047217822 5:0.024059679 6:0.028766823 7:0.030149252 8:0 9:0.0039138943 10:0.0098734431 11:0.012075205 12:0.013464343 
32768 0:0.026258206 1:0.013245033 2:0.12230216 3:0.0084737099 4:0.0053691142 5:0.028422573 6:0.033983293 7:0.035616407 8:0 9:0 10:0.0096887036 11:0.016763891 12:0.014216965 
32768 0:0.067833698 1:0.037527594 2:0.10791367 3:0.044334398 4:0.030520336 5:0.084870265 6:0.093503798 7:0.092375305 8:0.02173913 9:0.011741683 10:0.034049554 11:0.045512711 12:0.052865316 
32768 0:0.10503282 1:0.062362031 2:0.071942446 3:0.046774126 4:0.037071529 5:0.079800206 6:0.07270155 7:0.076628414 8:0.11956522 9:0.048923679 10:0.03844003 11:0.04025926 12:0.038870978 
32768 0:0.048140044 1:0.02593819 2:0.071942446 3:0.017674779 4:0.013224684 5:0.043845693 6:0.052423861 7:0.035297027 8:0.02173913 9:0.0078277886 10:0.017173559 11:0.020392671 12:0.019122297 
32768 0:0.021881838 1:0.012693157 2:0 3:0.0076516349 4:0.0051634616 5:0.026453492 6:0.031628972 7:0.033148946 8:0 9:0.0039138943 10:0.010929043 11:0.012621763 12:0.011793852 
32768 0:0.043763676 1:0.025386313 2:0.17266187 3:0.02273989 4:0.017794559 5:0.041351408 6:0.046424737 7:0.048655742 8:0.02173913 9:0.015655577 10:0.017216164 11:0.024058524 12:0.020818259 
32768 0:0.037199125 1:0.022626932 2:0 3:0.0057457197 4:0.0048925628 5:0.028854051 6:0.01986538 7:0.019897492 8:0.065217391 9:0.019569472 10:0.013734517 11:0.0081599033 12:0.010442722 
32768 0:0.015317287 1:0.0093818985 2:0.10791367 3:0.0048231493 4:0.0033634974 5:0.024272601 6:0.029021401 7:0.030416064 8:0 9:0.0039138943 10:0.010781407 11:0.011478076 12:0.013853395 
32768 0:0.067833698 1:0.036423841 2:0 3:0.012713185 4:0.0084465739 5:0.05515309 6:0.04910389 7:0.029265316 8:0.11956522 9:0.025440313 10:0.021711899 11:0.018340664 12:0.017851292 
32768 0:0.0087527352 1:0.004415011 2:0.028776978 3:0.0011411146 4:0.00072303332 5:0.0092346808 6:0.0081364867 7:0.0085274968 8:0.010869565 9:0.0019569472 10:0.0031479234 11:0.00060271241 12:0.0044754525 
32768 0:0.019693654 1:0.011589404 2:0.10791367 3:0.0060541015 4:0.004142693 5:0.024483671 6:0.029273766 7:0.030680557 8:0 9:0.0039138943 10:0.01125729 11:0.012325279 12:0.016101956 
32768 0:0.048140044 1:0.036423841 2:0 3:0.0048948907 4:0.0072816923 5:0.049845714 6:0.030963148 7:0.032537302 8:0.097826087 9:0.037181996 10:0.029016444 11:0.025146273 12:0.015297289 
32768 0:0.070021882 1:0.035320088 2:0 3:0.0087922594 4:0.0055709537 5:0.039164652 6:0.038533416 7:0.032148259 8:0.076086957 9:0.01369863 10:0.013350469 11:0.0165301 12:0.014361344 
32768 0:0.080962801 1:0.044701987 2:0.15107914 3:0.025382137 4:0.017862777 5:0.067618519 6:0.061291009 7:0.050209083 8:0.10869565 9:0.023483366 10:0.024048265 11:0.027127922 12:0.025040838 
32768 0:0.01750547 1:0.0088300221 2:0 3:0.004983787 4:0.0031578284 5:0.019513243 6:0.023330901 7:0.0244521 8:0 9:0 10:0.0066516856 11:0.011509087 12:0.0084389935 
32768 0:0.015317287 1:0.0077262693 2:0 3:0.0037237662 4:0.0023594537 5:0.015131904 6:0.018092377 7:0.018961831 8:0 9:0 10:0.0051581722 11:0.0076272274 12:0.0085046676 
32768 0:0.019693654 1:0.0099337748 2:0.079136691 3:0.0041263129 4:0.0026145154 5:0.017716522 6:0.021182662 7:0.022200624 8:0 9:0 10:0.0060392185 11:0.010449365 12:0.011651466 
32768 0:0.0087527352 1:0.004415011 2:0 3:0.00088721334 4:0.00056215634 5:0.0071732106 6:0.0085766096 7:0.0089887704 8:0 9:0 10:0.0024452082 11:0.0021154123 12:0.0047175409 
32768 0:0.026258206 1:0.014900662 2:0.1294964 3:0.009898794 4:0.0065795288 5:0.028916135 6:0.034573417 7:0.03623489 8:0 9:0.0039138943 10:0.012364298 11:0.015162916 12:0.016907266 
32768 0:0.026258206 1:0.016556291 2:0 3:0.0053837425 4:0.0036820832 5:0.023564597 6:0.016721903 7:0.023144011 8:0.032608696 9:0.01369863 10:0.012024407 11:0.012258249 12:0.0085046676 
32768 0:0.019693654 1:0.011589404 2:0.050359712 3:0.0023536557 4:0.0016070444 5:0.011566455 6:0.013829368 7:0.014493957 8:0 9:0.0078277886 10:0.0065827956 11:0.0081599033 12:0.0065519322 
32768 0:0.11159737 1:0.091611479 2:0.057553957 3:0.048597925 4:0.049996102 5:0.10584607 6:0.10282766 7:0.074488348 8:0.065217391 9:0.088062622 10:0.081349549 11:0.062335169 12:0.067191141 
22.00325726420728 0:0.3785558 1:0.31567329 2:0.043165468 3:0.39774375 4:0.36314008 5:0.31802748 6:0.30844835 7:0.29787473 8:0.29347826 9:0.32093933 10:0.25491358 11:0.22267042 12:0.20237945 
32768 0:0.019693654 1:0.0099337748 2:0.043165468 3:0.0036846536 4:0.0023346712 5:0.012927062 6:0.01545617 7:0.012226051 8:0.010869565 9:0.0019569472 10:0.0044065844 11:0.0038624619 12:0.0064165499 
32768 0:0.021881838 1:0.012693157 2:0.043165468 3:0.0026906632 4:0.0018883666 5:0.016893286 6:0.012279835 7:0.01286996 8:0.043478261 9:0.01369863 10:0.0069847909 11:0.0056130353 12:0.0052626736 
32768 0:0.037199125 1:0.026490066 2:0 3:0.007652163 4:0.0093519823 5:0.030505321 6:0.02527288 7:0.023515966 8:0.043478261 9:0.019569472 10:0.020056164 11:0.022142025 12:0.0098118492 
32768 0:0.054704595 1:0.027593819 2:0.14388489 3:0.018397268 4:0.011656882 5:0.049299832 6:0.042723395 7:0.04976167 8:0.032608696 9:0.0058708415 10:0.016805356 11:0.020954127 12:0.024195116 
32768 0:0.04595186 1:0.040838852 2:0 3:0.0048741459 4:0.0082179335 5:0.032702474 6:0.030957197 7:0.0244521 8:0.054347826 9:0.045009785 10:0.025229391 11:0.025141204 12:0.01496842 
32768 0:0.070021882 1:0.041390728 2:0 3:0.0094072596 4:0.0074670463 5:0.052539814 6:0.055430812 7:0.043922272 8:0.097826087 9:0.029354207 10:0.02580531 11:0.025972605 12:0.019784822 
1382.49357988042 0:0.17724289 1:0.13796909 2:0.064748201 3:0.15591312 4:0.16310444 5:0.17851909 6:0.1979656 7:0.1786083 8:0.032608696 9:0.15655577 10:0.13694142 11:0.12037046 12:0.1152207 
32768 0:0.024070022 1:0.01214128 2:0.071942446 3:0.0075775242 4:0.0048012728 5:0.021227394 6:0.019177882 7:0.022399578 8:0.032608696 9:0.0058708415 10:0.0072360067 11:0.010543009 12:0.0091390633 
32768 0:0.021881838 1:0.016556291 2:0.09352518 3:0.0048740149 4:0.0058161694 5:0.032173941 6:0.038468595 7:0.0315083 8:0.010869565 9:0.0058708415 10:0.020514396 11:0.019536018 12:0.020495701 
32768 0:0.043763676 1:0.024834437 2:0.035971223 3:0.0066202942 4:0.0049916439 5:0.036695239 6:0.037069558 7:0.02962253 8:0.065217391 9:0.015655577 10:0.014953903 11:0.013571963 12:0.012602368 
32768 0:0.030634573 1:0.015452539 2:0 3:0.0063387487 4:0.0040163596 5:0.025445868 6:0.015461703 7:0.016204736 8:0.043478261 9:0.0078277886 10:0.0086740023 11:0.011224039 12:0.010439809 
32768 0:0.010940919 1:0.0055187638 2:0.064748201 3:0.0024770894 4:0.001569534 5:0.014787952 6:0.017681133 7:0.018530825 8:0 9:0 10:0.0050409258 11:0.0087220682 12:0.0067418245 
32768 0:0.035010941 1:0.020971302 2:0.09352518 3:0.0085981949 4:0.0068420271 5:0.031523475 6:0.025224565 7:0.026436767 8:0.032608696 9:0.01369863 10:0.012747943 11:0.014314329 12:0.010891069 
32768 0:0.11159737 1:0.066777042 2:0 3:0.054699643 4:0.036531131 5:0.092676928 6:0.10055066 7:0.095445021 8:0.10869565 9:0.043052838 10:0.043311459 11:0.048304453 12:0.051766262 
19281.55006468051 0:0.21881838 1:0.15397351 2:0.35971223 3:0.18636369 4:0.15763438 5:0.20020525 6:0.21061096 7:0.21859496 8:0.11956522 9:0.11545988 10:0.11241771 11:0.13299452 12:0.11914446 
32768 0:0.096280088 1:0.053532009 2:0.30215827 3:0.056542507 4:0.038186524 5:0.073654922 6:0.081477788 7:0.085393315 8:0.065217391 9:0.023483366 10:0.026997582 11:0.043293825 12:0.041308672 
32768 0:0.01750547 1:0.0088300221 2:0 3:0.003083745 4:0.0019539233 5:0.015843004 6:0.01356081 7:0.014212494 8:0.02173913 9:0.0039138943 10:0.0054005727 11:0.006689521 12:0.0067544901 
32768 0:0.013129103 1:0.0082781457 2:0.064748201 3:0.0026870075 4:0.0019846925 5:0.014524643 6:0.01736631 7:0.018200872 8:0 9:0.0039138943 10:0.0066231349 11:0.0064513542 12:0.008060475 
1627.450480681852 0:0.20350109 1:0.12306843 2:0.62589928 3:0.31431163 4:0.22332442 5:0.19304883 6:0.22059542 7:0.20734349 8:0.086956522 9:0.17612524 10:0.13677043 11:0.1144046 12:0.12534257 
32768 0:0.050328228 1:0.039183223 2:0 3:0.0098200338 4:0.011582021 5:0.042318703 6:0.045345363 7:0.030448434 8:0.054347826 9:0.04109589 10:0.030952925 11:0.024516191 12:0.01671023 
32768 0:0.0065645514 1:0.0049668874 2:0.043165468 3:0.00091232956 4:0.00078965686 5:0.010270474 6:0.012279835 7:0.01286996 8:0 9:0.0039138943 10:0.0051413007 11:0.0052738926 12:0.0052626736 
32768 0:0.070021882 1:0.043598234 2:0 3:0.01240494 4:0.011321141 5:0.050185562 6:0.042949504 7:0.034346042 8:0.11956522 9:0.037181996 10:0.022548009 11:0.026591409 12:0.016094047 
32768 0:0.028446389 1:0.019315673 2:0 3:0.0047263271 4:0.0053374702 5:0.023708873 6:0.01544918 7:0.014069651 8:0.043478261 9:0.019569472 10:0.013883882 11:0.0092958553 12:0.0094938677 
32768 0:0.041575492 1:0.020971302 2:0.10791367 3:0.015813499 4:0.010019753 5:0.041453743 6:0.042281105 7:0.042376412 8:0.054347826 9:0.0097847358 10:0.014130776 11:0.015970334 12:0.021179254 
32768 0:0.050328228 1:0.027593819 2:0.1294964 3:0.017903202 4:0.012013883 5:0.052150408 6:0.047657575 7:0.045375485 8:0.065217391 9:0.015655577 10:0.018261795 11:0.023627468 12:0.023935482 
32768 0:0.013129103 1:0.0082781457 2:0.021582734 3:0.0012405243 4:0.00109625 5:0.011488141 6:0.0060645792 7:0.006356021 8:0.02173913 9:0.0078277886 10:0.0041742318 11:0.0015462228 12:0.0033358054 
32768 0:0.059080963 1:0.038631347 2:0.086330935 3:0.012751005 4:0.011992747 5:0.048342773 6:0.052169985 7:0.045828226 8:0.043478261 9:0.02739726 10:0.024589791 11:0.024661107 12:0.013413516 
32768 0:0.0065645514 1:0.0049668874 2:0.050359712 3:0.0011476073 4:0.0010147451 5:0.011341842 6:0.01356081 7:0.014212494 8:0 9:0.0039138943 10:0.0066000395 11:0.0047974387 12:0.0042944644 
32768 0:0.019693654 1:0.011589404 2:0.079136691 3:0.004247313 4:0.0032781808 5:0.019825119 6:0.022365062 7:0.023439846 8:0.02173913 9:0.0078277886 10:0.0068926182 11:0.0091405589 12:0.0079524833 
32768 0:0.04595186 1:0.031456954 2:0 3:0.0049977173 4:0.0051571146 5:0.035014082 6:0.031045374 7:0.021647827 8:0.097826087 9:0.029354207 10:0.01671976 11:0.014206861 12:0.0057150807 
32768 0:0.035010941 1:0.022626932 2:0.064748201 3:0.0063790499 4:0.0058180491 5:0.030935603 6:0.033774833 7:0.027440559 8:0.043478261 9:0.019569472 10:0.013108647 11:0.011947524 12:0.014376848 
32768 0:0.0043763676 1:0.0022075055 2:0 3:0.00060519487 4:0.00038346373 5:0.012831829 6:0.015342305 7:0.016079601 8:0 9:0 10:0.0043741214 11:0.007568329 12:0 
32768 0:0.039387309 1:0.029249448 2:0 3:0.006883844 4:0.0089946244 5:0.0364035 6:0.040044593 7:0.034346042 8:0.032608696 9:0.025440313 10:0.023264005 11:0.021154123 12:0.022095887 
32768 0:0.065645514 1:0.034768212 2:0 3:0.0094596194 4:0.0063012585 5:0.042768813 6:0.027658734 7:0.032803536 8:0.097826087 9:0.021526419 10:0.016313163 11:0.014546225 12:0.012660805 
32768 0:0.021881838 1:0.011037528 2:0 3:0.0038834664 4:0.002460643 5:0.028871615 6:0.030684611 7:0.032159202 8:0.010869565 9:0.0019569472 10:0.0098417732 11:0.011352494 12:0.016877987 
32768 0:0.032822757 1:0.018211921 2:0 3:0.0051672404 4:0.0035846122 5:0.023206607 6:0.022365062 7:0.025739919 8:0.032608696 9:0.0097847358 10:0.01023041 11:0.011572055 12:0.0093182069 
32768 0:0.0065645514 1:0.0033112583 2:0.043165468 3:0.00092336606 4:0.00058506344 5:0.0097566221 6:0.011665451 7:0.012226051 8:0 9:0 10:0.0033258431 11:0.0038624619 12:0 
32768 0:0.01750547 1:0.010485651 2:0.10071942 3:0.004815136 4:0.0037798302 5:0.022683683 6:0.023286044 7:0.020385187 8:0.010869565 9:0.0058708415 10:0.010009992 11:0.0098278032 12:0.011753551 
32768 0:0.010940919 1:0.0055187638 2:0 3:0.00072883721 4:0.00046180602 5:0.0050722262 6:0.0060645792 7:0.006356021 8:0 9:0 10:0.0017290235 11:0.002991645 12:0.0023587704 
32768 0:0.01750547 1:0.0088300221 2:0.10071942 3:0.0050395371 4:0.0031931528 5:0.022965478 6:0.027458547 7:0.028778105 8:0 9:0 10:0.0078284857 11:0.013545247 12:0.0064047847 
32768 0:0.035010941 1:0.023178808 2:0 3:0.0029863365 4:0.0032928706 5:0.01798237 6:0.015342305 7:0.012059701 8:0.054347826 9:0.025440313 10:0.0083473989 11:0.0080427967 12:0.005497058 
32768 0:0.059080963 1:0.031456954 2:0.31654676 3:0.045056239 4:0.028771447 5:0.070811614 6:0.084665515 7:0.088734233 8:0 9:0.0078277886 10:0.024849408 11:0.040819291 12:0.045515163 
32768 0:0.12691466 1:0.082229581 2:0.17985612 3:0.069844927 4:0.056405311 5:0.15300434 6:0.16532865 7:0.17210669 8:0.086956522 9:0.043052838 10:0.07376269 11:0.097148265 12:0.094984873 
32768 0:0.032822757 1:0.022075055 2:0.043165468 3:0.005279451 4:0.0052178781 5:0.024431075 6:0.024258315 7:0.016382325 8:0.02173913 9:0.015655577 10:0.014538752 11:0.015070277 12:0.011482068 
32768 0:0.035010941 1:0.025386313 2:0 3:0.006331028 4:0.0063934813 5:0.038362736 6:0.042032617 7:0.024835599 8:0.032608696 9:0.021526419 10:0.022378169 11:0.018813491 12:0.0120668 
32768 0:0.026258206 1:0.020419426 2:0 3:0.002054821 4:0.0032676088 5:0.018077164 6:0.010848648 7:0.01271204 8:0.076086957 9:0.025440313 10:0.0104855 11:0.0085166329 12:0.0065519322 
32768 0:0.026258206 1:0.016556291 2:0 3:0.0041533106 4:0.0032193954 5:0.015004069 6:0.012864914 7:0.013483155 8:0.043478261 9:0.015655577 10:0.0086605222 11:0.0055163206 12:0.0061509209 
32768 0:0.013129103 1:0.0082781457 2:0.035971223 3:0.0014481318 4:0.0011404675 5:0.0093949859 6:0.010327606 7:0.010823914 8:0.02173913 9:0.0078277886 10:0.0045542462 11:0.0029791752 12:0.0056806718 
32768 0:0.037199125 1:0.020419426 2:0 3:0.0048801293 4:0.0033629836 5:0.029575904 6:0.032545947 7:0.037061649 8:0.010869565 9:0.0058708415 10:0.010339999 11:0.017444136 12:0.014918174 
32768 0:0.032822757 1:0.016556291 2:0 3:0.0016251206 4:0.0010297093 5:0.016994541 6:0.01174282 7:0.0082872375 8:0.043478261 9:0.0078277886 10:0.0057931091 11:0.0039006278 12:0.0043493581 
32768 0:0.026258206 1:0.022626932 2:0 3:0.0021319284 4:0.0048533397 5:0.034904059 6:0.02299088 7:0.027425932 8:0.043478261 9:0.019569472 10:0.025464604 11:0.021377453 12:0.016511393 
32768 0:0.01750547 1:0.010485651 2:0.043165468 3:0.0011108147 4:0.00079970062 5:0.010144451 6:0.012129157 7:0.01271204 8:0 9:0.0039138943 10:0.004551577 11:0.0059832891 12:0.0066716097 
32768 0:0.054704595 1:0.030905077 2:0 3:0.0086777222 4:0.0061604576 5:0.053008641 6:0.040009057 7:0.025424082 8:0.097826087 9:0.025440313 10:0.021742976 11:0.019122484 12:0.020614667 
32768 0:0.041575492 1:0.024282561 2:0 3:0.0060777148 4:0.0044596598 5:0.029822347 6:0.031654486 7:0.030614649 8:0.054347826 9:0.017612524 10:0.013749387 11:0.0071975299 12:0.0090025724 
32768 0:0.037199125 1:0.027041943 2:0 3:0.0032516951 4:0.0038670273 5:0.030056304 6:0.02235542 7:0.017977541 8:0.054347826 9:0.033268102 10:0.017517946 11:0.01525871 12:0.01136851 
32768 0:0.050328228 1:0.040286976 2:0.028776978 3:0.0094324589 4:0.012789757 5:0.046026594 6:0.052759403 7:0.044221464 8:0.065217391 9:0.02739726 10:0.031585267 11:0.030079941 12:0.027431839 
32768 0:0.041575492 1:0.025386313 2:0 3:0.0052479612 4:0.0041119966 5:0.030803849 6:0.030923405 7:0.031396423 8:0.032608696 9:0.0097847358 10:0.013781025 11:0.016923208 12:0.0084443203 
32768 0:0.015317287 1:0.0077262693 2:0.064748201 3:0.0038534619 4:0.0024416315 5:0.021359664 6:0.018193735 7:0.019068061 8:0.010869565 9:0.0019569472 10:0.0072810948 11:0.0062560923 12:0.0036781702 
32768 0:0.039387309 1:0.031456954 2:0 3:0.0039477111 4:0.0063228121 5:0.028278414 6:0.020655212 7:0.021647827 8:0.054347826 9:0.025440313 10:0.021793015 11:0.020187899 12:0.016335023 
32768 0:0.01750547 1:0.010485651 2:0.050359712 3:0.0015874112 4:0.0011893237 5:0.011566455 6:0.013829368 7:0.014493957 8:0 9:0.0078277886 10:0.0048486901 11:0.006822 12:0.0061149884 
32768 0:0.06345733 1:0.033664459 2:0 3:0.01223685 4:0.008221717 5:0.040390578 6:0.039115357 7:0.0409951 8:0.076086957 9:0.017612524 10:0.014996514 11:0.020274784 12:0.015231422 
32768 0:0.04595186 1:0.024834437 2:0 3:0.0018397039 4:0.0012813941 5:0.029761659 6:0.015501027 7:0.02026585 8:0.086956522 9:0.019569472 10:0.011691658 11:0.007568329 12:0.0085262978 
32768 0:0.019693654 1:0.0099337748 2:0.021582734 3:0.0018021721 4:0.0011418928 5:0.011622768 6:0.013896698 7:0.010544623 8:0.02173913 9:0.0039138943 10:0.0039619759 11:0.0055173098 12:0.0031646226 
32768 0:0.026258206 1:0.014900662 2:0.014388489 3:0.0029442913 4:0.0021921087 5:0.021519631 6:0.022577544 7:0.016574473 8:0.02173913 9:0.0078277886 10:0.00888211 11:0.0091405589 12:0.0028279552 
32768 0:0.013129103 1:0.0082781457 2:0.064748201 3:0.002369087 4:0.0016647548 5:0.014524643 6:0.01736631 7:0.018200872 8:0 9:0.0019569472 10:0.005724412 11:0.0076207252 12:0.008060475 
32768 0:0.032822757 1:0.02593819 2:0 3:0.0029729337 4:0.003649063 5:0.029362377 6:0.024258315 7:0.017977541 8:0.032608696 9:0.025440313 10:0.020204052 11:0.019489512 12:0.01025485 
32768 0:0.021881838 1:0.011037528 2:0 3:0.0045456262 4:0.0028802009 5:0.011375181 6:0.013600672 7:0.014254271 8:0.010869565 9:0.0019569472 10:0.0038775783 11:0.0063462367 12:0.0074810128 
32768 0:0.026258206 1:0.018211921 2:0 3:0.0028156005 4:0.0021592612 5:0.026699442 6:0.028441989 7:0.029808808 8:0.02173913 9:0.011741683 10:0.01251458 11:0.014422241 12:0.016067365 
6051.613022569461 0:0.04595186 1:0.030353201 2:0 3:0.0032134872 4:0.003302882 5:0.037924004 6:0.015342305 7:0.013008671 8:0.11956522 9:0.033268102 10:0.01677837 11:0.012460849 12:0.0092794022 
32768 0:0.067833698 1:0.046909492 2:0.021582734 3:0.022852187 4:0.019763199 5:0.06619413 6:0.063653106 7:0.06435724 8:0.086956522 9:0.039138943 10:0.038710075 11:0.031170822 12:0.032903404 
32768 0:0.013129103 1:0.0066225166 2:0.050359712 3:0.0024178338 4:0.0015319885 5:0.012527474 6:0.014978405 7:0.015698213 8:0 9:0 10:0.0042703726 11:0.0060509132 12:0.0044354275 
316.7981767272385 0:0.28227571 1:0.30022075 2:0.079136691 3:0.10534623 4:0.18540706 5:0.2261799 6:0.21756769 7:0.17541107 8:0.13043478 9:0.21917808 10:0.23342209 11:0.2369554 12:0.22918613 
6040.877988953978 0:0.096280088 1:0.054083885 2:0 3:0.015655312 4:0.010438562 5:0.079084344 6:0.074473425 7:0.082072248 8:0.097826087 9:0.029354207 10:0.031785394 11:0.036623492 12:0.03431366 
32768 0:0.052516411 1:0.033664459 2:0 3:0.0073591591 4:0.007128353 5:0.036606142 6:0.028850832 7:0.0244521 8:0.054347826 9:0.033268102 10:0.01998021 11:0.019729312 12:0.01593875 
32768 0:0.0065645514 1:0.0033112583 2:0 3:0.0013952774 4:0.000884076 5:0.014787952 6:0.017681133 7:0.018530825 8:0 9:0 10:0.0050409258 11:0.0073888175 12:0 
32768 0:0.010940919 1:0.0055187638 2:0 3:0.0021373323 4:0.001354257 5:0.0137044 6:0.016385591 7:0.017173023 8:0 9:0 10:0.0046715641 11:0.0080829796 12:0.0080336826 
32768 0:0.039387309 1:0.02593819 2:0 3:0.0042594342 4:0.0039120968 5:0.026662535 6:0.019177882 7:0.024119402 8:0.054347826 9:0.021526419 10:0.014044359 11:0.014365368 12:0.011483938 
32768 0:0.010940919 1:0.0071743929 2:0 3:0.0025257618 4:0.0019070655 5:0.014524643 6:0.01736631 7:0.018200872 8:0 9:0.0039138943 10:0.0073156853 11:0.0085667663 12:0.0010548742 
32768 0:0.059080963 1:0.033664459 2:0.050359712 3:0.015068641 4:0.010892233 5:0.046348823 6:0.045459069 7:0.044572736 8:0.076086957 9:0.021526419 10:0.021232762 11:0.020544395 12:0.023392933 
32768 0:0.030634573 1:0.017108168 2:0.12230216 3:0.014045274 4:0.0092181377 5:0.035947816 6:0.037729657 7:0.03458049 8:0.032608696 9:0.0097847358 10:0.014761261 11:0.021407309 12:0.018148742 
3205.025667538275 0:0.094091904 1:0.054635762 2:0.086330935 3:0.018731554 4:0.013708063 5:0.063112071 6:0.039857818 7:0.035335399 8:0.18478261 9:0.04109589 10:0.023435407 11:0.024594853 12:0.016044356 
32768 0:0.030634573 1:0.015452539 2:0.028776978 3:0.0042278163 4:0.0026788301 5:0.022726794 6:0.019985844 7:0.013552736 8:0.065217391 9:0.011741683 10:0.0077471229 11:0.008106513 12:0.010993159 
32768 0:0.041575492 1:0.028145695 2:0.079136691 3:0.0092885744 4:0.0084861938 5:0.048070256 6:0.039234747 7:0.035685812 8:0.086956522 9:0.031311155 10:0.025017489 11:0.020794456 12:0.021683841 
32768 0:0.037199125 1:0.023178808 2:0 3:0.0030776459 4:0.0028494773 5:0.016560366 6:0.012129157 7:0.01271204 8:0.032608696 9:0.0097847358 10:0.0068732578 11:0.0056858423 12:0.0051797933 
3572.294196081141 0:0.083150985 1:0.048013245 2:0 3:0.018682746 4:0.014599933 5:0.065639881 6:0.055027438 7:0.030306655 8:0.17391304 9:0.043052838 10:0.029023241 11:0.027916838 12:0.021522743 
32768 0:0.035010941 1:0.022075055 2:0.071942446 3:0.0080203476 4:0.007201302 5:0.044432176 6:0.041252085 7:0.041465565 8:0.032608696 9:0.0097847358 10:0.022107762 11:0.020542677 12:0.019083795 
32199.82791048874 0:0.13129103 1:0.088300221 2:0 3:0.030441114 4:0.026310702 5:0.11832366 6:0.11028033 7:0.097243667 8:0.18478261 9:0.072407045 10:0.052015526 11:0.064216179 12:0.050744916 
32768 0:0.054704595 1:0.040838852 2:0 3:0.0039532125 4:0.0063356342 5:0.033102367 6:0.026483185 7:0.028472 8:0.054347826 9:0.033268102 10:0.022759739 11:0.025995914 12:0.017550639 
32768 0:0.01750547 1:0.0088300221 2:0.086330935 3:0.0050799261 4:0.0032187441 5:0.021502843 6:0.023409589 7:0.02453457 8:0.010869565 9:0.0019569472 10:0.0073299017 11:0.011547904 12:0.0048426986 
32768 0:0.04595186 1:0.023178808 2:0 3:0.0073751418 4:0.0046730392 5:0.032215322 6:0.029983997 7:0.025739919 8:0.076086957 9:0.01369863 10:0.010981578 11:0.010223155 12:0.0087914408 
32768 0:0.019693654 1:0.013245033 2:0 3:0.003844079 4:0.0026671271 5:0.016513971 6:0.019744838 7:0.020693704 8:0 9:0.0039138943 10:0.0071757772 11:0.0097400898 12:0.010860595 
32768 0:0.01750547 1:0.010485651 2:0.086330935 3:0.0041535089 4:0.0031460035 5:0.020415315 6:0.024409459 7:0.025582489 8:0 9:0.0039138943 10:0.0090227173 11:0.012041138 12:0.0090769988 
32768 0:0.037199125 1:0.033664459 2:0 3:0.0018472143 4:0.0036050405 5:0.019861546 6:0.017664945 7:0.013008671 8:0.054347826 9:0.033268102 10:0.014688737 11:0.018875661 12:0.0095966675 
32768 0:0.037199125 1:0.022075055 2:0.071942446 3:0.0087671657 4:0.0067921435 5:0.032549167 6:0.023393255 7:0.02049755 8:0.054347826 9:0.017612524 10:0.013445481 11:0.016019286 12:0.012581034 
32768 0:0.01750547 1:0.010485651 2:0.071942446 3:0.0029743968 4:0.001980504 5:0.016357437 6:0.019557679 7:0.02049755 8:0 9:0.0078277886 10:0.0077629933 11:0.0096477644 12:0.010757648 
32768 0:0.056892779 1:0.035320088 2:0 3:0.0072769751 4:0.0061593466 5:0.050324285 6:0.042463926 7:0.040484688 8:0.054347826 9:0.025440313 10:0.024464611 11:0.028345804 12:0.0072031312 
32768 0:0.043763676 1:0.030353201 2:0 3:0.0038989879 4:0.0046096141 5:0.027238099 6:0.023990473 7:0.014493957 8:0.076086957 9:0.033268102 10:0.014102966 11:0.010017968 12:0.0085611951 
32768 0:0.065645514 1:0.037527594 2:0 3:0.010244908 4:0.0078079434 5:0.04687749 6:0.034059062 7:0.036652776 8:0.11956522 9:0.029354207 10:0.01881445 11:0.020585433 12:0.014172232 
32768 0:0.032822757 1:0.022626932 2:0 3:0.0057988287 4:0.0067059833 5:0.017432852 6:0.020843493 7:0.018845224 8:0.02173913 9:0.011741683 10:0.012313636 11:0.014818071 12:0.0097147304 
32768 0:0.013129103 1:0.0082781457 2:0.064748201 3:0.0030572361 4:0.002232503 5:0.014524643 6:0.01736631 7:0.018200872 8:0 9:0.0039138943 10:0.0078624504 11:0.0066746845 12:0.0084974173 
32768 0:0.032822757 1:0.024834437 2:0.0071942446 3:0.0044825921 4:0.0057883883 5:0.023441532 6:0.02643899 7:0.025328328 8:0.043478261 9:0.023483366 10:0.019407554 11:0.010755842 12:0.021717777 
32768 0:0.015317287 1:0.0093818985 2:0.086330935 3:0.0041625541 4:0.0029328548 5:0.020097795 6:0.024029818 7:0.025184604 8:0 9:0.0039138943 10:0.0097622291 11:0.0088622165 12:0.011107788 
32768 0:0.037199125 1:0.023178808 2:0 3:0.0067166151 4:0.0054010061 5:0.031301192 6:0.020744052 7:0.024785443 8:0.054347826 9:0.017612524 10:0.016649942 11:0.017587594 12:0.016008591 
32768 0:0.015317287 1:0.0077262693 2:0.10071942 3:0.0042776526 4:0.0027104073 5:0.022455701 6:0.026849034 7:0.028139302 8:0 9:0 10:0.0076547125 11:0.0093439479 12:0.0083516888 
32768 0:0.01750547 1:0.0088300221 2:0.064748201 3:0.0032494473 4:0.0020589157 5:0.01773994 6:0.018888023 7:0.019795713 8:0.02173913 9:0.0039138943 10:0.0060472012 11:0.0093174246 12:0.0061698092 
32768 0:0.032822757 1:0.016556291 2:0 3:0.010537853 4:0.0066769972 5:0.036891508 6:0.032602399 7:0.030149252 8:0.054347826 9:0.0097847358 10:0.012575599 11:0.016082699 12:0.017932861 
32768 0:0.021881838 1:0.011037528 2:0.11510791 3:0.0068293244 4:0.0043271983 5:0.026695523 6:0.031918355 7:0.033452236 8:0 9:0 10:0.0090999857 11:0.01362985 12:0.015446857 
32768 0:0.043763676 1:0.030353201 2:0.050359712 3:0.013793862 4:0.011528463 5:0.059321529 6:0.067350729 7:0.046596641 8:0.02173913 9:0.019569472 10:0.031893381 11:0.040790366 12:0.034936337 
32768 0:0.026258206 1:0.013245033 2:0.12230216 3:0.010510324 4:0.006659554 5:0.027455691 6:0.032827246 7:0.034404805 8:0 9:0 10:0.0093591123 11:0.01320197 12:0.010980226 
32768 0:0.035010941 1:0.023730684 2:0 3:0.0042382303 4:0.0046857224 5:0.034518245 6:0.023013458 7:0.032159202 8:0.076086957 9:0.025440313 10:0.017407446 11:0.011187416 12:0.0089092059 
32768 0:0.021881838 1:0.012693157 2:0.035971223 3:0.0034193891 4:0.0027703215 5:0.015639218 6:0.014925724 7:0.012732175 8:0.02173913 9:0.0078277886 10:0.005847401 11:0.005813152 12:0.0020946627 
32768 0:0.026258206 1:0.014900662 2:0.079136691 3:0.0082029202 4:0.0055049888 5:0.02382384 6:0.025003793 7:0.022200624 8:0.032608696 9:0.0097847358 10:0.010628433 11:0.0085572831 12:0.0095417174 
32768 0:0.032822757 1:0.018211921 2:0.071942446 3:0.0051349149 4:0.0039069785 5:0.02557399 6:0.019177882 7:0.020099501 8:0.043478261 9:0.011741683 10:0.010232396 11:0.009693337 12:0.0063292451 
32768 0:0.037199125 1:0.020419426 2:0.050359712 3:0.012526254 4:0.0082244861 5:0.040998675 6:0.036487423 7:0.036215503 8:0.043478261 9:0.011741683 10:0.016709478 11:0.021607892 12:0.016897091 
32768 0:0.056892779 1:0.028697572 2:0.18705036 3:0.022412078 4:0.014200747 5:0.044782685 6:0.050009799 7:0.052413089 8:0.02173913 9:0.0039138943 10:0.015265548 11:0.024669735 12:0.02370435 
32768 0:0.052516411 1:0.031456954 2:0 3:0.0078849115 4:0.0060080542 5:0.041218587 6:0.032771178 7:0.034346042 8:0.054347826 9:0.025440313 10:0.016780208 11:0.017688875 12:0.02430521 
32768 0:0.0043763676 1:0.0022075055 2:0 3:0.00062974727 4:0.00039902063 5:0.010144451 6:0.012129157 7:0.01271204 8:0 9:0 10:0.0034580464 11:0.0059832891 12:0 
32768 0:0.043763676 1:0.023730684 2:0.16546763 3:0.014175039 4:0.0092918203 5:0.038663687 6:0.045261426 7:0.047436526 8:0.02173913 9:0.011741683 10:0.013695995 11:0.022327372 12:0.022786176 
32768 0:0.026258206 1:0.022626932 2:0 3:0.0031560728 4:0.0048527399 5:0.02831404 6:0.023013458 7:0.032409472 8:0.032608696 9:0.021526419 10:0.018863997 11:0.016699877 12:0.017009335 
32768 0:0.019693654 1:0.0099337748 2:0 3:0.003756346 4:0.0023800969 5:0.015878579 6:0.018985135 7:0.019897492 8:0 9:0 10:0.0054126992 11:0.0087220682 12:0.010442722 
32768 0:0.070021882 1:0.043046358 2:0.057553957 3:0.016134733 4:0.014085815 5:0.07206501 6:0.043367004 7:0.041538362 8:0.17391304 9:0.035225049 10:0.030387916 11:0.034330946 12:0.025217543 
32768 0:0.10284464 1:0.05187638 2:0.10791367 3:0.083403676 4:0.052846259 5:0.11113669 6:0.11064688 7:0.11596416 8:0.054347826 9:0.0097847358 10:0.037884342 11:0.057895271 12:0.058625439 
32768 0:0.070021882 1:0.036975717 2:0 3:0.017929817 4:0.012184269 5:0.056267451 6:0.041068583 7:0.030149252 8:0.097826087 9:0.021526419 10:0.020165733 11:0.021760427 12:0.017133981 
32768 0:0.061269147 1:0.040286976 2:0.043165468 3:0.030219615 4:0.027400451 5:0.091634841 6:0.095858478 7:0.096238769 8:0.043478261 9:0.019569472 10:0.04368361 11:0.060809949 12:0.051668808 
32768 0:0.085339168 1:0.046909492 2:0.035971223 3:0.036071615 4:0.024379514 5:0.088796949 6:0.086720204 7:0.085586326 8:0.097826087 9:0.025440313 10:0.036358528 11:0.050642284 12:0.040982806 
32768 0:0.050328228 1:0.030353201 2:0 3:0.0045675845 4:0.003560043 5:0.03755721 6:0.027668283 7:0.039739372 8:0.054347826 9:0.021526419 10:0.015707875 11:0.021380292 12:0.017146623 
32768 0:0.087527352 1:0.057395143 2:0 3:0.015422877 4:0.015946916 5:0.055884169 6:0.0559333 7:0.054268654 8:0.086956522 9:0.046966732 10:0.037182276 11:0.036316754 12:0.030248987 
32768 0:0.028446389 1:0.016556291 2:0 3:0.0033821468 4:0.0033424277 5:0.017175731 6:0.012864914 7:0.013483155 8:0.043478261 9:0.011741683 10:0.008219073 11:0.0072048347 12:0.0052743709 
32768 0:0.076586433 1:0.045253863 2:0.1942446 3:0.040062047 4:0.027425769 5:0.069159114 6:0.070492469 7:0.076347267 8:0.097826087 9:0.033268102 10:0.027736961 11:0.040350886 12:0.036366412 
32768 0:0.039387309 1:0.021523179 2:0.11510791 3:0.012279403 4:0.0087412619 5:0.034886012 6:0.03248516 7:0.033946009 8:0.043478261 9:0.011741683 10:0.013430699 11:0.017275846 12:0.011204838 
32768 0:0.026258206 1:0.014900662 2:0.057553957 3:0.0042716224 4:0.0031971012 5:0.016839401 6:0.017153219 7:0.017977541 8:0.02173913 9:0.011741683 10:0.0072867106 11:0.0065695669 12:0.0073253333 
32768 0:0.015317287 1:0.0093818985 2:0.057553957 3:0.0024514485 4:0.0018241223 5:0.0137044 6:0.016385591 7:0.017173023 8:0 9:0.0039138943 10:0.0060232417 11:0.0061908969 12:0.0075210313 
32768 0:0.043763676 1:0.02593819 2:0 3:0.0044792841 4:0.0032839688 5:0.022562998 6:0.024258315 7:0.025424082 8:0.054347826 9:0.017612524 10:0.011488175 11:0.013304483 12:0.012288346 
32768 0:0.085339168 1:0.053532009 2:0 3:0.011403485 4:0.0097688395 5:0.062966067 6:0.057718424 7:0.046059646 8:0.11956522 9:0.045009785 10:0.030140301 11:0.030773132 12:0.029819103 
32768 0:0.024070022 1:0.027041943 2:0.086330935 3:0.0043814722 4:0.0074158367 5:0.030433353 6:0.036387471 7:0.026076422 8:0.010869565 9:0.035225049 10:0.025259263 11:0.025725859 12:0.018722045 
32768 0:0.021881838 1:0.011037528 2:0.12230216 3:0.0073093659 4:0.0046313623 5:0.028012281 6:0.03349273 7:0.035102269 8:0 9:0 10:0.009548843 11:0.013110898 12:0.016063815 
32768 0:0.039387309 1:0.023178808 2:0.021582734 3:0.0096644329 4:0.0074048474 5:0.026049273 6:0.027402477 7:0.028224469 8:0.02173913 9:0.015655577 10:0.010350743 11:0.011118206 12:0.015072658 
32768 0:0.059080963 1:0.029801325 2:0.10071942 3:0.024915514 4:0.015786974 5:0.063251975 6:0.072533001 7:0.065775416 8:0.02173913 9:0.0039138943 10:0.02156137 11:0.033610144 12:0.034166887 
32768 0:0.021881838 1:0.014900662 2:0.11510791 3:0.0070792163 4:0.0053777722 5:0.025863378 6:0.030923405 7:0.032409472 8:0 9:0.0097847358 10:0.014479983 11:0.014350775 12:0.0140257 
32768 0:0.026258206 1:0.014900662 2:0.071942446 3:0.0065742156 4:0.0044722479 5:0.020499608 6:0.019557679 7:0.02049755 8:0.02173913 9:0.0078277886 10:0.0098991999 11:0.008167454 12:0.0083988775 
32768 0:0.050328228 1:0.03200883 2:0 3:0.0090286146 4:0.0082120567 5:0.034549224 6:0.032390505 7:0.019852087 8:0.076086957 9:0.037181996 10:0.014686036 11:0.013742209 12:0.014674141 
32768 0:0.048140044 1:0.027593819 2:0.15107914 3:0.014676381 4:0.010308395 5:0.04195603 6:0.041304861 7:0.044535419 8:0.043478261 9:0.015655577 10:0.016580841 11:0.01862314 12:0.019041456 
32768 0:0.015317287 1:0.0093818985 2:0.050359712 3:0.0022841178 4:0.0016787041 5:0.017757756 6:0.01356081 7:0.014212494 8:0.02173913 9:0.0078277886 10:0.007467092 11:0.0053516167 12:0.0053493385 
32768 0:0.037199125 1:0.020419426 2:0.064748201 3:0.0099991954 4:0.0067118798 5:0.037806332 6:0.039606865 7:0.036757861 8:0.043478261 9:0.011741683 10:0.016056981 11:0.021308028 12:0.014758737 
32768 0:0.056892779 1:0.040286976 2:0 3:0.010079875 4:0.010477896 5:0.039522399 6:0.036237658 7:0.032609046 8:0.065217391 9:0.035225049 10:0.023410547 11:0.021339418 12:0.019274524 
32768 0:0.070021882 1:0.035320088 2:0.079136691 3:0.027823706 4:0.017629664 5:0.059128362 6:0.064048795 7:0.067126748 8:0.054347826 9:0.0097847358 10:0.020155711 11:0.032574401 12:0.030521867 
32768 0:0.010940919 1:0.0071743929 2:0.050359712 3:0.0017208515 4:0.0012934137 5:0.011566455 6:0.013829368 7:0.014493957 8:0 9:0.0039138943 10:0.005841223 11:0.0077680415 12:0.0065519322 
32768 0:0.061269147 1:0.043598234 2:0 3:0.012035142 4:0.013442571 5:0.052338858 6:0.048569088 7:0.041784645 8:0.076086957 9:0.033268102 10:0.031109746 11:0.022328982 12:0.019682403 
3285.71782801156 0:0.13347921 1:0.16390728 2:0.20143885 3:0.076048106 4:0.093572586 5:0.17399902 6:0.14236884 7:0.10776622 8:0.13043478 9:0.15655577 10:0.16033502 11:0.14704796 12:0.12792208 
8519.867856847532 0:0.067833698 1:0.082781457 2:0.079136691 3:0.026037988 4:0.05681315 5:0.0675338 6:0.049301292 7:0.068023445 8:0.032608696 9:0.064579256 10:0.063496185 11:0.060779743 12:0.049396609 
12458.29532502782 0:0.14223195 1:0.1285872 2:0.28057554 3:0.069895348 4:0.076414 5:0.10825047 6:0.084453401 7:0.079589966 8:0.15217391 9:0.11545988 10:0.10547046 11:0.10395928 12:0.085513524 
32768 0:0.041575492 1:0.022626932 2:0.15107914 3:0.018479363 4:0.0119318 5:0.039127156 6:0.04140249 7:0.042637481 8:0.010869565 9:0.0058708415 10:0.015236131 11:0.020962138 12:0.022377261 
32768 0:0.052516411 1:0.029801325 2:0.17266187 3:0.018408603 4:0.013042427 5:0.044930513 6:0.047015154 7:0.049274532 8:0.043478261 9:0.015655577 10:0.01795255 11:0.021854579 12:0.024368741 
32768 0:0.04595186 1:0.024834437 2:0.035971223 3:0.017218711 4:0.011257917 5:0.055005134 6:0.047490504 7:0.053719311 8:0.065217391 9:0.015655577 10:0.021919718 11:0.023169135 12:0.024630206 
32768 0:0.0043763676 1:0.0022075055 2:0 3:0.00027275762 4:0.00017282475 5:0.0057832267 6:0.0069146831 7:0.0072469777 8:0 9:0 10:0.0019713897 11:0.0034109995 12:0 
32768 0:0.032822757 1:0.018211921 2:0.13669065 3:0.014740662 4:0.0095515686 5:0.038549665 6:0.046091694 7:0.039489255 8:0.010869565 9:0.0058708415 10:0.014781128 11:0.021953216 12:0.019233173 
32768 0:0.059080963 1:0.040838852 2:0 3:0.008684505 4:0.0084462316 5:0.05000022 6:0.037970269 7:0.028375176 8:0.076086957 9:0.037181996 10:0.027952045 11:0.025160873 12:0.017066462 
32768 0:0.035010941 1:0.019315673 2:0 3:0.0027071362 4:0.0021096299 5:0.016581451 6:0.014000933 7:0.0089887704 8:0.054347826 9:0.01369863 10:0.006665133 11:0.0032362041 12:0.0059672694 
32768 0:0.032822757 1:0.021523179 2:0 3:0.0029723341 4:0.0033837982 5:0.015129698 6:0.0095889409 7:0.010049751 8:0.043478261 9:0.011741683 10:0.007351669 11:0.0062755819 12:0.0052743709 
32768 0:0.061269147 1:0.039735099 2:0.043165468 3:0.019028535 4:0.016308251 5:0.048284352 6:0.045658493 7:0.039423626 8:0.065217391 9:0.023483366 10:0.024676228 11:0.027190952 12:0.025429488 
32768 0:0.015317287 1:0.0077262693 2:0.064748201 3:0.0024904789 4:0.0015780179 5:0.014524643 6:0.01736631 7:0.018200872 8:0 9:0 10:0.004951169 11:0.0055751215 12:0.0062164864 
32768 0:0.026258206 1:0.014900662 2:0 3:0.0047659096 4:0.0033272292 5:0.025663658 6:0.030684611 7:0.032159202 8:0.010869565 9:0.0058708415 10:0.010482349 11:0.013244576 12:0.014768239 
32768 0:0.04595186 1:0.024834437 2:0 3:0.024164277 4:0.015581811 5:0.042544642 6:0.045875063 7:0.048079652 8:0.054347826 9:0.01369863 10:0.015401364 11:0.022972333 12:0.023125985 
32768 0:0.028446389 1:0.016004415 2:0.086330935 3:0.0077560464 4:0.0051259741 5:0.022453429 6:0.023093229 7:0.024203006 8:0.02173913 9:0.0078277886 10:0.0092942342 11:0.01005394 12:0.01121055 
32768 0:0.026258206 1:0.013245033 2:0.1294964 3:0.0078714348 4:0.0049875006 5:0.029270661 6:0.034732619 7:0.036401743 8:0.02173913 9:0.0039138943 10:0.0099778001 11:0.017133533 12:0.015939961 
32768 0:0.039387309 1:0.029249448 2:0.15107914 3:0.015363375 4:0.011481984 5:0.038813711 6:0.040637201 7:0.042590078 8:0.043478261 9:0.031311155 10:0.023884714 11:0.01910021 12:0.023844201 
32768 0:0.043763676 1:0.028145695 2:0 3:0.0081787794 4:0.0078384632 5:0.045044835 6:0.049131021 7:0.0409951 8:0.032608696 9:0.021526419 10:0.021728034 11:0.018559989 12:0.021185238 
32768 0:0.028446389 1:0.018211921 2:0 3:0.0016858749 4:0.0017057399 5:0.016757826 6:0.020036401 7:0.0082872375 8:0.043478261 9:0.015655577 10:0.010512994 11:0.0068552137 12:0.0023587704 
32768 0:0.015317287 1:0.0077262693 2:0.09352518 3:0.004474088 4:0.0028348728 5:0.022340836 6:0.026711697 7:0.027995365 8:0 9:0 10:0.0076155573 11:0.0089460034 12:0.0076163856 
10794.37741531943 0:0.17724289 1:0.12527594 2:0.043165468 3:0.057289189 4:0.057989579 5:0.13234969 6:0.12960711 7:0.1231067 8:0.26086957 9:0.11741683 10:0.079766653 11:0.078057408 12:0.06190141 
32768 0:0.01750547 1:0.0088300221 2:0.079136691 3:0.0045649908 4:0.0028924706 5:0.018705445 6:0.022365062 7:0.023439846 8:0 9:0 10:0.0063763232 11:0.011032641 12:0.0048427545 
32768 0:0.043763676 1:0.027593819 2:0 3:0.013469105 4:0.009550797 5:0.057832269 6:0.061488966 7:0.057556211 8:0.010869565 9:0.01369863 10:0.024471648 11:0.036002079 12:0.031712091 
32768 0:0.041575492 1:0.022626932 2:0 3:0.0039052801 4:0.0028610197 5:0.026104149 6:0.018090596 7:0.015836004 8:0.076086957 9:0.021526419 10:0.010381544 11:0.0097571922 12:0.0049753416 
32768 0:0.028446389 1:0.014348786 2:0 3:0.0069216069 4:0.0043856704 5:0.022389922 6:0.019177882 7:0.020099501 8:0.032608696 9:0.0058708415 10:0.0076322897 11:0.0094604113 12:0.0094938677 
32768 0:0.035010941 1:0.025386313 2:0 3:0.0024040815 4:0.0030617098 5:0.028300132 6:0.025260286 7:0.020099501 8:0.054347826 9:0.025440313 10:0.017959389 11:0.015370983 12:0.010401023 
32768 0:0.054704595 1:0.034216336 2:0.043165468 3:0.017600683 4:0.013911906 5:0.051982083 6:0.050737742 7:0.049808456 8:0.097826087 9:0.029354207 10:0.024583703 11:0.022216544 12:0.023135707 
32768 0:0.015317287 1:0.012693157 2:0.064748201 3:0.0018429454 4:0.002160835 5:0.014787952 6:0.017681133 7:0.018530825 8:0 9:0.0039138943 10:0.0091580998 11:0.01202955 12:0.010599346 
32768 0:0.026258206 1:0.013245033 2:0.071942446 3:0.0040512444 4:0.0025669505 5:0.016655902 6:0.019914537 7:0.016199317 8:0.02173913 9:0.0039138943 10:0.0056776736 11:0.0080713374 12:0.0075247887 
32768 0:0.035010941 1:0.019315673 2:0 3:0.0042287216 4:0.0029946345 5:0.024951168 6:0.017153219 7:0.017054992 8:0.054347826 9:0.01369863 10:0.011190173 11:0.005696174 12:0.0079432637 
32768 0:0.01750547 1:0.010485651 2:0.064748201 3:0.0042467062 4:0.0029023855 5:0.016600743 6:0.018193735 7:0.019068061 8:0.02173913 9:0.0078277886 10:0.0072991667 11:0.0099209749 12:0.007897667 
32768 0:0.048140044 1:0.029249448 2:0.064748201 3:0.012202792 4:0.0092176594 5:0.051423636 6:0.060173907 7:0.060684421 8:0.02173913 9:0.015655577 10:0.023341649 11:0.02985785 12:0.028380954 
32768 0:0.041575492 1:0.024282561 2:0 3:0.0061932619 4:0.0052746917 5:0.040800166 6:0.025729828 7:0.032571855 8:0.054347826 9:0.017612524 10:0.018083257 11:0.018410945 12:0.013708594 
32768 0:0.019693654 1:0.0099337748 2:0.035971223 3:0.0020049253 4:0.0012703613 5:0.017327699 6:0.020717768 7:0.010823914 8:0.02173913 9:0.0039138943 10:0.0059066763 11:0.00495497 12:0.0056806718 
32768 0:0.043763676 1:0.029801325 2:0 3:0.00272965 4:0.0031789223 5:0.020399956 6:0.015814486 7:0.016574473 8:0.032608696 9:0.029354207 10:0.013243893 11:0.006463351 12:0.0086987152 
32768 0:0.015317287 1:0.012693157 2:0 3:0.0009576739 4:0.0018936696 5:0.018426196 6:0.015018107 7:0.011719923 8:0.02173913 9:0.011741683 10:0.013575103 11:0.0057927101 12:0.0043493581 
32768 0:0.048140044 1:0.029249448 2:0 3:0.008775426 4:0.0064601184 5:0.054376052 6:0.054874278 7:0.055846238 8:0.076086957 9:0.025440313 10:0.023892231 11:0.023931052 12:0.023836727 
32768 0:0.01750547 1:0.014348786 2:0 3:0.002423817 4:0.0029775486 5:0.016068971 6:0.016940738 7:0.012292544 8:0.02173913 9:0.011741683 10:0.0086687509 11:0.0079053948 12:0.0099430707 
32768 0:0.010940919 1:0.0071743929 2:0.057553957 3:0.0018769553 4:0.0017528497 5:0.013226746 6:0.015814486 7:0.016574473 8:0 9:0.0039138943 10:0.006953949 11:0.0078012548 12:0.0063399445 
32768 0:0.01750547 1:0.010485651 2:0.064748201 3:0.0041351535 4:0.0029154932 5:0.014524643 6:0.01736631 7:0.018200872 8:0 9:0.0039138943 10:0.0078624504 11:0.0095128074 12:0.0062164864 
32768 0:0.030634573 1:0.017108168 2:0 3:0.0040330353 4:0.0028628652 5:0.02589164 6:0.030957197 7:0.028424987 8:0.032608696 9:0.0097847358 10:0.011333306 11:0.014716946 12:0.014918174 
32768 0:0.015317287 1:0.0093818985 2:0.09352518 3:0.0044388132 4:0.0031887092 5:0.021816469 6:0.02608474 7:0.027338278 8:0 9:0.0039138943 10:0.010606347 11:0.0094565507 12:0.011364205 
32768 0:0.037199125 1:0.020419426 2:0.050359712 3:0.011741925 4:0.0076912172 5:0.033339833 6:0.039862588 7:0.035510927 8:0.010869565 9:0.0058708415 10:0.013911107 11:0.017660285 12:0.015103928 
32768 0:0.035010941 1:0.023730684 2:0 3:0.0036417344 4:0.0033429155 5:0.023354281 6:0.027923417 7:0.02049755 8:0.010869565 9:0.0097847358 10:0.013274675 11:0.016220826 12:0.017468949 
32768 0:0.013129103 1:0.0066225166 2:0.050359712 3:0.0024612513 4:0.0015594987 5:0.012215537 6:0.01460544 7:0.015307324 8:0 9:0 10:0.0041640396 11:0.0053127524 12:0.0036843242 
32768 0:0.035010941 1:0.021523179 2:0 3:0.0038651269 4:0.0033264097 5:0.030950511 6:0.020655212 7:0.025739919 8:0.032608696 9:0.01369863 10:0.014656239 11:0.014007319 12:0.0056806718 
32768 0:0.021881838 1:0.012693157 2:0.014388489 3:0.0011261428 4:0.00093644865 5:0.0075518582 6:0.0090293376 7:0.0044943852 8:0.02173913 9:0.011741683 10:0.004378915 11:0.0023387423 12:0.0017408399 
32768 0:0.015317287 1:0.0093818985 2:0.064748201 3:0.0036945184 4:0.0026362981 5:0.014787952 6:0.017681133 7:0.018530825 8:0 9:0.0039138943 10:0.0079522073 11:0.0057304239 12:0.0076157106 
32768 0:0.01750547 1:0.0088300221 2:0.064748201 3:0.0029600813 4:0.0018755674 5:0.015797357 6:0.018888023 7:0.019795713 8:0 9:0 10:0.0053850125 11:0.0093174246 12:0.0061698092 
32768 0:0.021881838 1:0.014348786 2:0.0071942446 3:0.0011763306 4:0.0011993744 5:0.010677452 6:0.0089308598 7:0.003675047 8:0.02173913 9:0.015655577 10:0.0066317094 11:0.0041822453 12:0.0025536246 
32768 0:0.043763676 1:0.032560706 2:0 3:0.0084796142 4:0.009081546 5:0.051971577 6:0.041072289 7:0.039026174 8:0.065217391 9:0.031311155 10:0.030134361 11:0.022549837 12:0.036399856 
32768 0:0.01750547 1:0.010485651 2:0.035971223 3:0.0014336193 4:0.0012665319 5:0.0080198931 6:0.0095889409 7:0.010049751 8:0 9:0.0039138943 10:0.0035692087 11:0.0047302056 12:0.0037825532 
32768 0:0.032822757 1:0.024282561 2:0 3:0.0031655714 4:0.0038772716 5:0.014711006 6:0.014436849 7:0.01271204 8:0.02173913 9:0.023483366 10:0.010650803 11:0.0097164022 12:0.011093905 
32768 0:0.015317287 1:0.012693157 2:0.043165468 3:0.0013214142 4:0.0014599578 5:0.010270474 6:0.012279835 7:0.01286996 8:0 9:0.01369863 10:0.0072476697 11:0.0085813731 12:0.0067544901 
32768 0:0.024070022 1:0.017108168 2:0.014388489 3:0.0014150576 4:0.0015625382 5:0.023419893 6:0.018741967 7:0.013035091 8:0.043478261 9:0.019569472 10:0.013628494 11:0.0094428244 12:0.0066716097 
32768 0:0.041575492 1:0.029249448 2:0 3:0.0046460426 4:0.0045748087 5:0.01727538 6:0.020655212 7:0.021647827 8:0.010869565 9:0.02739726 10:0.015902043 11:0.010849569 12:0.010743411 
32768 0:0.030634573 1:0.015452539 2:0 3:0.0062211006 4:0.0039418154 5:0.032306374 6:0.035362267 7:0.032409472 8:0.032608696 9:0.0058708415 10:0.011012616 11:0.017444136 12:0.018148742 
32768 0:0.028446389 1:0.021523179 2:0 3:0.0011209221 4:0.00275894 5:0.021223125 6:0.01770416 7:0.01286996 8:0.043478261 9:0.015655577 10:0.015131292 11:0.0094978081 12:0.0073841193 
32768 0:0.035010941 1:0.023178808 2:0 3:0.0033472024 4:0.0036216327 5:0.030328433 6:0.021285569 7:0.030680975 8:0.065217391 9:0.019569472 10:0.017717587 11:0.019810091 12:0.0073841193 
32768 0:0.04595186 1:0.026490066 2:0.035971223 3:0.0048493696 4:0.003543004 5:0.034470032 6:0.027450661 7:0.02876984 8:0.065217391 9:0.023483366 10:0.016622029 11:0.010183123 12:0.017208909 
32768 0:0.0043763676 1:0.0022075055 2:0.014388489 3:0.00032045581 4:0.00020304729 5:0.0039652533 6:0.0038355764 7:0.0040199003 8:0.010869565 9:0.0019569472 10:0.0013516779 11:0.0018920823 12:0 
32768 0:0.028446389 1:0.022075055 2:0 3:0.0016349531 4:0.0045099972 5:0.019565394 6:0.019557679 7:0.02049755 8:0.02173913 9:0.011741683 10:0.017191084 11:0.011399678 12:0.0086987152 
32768 0:0.043763676 1:0.029249448 2:0 3:0.0059123663 4:0.005191302 5:0.030572021 6:0.034306438 7:0.032409472 8:0.032608696 9:0.0097847358 10:0.015356765 11:0.019825723 12:0.012168668 
32768 0:0.054704595 1:0.035871965 2:0.028776978 3:0.0093975166 4:0.0086463856 5:0.042115795 6:0.038909652 7:0.033455836 8:0.097826087 9:0.037181996 10:0.02215807 11:0.019763578 12:0.018828004 
32768 0:0.030634573 1:0.015452539 2:0 3:0.0032823139 4:0.0020797406 5:0.018610638 6:0.014580554 7:0.011358168 8:0.032608696 9:0.0058708415 10:0.0063440051 11:0.0045610213 12:0.0043493581 
32670.70166256961 0:0.01750547 1:0.0088300221 2:0.079136691 3:0.0039366435 4:0.002494337 5:0.01828817 6:0.02186615 7:0.022916958 8:0 9:0 10:0.0062340822 11:0.010786529 12:0.0052729258 
32768 0:0.087527352 1:0.054635762 2:0 3:0.018322872 4:0.013790499 5:0.070444829 6:0.066724088 7:0.059785842 8:0.10869565 9:0.039138943 10:0.032496359 11:0.033876529 12:0.037622318 
32768 0:0.039387309 1:0.026490066 2:0.10791367 3:0.010128592 4:0.0088190023 5:0.046551462 6:0.05073968 7:0.040386224 8:0.02173913 9:0.015655577 10:0.023728473 11:0.031450912 12:0.025799475 
32768 0:0.13785558 1:0.074503311 2:0 3:0.066344981 4:0.042802093 5:0.12486108 6:0.13858285 7:0.13578053 8:0.076086957 9:0.025440313 10:0.046000458 11:0.066542761 12:0.072839806 
32768 0:0.052516411 1:0.033112583 2:0 3:0.0055630455 4:0.0057525213 5:0.029207596 6:0.02844576 7:0.025962665 8:0.065217391 9:0.02739726 10:0.017522722 11:0.018381155 12:0.012176628 
32768 0:0.010940919 1:0.0055187638 2:0.057553957 3:0.0017821818 4:0.0011292265 5:0.013610209 6:0.016272972 7:0.017054992 8:0 9:0 10:0.0046394561 11:0.0080274248 12:0.0065921337 
20096.87150280342 0:0.050328228 1:0.033664459 2:0 3:0.005630236 4:0.0055214017 5:0.034863507 6:0.022921074 7:0.017977541 8:0.097826087 9:0.033268102 10:0.017467413 11:0.016813705 12:0.010999737 
32768 0:0.039387309 1:0.022075055 2:0.0071942446 3:0.004596525 4:0.0034238982 5:0.022366314 6:0.016748367 7:0.017553233 8:0.043478261 9:0.011741683 10:0.0093799614 11:0.007568329 12:0.0048582766 
32768 0:0.035010941 1:0.022626932 2:0.043165468 3:0.0047667889 4:0.0038438386 5:0.0231604 6:0.023100818 7:0.020348525 8:0.065217391 9:0.023483366 10:0.010309669 11:0.0042308246 12:0.011651668 
32768 0:0.048140044 1:0.02593819 2:0 3:0.009913051 4:0.0064249088 5:0.038495487 6:0.038355764 7:0.044218903 8:0.043478261 9:0.011741683 10:0.014668849 11:0.016843784 12:0.021097484 
32768 0:0.050328228 1:0.033112583 2:0.021582734 3:0.012114044 4:0.0091096449 5:0.03566508 6:0.037218434 7:0.039007017 8:0.032608696 9:0.029354207 10:0.0183291 11:0.020426383 12:0.018226983 
32768 0:0.013129103 1:0.0066225166 2:0 3:0.0021147442 4:0.0013399448 5:0.010144451 6:0.012129157 7:0.01271204 8:0 9:0 10:0.0034580464 11:0.0050945878 12:0.0047175409 
32768 0:0.01750547 1:0.0088300221 2:0.064748201 3:0.0027839615 4:0.0017639744 5:0.01528194 6:0.01736631 7:0.018200872 8:0.02173913 9:0.0039138943 10:0.0052093168 11:0.0085667663 12:0.0062164864 
32768 0:0.037199125 1:0.018763797 2:0.043165468 3:0.0073586564 4:0.0046625937 5:0.028393158 6:0.026414208 7:0.01869481 8:0.032608696 9:0.0058708415 10:0.0096786763 11:0.011361234 12:0.0036232976 
32768 0:0.015317287 1:0.0093818985 2:0.10071942 3:0.0043609299 4:0.0029860753 5:0.023132908 6:0.027658734 7:0.028987913 8:0 9:0.0058708415 10:0.010010481 11:0.011528587 12:0.014158738 
32768 0:0.041575492 1:0.029801325 2:0 3:0.0034095405 4:0.0038005164 5:0.027923891 6:0.0219727 7:0.016574473 8:0.076086957 9:0.025440313 10:0.013004451 11:0.014316212 12:0.012282648 
32768 0:0.037199125 1:0.027041943 2:0 3:0.0030491325 4:0.004718142 5:0.021360631 6:0.021854391 7:0.022904634 8:0.02173913 9:0.017612524 10:0.016300943 11:0.011659536 12:0.013005516 
32768 0:0.04595186 1:0.024834437 2:0.057553957 3:0.0070699794 4:0.0047306625 5:0.034872135 6:0.03559564 7:0.034182279 8:0.043478261 9:0.011741683 10:0.013785677 11:0.017205435 12:0.014093595 
32768 0:0.021881838 1:0.012693157 2:0.10071942 3:0.005378959 4:0.0036311193 5:0.023844857 6:0.028509971 7:0.029880057 8:0 9:0.0058708415 10:0.010253169 11:0.0119485 12:0.013323062 
32768 0:0.056892779 1:0.036423841 2:0 3:0.008029166 4:0.0074931061 5:0.03595849 6:0.028326499 7:0.023439846 8:0.076086957 9:0.037181996 10:0.01990486 11:0.018115366 12:0.013175727 
32768 0:0.028446389 1:0.01986755 2:0.043165468 3:0.004557832 4:0.0035137089 5:0.026784443 6:0.032024672 7:0.029543763 8:0.010869565 9:0.017612524 10:0.014675664 11:0.015797707 12:0.0091201947 
32768 0:0.041575492 1:0.024834437 2:0 3:0.0042852281 4:0.0032547326 5:0.027169517 6:0.019557679 7:0.02049755 8:0.054347826 9:0.019569472 10:0.012625905 11:0.016609028 12:0.009702774 
32768 0:0.026258206 1:0.014900662 2:0 3:0.0034820767 4:0.0025644758 5:0.016223353 6:0.01579426 7:0.01271204 8:0.02173913 9:0.0078277886 10:0.0063656097 11:0.0050945878 12:0.0056806718 
32768 0:0.013129103 1:0.0082781457 2:0.050359712 3:0.0016307126 4:0.0011489729 5:0.011677141 6:0.013961709 7:0.014632658 8:0 9:0.0078277886 10:0.0066205262 11:0.0082251867 12:0.0076796 
32768 0:0.054704595 1:0.029249448 2:0 3:0.00681619 4:0.0046770378 5:0.039558423 6:0.035160944 7:0.031025548 8:0.076086957 9:0.017612524 10:0.014320082 11:0.012264329 12:0.011105572 
32768 0:0.026258206 1:0.013245033 2:0.09352518 3:0.0082673173 4:0.0052383397 5:0.027473237 6:0.025224565 7:0.026436767 8:0.02173913 9:0.0039138943 10:0.0093650931 11:0.010327815 12:0.0072030935 
32768 0:0.024070022 1:0.017108168 2:0 3:0.0038605956 4:0.0046203364 5:0.02037829 6:0.013424517 7:0.014069651 8:0.065217391 9:0.019569472 10:0.011217967 11:0.010266835 12:0.0084389935 
32768 0:0.026258206 1:0.013245033 2:0 3:0.0042553869 4:0.0026962994 5:0.024704085 6:0.02186615 7:0.022916958 8:0.043478261 9:0.0078277886 10:0.0084211429 11:0.0089749338 12:0.0064165499 
32768 0:0.026258206 1:0.014900662 2:0.086330935 3:0.0054975368 4:0.0037655007 5:0.026100881 6:0.02455967 7:0.029223506 8:0.043478261 9:0.011741683 10:0.010569249 11:0.0099998249 12:0.01115021 
5139.120847879331 0:0.089715536 1:0.10871965 2:0.035971223 3:0.03910358 4:0.066676762 5:0.071478668 6:0.077359522 7:0.077593557 8:0.065217391 9:0.084148728 10:0.078833692 11:0.058865271 12:0.05241359 
32768 0:0.032822757 1:0.016556291 2:0 3:0.0041108964 4:0.0026047472 5:0.023354281 6:0.027923417 7:0.021647827 8:0.010869565 9:0.0019569472 10:0.0079610211 11:0.0098511669 12:0.01300043 
32768 0:0.070021882 1:0.043046358 2:0 3:0.011951231 4:0.011119271 5:0.058405854 6:0.059950618 7:0.073188541 8:0.032608696 9:0.019569472 10:0.027640477 11:0.039233806 12:0.03284419 
3715.808956502642 0:0.12910284 1:0.1098234 2:0.28057554 3:0.055625235 4:0.072861507 5:0.13138384 6:0.12300664 7:0.11909251 8:0.15217391 9:0.13307241 10:0.087911841 11:0.08381567 12:0.082995997 
32768 0:0.15317287 1:0.084437086 2:0.38129496 3:0.082041775 4:0.053202877 5:0.10876061 6:0.11251075 7:0.11389771 8:0.13043478 9:0.037181996 10:0.041790401 11:0.059877069 12:0.064775494 
32768 0:0.019693654 1:0.017660044 2:0 3:0.0012432296 4:0.0042714693 5:0.019565394 6:0.019557679 7:0.02049755 8:0.02173913 9:0.011741683 10:0.017264886 11:0.010577061 12:0.0073841193 
32768 0:0.01750547 1:0.014900662 2:0.043165468 3:0.0015655408 4:0.0020823482 5:0.012393094 6:0.011665451 7:0.012226051 8:0.02173913 9:0.011741683 10:0.0090852635 11:0.008746188 12:0.0074714241 
32768 0:0.043763676 1:0.027593819 2:0 3:0.0046965204 4:0.0045703629 5:0.031484747 6:0.017514696 7:0.019759456 8:0.097826087 9:0.029354207 10:0.017098914 11:0.0091747645 12:0.013475042 
32768 0:0.11378556 1:0.062362031 2:0 3:0.028299564 4:0.020732204 5:0.093138785 6:0.076843884 7:0.054482419 8:0.16304348 9:0.04109589 10:0.037128184 11:0.040077962 12:0.034667211 
32768 0:0.015317287 1:0.0077262693 2:0 3:0.0017984415 4:0.001139529 5:0.0080198931 6:0.0095889409 7:0.010049751 8:0 9:0 10:0.0027338259 11:0.0047302056 12:0.0043493581 
32768 0:0.0043763676 1:0.0022075055 2:0.028776978 3:0.000525879 4:0.00033320759 5:0.0066133739 6:0.0079072439 7:0.0082872375 8:0 9:0 10:0.0022543708 11:0.0039006278 12:0 
32768 0:0.013129103 1:0.0066225166 2:0.086330935 3:0.0032094863 4:0.0020335955 5:0.019513243 6:0.023330901 7:0.0244521 8:0 9:0 10:0.0066516856 11:0.0096170051 12:0.008613602 
32768 0:0.013129103 1:0.0082781457 2:0.035971223 3:0.00094245429 4:0.00069302406 5:0.0081787191 6:0.0097788403 7:0.010248776 8:0 9:0.0078277886 10:0.0049750273 11:0.0048238826 12:0.0053788246 
32768 0:0.013129103 1:0.0082781457 2:0.057553957 3:0.0019498525 4:0.0013710409 5:0.0137044 6:0.016385591 7:0.017173023 8:0 9:0.0078277886 10:0.0077645347 11:0.0094208825 12:0.0090128498 
32768 0:0.0087527352 1:0.004415011 2:0.028776978 3:0.00050747131 4:0.0003215441 5:0.0071732106 6:0.0085766096 7:0.0089887704 8:0 9:0 10:0.0024452082 11:0.0042308246 12:0.0047175409 
32768 0:0.015317287 1:0.0093818985 2:0.064748201 3:0.0023780276 4:0.0016423413 5:0.014787952 6:0.017681133 7:0.018530825 8:0 9:0.0078277886 10:0.0081338969 11:0.0087220682 12:0.0082336425 
32768 0:0.030634573 1:0.023178808 2:0 3:0.0031692081 4:0.0041039464 5:0.026956862 6:0.02455967 7:0.025739919 8:0.054347826 9:0.017612524 10:0.014062097 11:0.016217604 12:0.016579282 
32768 0:0.10940919 1:0.081125828 2:0.32374101 3:0.05743931 4:0.049267149 5:0.10593246 6:0.098448615 7:0.09100436 8:0.16304348 9:0.068493151 10:0.059225816 11:0.068402768 12:0.066212775 
32768 0:0.06345733 1:0.048565121 2:0.043165468 3:0.020442288 4:0.022825587 5:0.047599285 6:0.047190806 7:0.040429081 8:0.097826087 9:0.052837573 10:0.033069206 11:0.022880991 12:0.033713543 
32768 0:0.013129103 1:0.017108168 2:0.043165468 3:0.0014547879 4:0.0039012593 5:0.012023629 6:0.012129157 7:0.01271204 8:0.02173913 9:0.023483366 10:0.012009092 11:0.0084607289 12:0.008560169 
32768 0:0.050328228 1:0.027041943 2:0.27338129 3:0.037106022 4:0.024121213 5:0.06639426 6:0.074695327 7:0.078284914 8:0.02173913 9:0.0078277886 10:0.02637325 11:0.037967851 12:0.038727191 
32768 0:0.0065645514 1:0.0033112583 2:0.24460432 3:0.00978155 4:0.0061977882 5:0.0074529136 6:0.008911035 7:0.0093392671 8:0 9:0 10:0.0025405536 11:0.0033757462 12:0 
32768 0:0.015317287 1:0.0077262693 2:0.14388489 3:0.0094506273 4:0.0059881089 5:0.014778696 6:0.017670066 7:0.018519226 8:0 9:0 10:0.0050377706 11:0.0059578899 12:0.0053707368 
22472.03177567348 0:0.035010941 1:0.036423841 2:0.079136691 3:0.0063354312 4:0.010369498 5:0.032062752 6:0.034972259 7:0.036652899 8:0.032608696 9:0.04109589 10:0.027512906 11:0.022473305 12:0.015588099 
32768 0:0.010940919 1:0.0077262693 2:0.057553957 3:0.0016214408 4:0.0012588185 5:0.013797946 6:0.016497438 7:0.017290245 8:0 9:0.0078277886 10:0.0084369977 11:0.0068002494 12:0.0090743711 
32768 0:0.019693654 1:0.013245033 2:0.1294964 3:0.0079924927 4:0.0061220328 5:0.029964793 6:0.035827239 7:0.037548967 8:0 9:0.0078277886 10:0.016583744 11:0.017683102 12:0.017347907 
32768 0:0.035010941 1:0.025386313 2:0.028776978 3:0.0051902771 4:0.0068629371 5:0.032279293 6:0.027087827 7:0.02838957 8:0.065217391 9:0.023483366 10:0.021107056 11:0.015564739 12:0.015517518 
32768 0:0.019693654 1:0.017660044 2:0.050359712 3:0.0030505267 4:0.0042457859 5:0.015476967 6:0.013424517 7:0.014069651 8:0.043478261 9:0.023483366 10:0.012163208 11:0.0094325626 12:0.0063292451 
32768 0:0.037199125 1:0.022075055 2:0 3:0.0057663711 4:0.0042003609 5:0.024868662 6:0.02186615 7:0.022916958 8:0.043478261 9:0.015655577 10:0.010476685 11:0.012256912 12:0.0052743709 
32768 0:0.015317287 1:0.0077262693 2:0.071942446 3:0.0027748791 4:0.0017582196 5:0.016039786 6:0.019177882 7:0.020099501 8:0 9:0 10:0.0054676518 11:0.0081225065 12:0.0072129363 
32768 0:0.015317287 1:0.0093818985 2:0.057553957 3:0.0036411067 4:0.0026137707 5:0.023371199 6:0.020572987 7:0.016574473 8:0.02173913 9:0.0078277886 10:0.01087807 11:0.0048096105 12:0.0063399445 
4174.822798469752 0:0.12472648 1:0.11203091 2:0 3:0.067107819 4:0.077440048 5:0.16963009 6:0.17233126 7:0.14694345 8:0.17391304 9:0.097847358 10:0.12563436 11:0.11824645 12:0.10718138 
32768 0:0.037199125 1:0.027041943 2:0.043165468 3:0.011144725 4:0.01068192 5:0.037974563 6:0.038344347 7:0.04362019 8:0.032608696 9:0.021526419 10:0.021473698 11:0.023188919 12:0.024968462 
32768 0:0.065645514 1:0.049668874 2:0.1294964 3:0.015517485 4:0.01427612 5:0.063351606 6:0.063477008 7:0.053197038 8:0.086956522 9:0.054794521 10:0.038078024 11:0.035333014 12:0.038200325 
32768 0:0.048140044 1:0.029801325 2:0.13669065 3:0.021855946 4:0.017727041 5:0.056669932 6:0.048785291 7:0.057409887 8:0.032608696 9:0.017612524 10:0.028699638 11:0.03148851 12:0.026834217 
32768 0:0.098468271 1:0.051324503 2:0.38848921 3:0.080570223 4:0.051745199 5:0.096019289 6:0.10535803 7:0.10855592 8:0.043478261 9:0.015655577 10:0.034245831 11:0.053143657 12:0.052631874 
32768 0:0.041575492 1:0.032560706 2:0 3:0.0056320472 4:0.00891366 5:0.026880822 6:0.029867868 7:0.02419476 8:0.043478261 9:0.023483366 10:0.022619028 11:0.018692658 12:0.016632887 
32768 0:0.021881838 1:0.017660044 2:0.043165468 3:0.0025564302 4:0.0031742041 5:0.014017116 6:0.011506729 7:0.012059701 8:0.02173913 9:0.023483366 10:0.010528501 11:0.009919507 12:0.0095077345 
32768 0:0.043763676 1:0.042494481 2:0.050359712 3:0.0080921317 4:0.014232729 5:0.037271907 6:0.040728374 7:0.027174912 8:0.043478261 9:0.035225049 10:0.028281288 11:0.030981995 12:0.031710771 
32768 0:0.04595186 1:0.026490066 2:0.1294964 3:0.016944335 4:0.011285722 5:0.035431288 6:0.037492904 7:0.038136121 8:0.032608696 9:0.015655577 10:0.014316875 11:0.017003827 12:0.02001483 
32768 0:0.048140044 1:0.02593819 2:0 3:0.0092561236 4:0.0061914133 5:0.041881116 6:0.034732619 7:0.029265316 8:0.076086957 9:0.017612524 10:0.016961264 11:0.012675004 12:0.01300043 
6681.200715986532 0:0.20568928 1:0.14624724 2:0 3:0.052295186 4:0.059469498 5:0.15898649 6:0.13121979 7:0.11539587 8:0.40217391 9:0.13894325 10:0.086124125 11:0.077768778 12:0.065478262 
32768 0:0.0087527352 1:0.0060706402 2:0.028776978 3:0.00058312067 4:0.00059237885 5:0.0071732106 6:0.0085766096 7:0.0089887704 8:0 9:0.0039138943 10:0.0048904165 11:0.0044541544 12:0.0036626667 
32768 0:0.048140044 1:0.024282561 2:0.17266187 3:0.017817355 4:0.011289437 5:0.049068512 6:0.047636871 7:0.049926127 8:0.043478261 9:0.0078277886 10:0.016726503 11:0.021607092 12:0.023037909 
32768 0:0.013129103 1:0.0082781457 2:0.071942446 3:0.0032354013 4:0.002332166 5:0.01727538 6:0.020655212 7:0.021647827 8:0 9:0.0039138943 10:0.0075608065 11:0.0080737626 12:0.0098695256 
32768 0:0.048140044 1:0.029801325 2:0 3:0.0075100082 4:0.0058321717 5:0.03854008 6:0.030828029 7:0.019795713 8:0.065217391 9:0.019569472 10:0.020065175 11:0.015579949 12:0.014141923 
32768 0:0.10065646 1:0.056291391 2:0 3:0.046302957 4:0.031531676 5:0.10162561 6:0.11223255 7:0.11343215 8:0.065217391 9:0.019569472 10:0.040577183 11:0.055159686 12:0.057851639 
32768 0:0.076586433 1:0.040286976 2:0.18705036 3:0.070070398 4:0.044752963 5:0.090009239 6:0.10761905 7:0.10581085 8:0.010869565 9:0.0058708415 10:0.033367205 11:0.052777726 12:0.051146928 
32768 0:0.050328228 1:0.038631347 2:0 3:0.00523172 4:0.0076365276 5:0.039687662 6:0.03193272 7:0.029512741 8:0.054347826 9:0.037181996 10:0.026607066 11:0.023431007 12:0.028004185 
32768 0:0.089715536 1:0.052428256 2:0 3:0.01273969 4:0.0097924359 5:0.070754123 6:0.054049362 7:0.056207156 8:0.17391304 9:0.046966732 10:0.029201005 11:0.027834506 12:0.026359855 
32768 0:0.04595186 1:0.023178808 2:0.050359712 3:0.021094605 4:0.013365969 5:0.043255674 6:0.04103057 7:0.039709853 8:0.02173913 9:0.0039138943 10:0.01474502 11:0.025512588 12:0.017519833 
32768 0:0.015317287 1:0.0093818985 2:0.028776978 3:0.00073935045 4:0.00058418787 5:0.0066133739 6:0.0079072439 7:0.0082872375 8:0 9:0.0078277886 10:0.0038008561 11:0.0039006278 12:0.0043493581 
32768 0:0.056892779 1:0.033664459 2:0.17266187 3:0.022395811 4:0.014760188 5:0.05626072 6:0.05443697 7:0.053829211 8:0.065217391 9:0.019569472 10:0.02352184 11:0.023203178 12:0.02605347 
32768 0:0.013129103 1:0.0082781457 2:0.057553957 3:0.0016948928 4:0.0020206068 5:0.013610209 6:0.016272972 7:0.017054992 8:0 9:0.0039138943 10:0.0076345996 11:0.010598417 12:0.0089509039 
32768 0:0.04595186 1:0.023178808 2:0 3:0.013972676 4:0.0088533708 5:0.04309143 6:0.048059635 7:0.04857264 8:0.032608696 9:0.0058708415 10:0.014689032 11:0.020746704 12:0.022508553 
32768 0:0.028446389 1:0.016004415 2:0.11510791 3:0.0081935247 4:0.005479181 5:0.029236164 6:0.031454063 7:0.032965631 8:0.02173913 9:0.0078277886 10:0.012699867 11:0.012678105 12:0.0141366 
32768 0:0.030634573 1:0.017108168 2:0 3:0.003394911 4:0.0024663151 5:0.017126386 6:0.017153219 7:0.017977541 8:0.032608696 9:0.0097847358 10:0.0082343474 11:0.0094409045 12:0.0050857236 
32768 0:0.035010941 1:0.019315673 2:0 3:0.014628998 4:0.0095681429 5:0.039733057 6:0.044771217 7:0.04692276 8:0.02173913 9:0.0078277886 10:0.016959439 11:0.020898731 12:0.024626287 
32768 0:0.019693654 1:0.011589404 2:0.079136691 3:0.004879181 4:0.0031874139 5:0.020851722 6:0.02109567 7:0.022109452 8:0.010869565 9:0.0078277886 10:0.0087482428 11:0.010406452 12:0.011603616 
32768 0:0.032822757 1:0.018211921 2:0.14388489 3:0.011774936 4:0.0075765587 5:0.033492057 6:0.040044593 7:0.041968992 8:0 9:0.0058708415 10:0.013283565 11:0.019753919 12:0.020971546 
32768 0:0.087527352 1:0.068432671 2:0.057553957 3:0.02239315 4:0.028564312 5:0.079521659 6:0.059672377 7:0.05451992 8:0.14130435 9:0.068493151 10:0.055377444 11:0.047134331 12:0.047251876 
32768 0:0.065645514 1:0.045253863 2:0.086330935 3:0.01992291 4:0.017436373 5:0.070213451 6:0.064464785 7:0.060455623 8:0.054347826 9:0.033268102 10:0.038858338 11:0.035032721 12:0.049101435 
32768 0:0.039387309 1:0.025386313 2:0.050359712 3:0.011089157 4:0.0096393555 5:0.035137909 6:0.034968641 7:0.023711169 8:0.054347826 9:0.017612524 10:0.017267125 11:0.0095276443 12:0.018086565 
32768 0:0.065645514 1:0.041942605 2:0 3:0.018932724 4:0.01623079 5:0.076289612 6:0.076633065 7:0.074590156 8:0.032608696 9:0.025440313 10:0.031598071 11:0.039239649 12:0.037538317 
32768 0:0.074398249 1:0.041390728 2:0 3:0.025606911 4:0.017190086 5:0.069166145 6:0.069146834 7:0.07246978 8:0.032608696 9:0.01369863 10:0.026908208 11:0.0392625 12:0.035675261 
32768 0:0.037199125 1:0.023730684 2:0 3:0.0045569357 4:0.004247199 5:0.019565394 6:0.019557679 7:0.02049755 8:0.032608696 9:0.017612524 10:0.0091257415 11:0.011774214 12:0.0083988775 
32768 0:0.024070022 1:0.013796909 2:0 3:0.0036209642 4:0.0028501106 5:0.020965713 6:0.017396387 7:0.014212494 8:0.043478261 9:0.011741683 10:0.0094421468 11:0.010473685 12:0.0074590869 
32768 0:0.015317287 1:0.0077262693 2:0 3:0.0041423838 4:0.0026246983 5:0.017933026 6:0.021441523 7:0.022471926 8:0 9:0 10:0.0061130205 11:0.0097400898 12:0.0097254594 
19677.36318685552 0:0.070021882 1:0.039183223 2:0.1294964 3:0.018806745 4:0.013157637 5:0.051475455 6:0.046994092 7:0.040665898 8:0.086956522 9:0.023483366 10:0.021722065 11:0.02245688 12:0.019772557 
1093.747843354866 0:0.15317287 1:0.11037528 2:0.36690647 3:0.097127496 4:0.088555598 5:0.17012333 6:0.18050278 7:0.1891771 8:0.16304348 9:0.1037182 10:0.091264131 11:0.10830563 12:0.0952293 
32768 0:0.070021882 1:0.043598234 2:0 3:0.028597614 4:0.021998088 5:0.072669121 6:0.073486014 7:0.060785822 8:0.054347826 9:0.025440313 10:0.035019877 11:0.044145155 12:0.044179991 
32768 0:0.037199125 1:0.022075055 2:0.10071942 3:0.012815153 4:0.010469495 5:0.030783652 6:0.028509971 7:0.029880057 8:0.065217391 9:0.015655577 10:0.01253961 11:0.016585872 12:0.0078532976 
32768 0:0.050328228 1:0.028697572 2:0 3:0.011970212 4:0.0087114574 5:0.036537906 6:0.037038641 7:0.038818584 8:0.043478261 9:0.015655577 10:0.016753154 11:0.018271089 12:0.020373004 
32768 0:0.067833698 1:0.048013245 2:0 3:0.00806589 4:0.0084149629 5:0.060079965 6:0.032273357 7:0.041906932 8:0.16304348 9:0.045009785 10:0.028498429 11:0.028416092 12:0.017994727 
32768 0:0.030634573 1:0.019315673 2:0 3:0.0031096442 4:0.0023935062 5:0.035129842 6:0.042002801 7:0.014493957 8:0.032608696 9:0.01369863 10:0.01557596 11:0.015423267 12:0.011683909 
32768 0:0.01750547 1:0.010485651 2:0 3:0.0035281553 4:0.002390625 5:0.016746029 6:0.020022297 7:0.020984496 8:0 9:0.0039138943 10:0.0096511758 11:0.0098769595 12:0.010007415 
32768 0:0.026258206 1:0.013245033 2:0 3:0.0086505075 4:0.0054811368 5:0.032560346 6:0.027915436 7:0.033178511 8:0.02173913 9:0.0039138943 10:0.01109919 11:0.015643071 12:0.013295518 
32768 0:0.056892779 1:0.03200883 2:0.050359712 3:0.0088031129 4:0.0060914216 5:0.048490754 6:0.042635397 7:0.0446843 8:0.097826087 9:0.025440313 10:0.02024575 11:0.022924039 12:0.017391535 
32768 0:0.052516411 1:0.034216336 2:0.035971223 3:0.016365887 4:0.012789853 5:0.04762216 6:0.048185335 7:0.04973179 8:0.076086957 9:0.025440313 10:0.024241232 11:0.028085188 12:0.023545916 
32768 0:0.026258206 1:0.014900662 2:0.11510791 3:0.010617803 4:0.0070381986 5:0.033438075 6:0.033551494 7:0.032221952 8:0.010869565 9:0.0058708415 10:0.013718119 11:0.017606667 12:0.014552149 
32768 0:0.080962801 1:0.050220751 2:0.057553957 3:0.022488826 4:0.019605325 5:0.077857711 6:0.057742924 7:0.056680756 8:0.15217391 9:0.046966732 10:0.034776073 11:0.029432996 12:0.033574146 
32768 0:0.013129103 1:0.0066225166 2:0.071942446 3:0.0029083774 4:0.0018428068 5:0.016119787 6:0.019273534 7:0.02019975 8:0 9:0 10:0.0054949223 11:0.007615514 12:0.0063818583 
32768 0:0.061269147 1:0.036423841 2:0.028776978 3:0.014233806 4:0.010634414 5:0.056473247 6:0.051572377 7:0.053975021 8:0.086956522 9:0.031311155 10:0.027804312 11:0.028997079 12:0.02590583 
32768 0:0.021881838 1:0.014900662 2:0.09352518 3:0.0049698619 4:0.0035554147 5:0.022283183 6:0.026642764 7:0.027923119 8:0 9:0.011741683 10:0.011267311 11:0.014480728 12:0.01465478 
32768 0:0.030634573 1:0.017108168 2:0.1942446 3:0.01682783 4:0.01091375 5:0.044595221 6:0.05332003 7:0.055882397 8:0 9:0.0039138943 10:0.017747851 11:0.027248707 12:0.029328538 
32768 0:0.026258206 1:0.015452539 2:0 3:0.0069388137 4:0.006205511 5:0.031824016 6:0.026275431 7:0.021366063 8:0.043478261 9:0.011741683 10:0.013231426 11:0.01159122 12:0.016231115 
32768 0:0.059080963 1:0.034768212 2:0.23021583 3:0.04070984 4:0.027341568 5:0.061869707 6:0.066262528 7:0.065624177 8:0.032608696 9:0.021526419 10:0.027988537 11:0.034710331 12:0.032949461 
32768 0:0.067833698 1:0.039183223 2:0.22302158 3:0.030989277 4:0.02158229 5:0.055825632 6:0.061038713 7:0.063972013 8:0.043478261 9:0.019569472 10:0.023389998 11:0.029634513 12:0.03146443 
32768 0:0.061269147 1:0.030905077 2:0 3:0.011491959 4:0.007281538 5:0.038530507 6:0.03091234 7:0.02696631 8:0.076086957 9:0.01369863 10:0.013134302 11:0.012639586 12:0.009544162 
32768 0:0.056892779 1:0.03200883 2:0 3:0.013221371 4:0.0094307072 5:0.051701498 6:0.046727991 7:0.049011297 8:0.076086957 9:0.021526419 10:0.021307266 11:0.029305317 12:0.0276952 
32768 0:0.061269147 1:0.035871965 2:0 3:0.007754813 4:0.0057459654 5:0.048268174 6:0.031735943 7:0.032654072 8:0.097826087 9:0.025440313 10:0.018258318 11:0.020838997 12:0.012039666 
32768 0:0.059080963 1:0.037527594 2:0 3:0.012159465 4:0.0098305747 5:0.042808119 6:0.031709731 7:0.026206545 8:0.097826087 9:0.029354207 10:0.022964258 11:0.025711834 12:0.018672894 
32768 0:0.032822757 1:0.020419426 2:0.10791367 3:0.011456094 4:0.0078096541 5:0.033492636 6:0.031146796 7:0.030149252 8:0.032608696 9:0.015655577 10:0.016133011 11:0.018692609 12:0.015823113 
326.3704359912858 0:0.054704595 1:0.027593819 2:0.3381295 3:0.14263822 4:0.090378467 5:0.082281012 6:0.091169589 7:0.086618972 8:0.010869565 9:0.0019569472 10:0.028048 11:0.044649905 12:0.047803739 
32768 0:0.024070022 1:0.01214128 2:0.27338129 3:0.02744849 4:0.01739192 5:0.021462335 6:0.025661323 7:0.026894513 8:0 9:0 10:0.0073160935 11:0.01265868 12:0.013129865 
256.6571887414576 0:0.18599562 1:0.11313466 2:0.43165468 3:0.099812439 4:0.074260112 5:0.17406391 6:0.15521252 7:0.15075956 8:0.32608696 9:0.093933464 10:0.07836359 11:0.073245411 12:0.082182813 
32768 0:0.04595186 1:0.026490066 2:0.30215827 3:0.038413409 4:0.026359819 5:0.067462511 6:0.080661178 7:0.084537463 8:0 9:0.0078277886 10:0.028304087 11:0.039348532 12:0.044367463 
32768 0:0.11597374 1:0.071192053 2:0.30935252 3:0.066422385 4:0.051344954 5:0.10375262 6:0.10129728 7:0.10227228 8:0.086956522 9:0.054794521 10:0.049825395 11:0.050925237 12:0.05391188 
32768 0:0.080962801 1:0.055739514 2:0 3:0.020559223 4:0.01880226 5:0.065725989 6:0.053299238 7:0.048653753 8:0.13043478 9:0.058708415 10:0.041632264 11:0.041236879 12:0.032804523 
32768 0:0.15098468 1:0.098233996 2:0.28776978 3:0.06553254 4:0.057241452 5:0.13100793 6:0.14487955 7:0.13422462 8:0.10869565 9:0.074363992 10:0.068527616 11:0.071155188 12:0.075997878 
32768 0:0.085339168 1:0.080022075 2:0.043165468 3:0.024750573 4:0.039910484 5:0.075655404 6:0.070906345 7:0.064845864 8:0.097826087 9:0.080234834 10:0.0588082 11:0.049957636 12:0.052585766 
32768 0:0.021881838 1:0.011037528 2:0 3:0.0074363731 4:0.0047118366 5:0.027408798 6:0.032771178 7:0.034346042 8:0 9:0 10:0.0093431271 11:0.014063913 12:0.016679025 
32768 0:0.041575492 1:0.024282561 2:0.043165468 3:0.0066106107 4:0.0050221257 5:0.024343675 6:0.023732656 7:0.02422082 8:0.054347826 9:0.021526419 10:0.010323963 11:0.0066149619 12:0.010801102 
32768 0:0.039387309 1:0.023730684 2:0.028776978 3:0.0089107385 4:0.0071775264 5:0.037810083 6:0.03558659 7:0.02654069 8:0.054347826 9:0.017612524 10:0.016998649 11:0.013807644 12:0.018657413 
32768 0:0.076586433 1:0.060154525 2:0 3:0.010533201 4:0.012027501 5:0.082415605 6:0.063475303 7:0.052034683 8:0.14130435 9:0.068493151 10:0.054949187 11:0.054717449 12:0.048229046 
32768 0:0.035010941 1:0.017660044 2:0 3:0.010700284 4:0.0067799167 5:0.027403444 6:0.032764776 7:0.023439846 8:0.02173913 9:0.0039138943 10:0.0093413021 11:0.014069803 12:0.012458869 
32768 0:0.030634573 1:0.018763797 2:0 3:0.0032570733 4:0.00268452 5:0.019226658 6:0.019177882 7:0.017054992 8:0.054347826 9:0.017612524 10:0.0089992026 11:0.0084616492 12:0.0065921337 
32768 0:0.028446389 1:0.016556291 2:0 3:0.003167532 4:0.002449279 5:0.019642661 6:0.012129157 7:0.01271204 8:0.043478261 9:0.015655577 10:0.0094253941 11:0.009767454 12:0.0043493581 
32768 0:0.024070022 1:0.015452539 2:0.064748201 3:0.0049992612 4:0.0043123937 5:0.021105845 6:0.018193735 7:0.019068061 8:0.02173913 9:0.011741683 10:0.00852032 11:0.0089749338 12:0.0066716097 
32768 0:0.032822757 1:0.02593819 2:0.021582734 3:0.0042765167 4:0.0049878176 5:0.026063634 6:0.023734319 7:0.014400847 8:0.043478261 9:0.031311155 10:0.017644019 11:0.014431537 12:0.014162989 
32768 0:0.083150985 1:0.060154525 2:0.20143885 3:0.034152857 4:0.040278381 5:0.078822855 6:0.091352893 7:0.077823393 8:0.065217391 9:0.046966732 10:0.048974028 11:0.052032648 12:0.051574126 
32768 0:0.030634573 1:0.017108168 2:0.16546763 3:0.013560165 4:0.009007576 5:0.038260859 6:0.045746385 7:0.047944791 8:0 9:0.0039138943 10:0.014539955 11:0.022566602 12:0.022803904 
32768 0:0.037199125 1:0.022626932 2:0 3:0.0053147576 4:0.00547798 5:0.029856893 6:0.025729828 7:0.028424987 8:0.032608696 9:0.0097847358 10:0.014103543 11:0.015583318 12:0.016694501 
32768 0:0.015317287 1:0.012693157 2:0.043165468 3:0.0013175401 4:0.0014610401 5:0.013967773 6:0.012864914 7:0.013483155 8:0.02173913 9:0.011741683 10:0.0083000812 11:0.010577061 12:0.006202425 
32768 0:0.048140044 1:0.027041943 2:0.028776978 3:0.014430135 4:0.010520973 5:0.046420965 6:0.041212101 7:0.046389319 8:0.054347826 9:0.01369863 10:0.018666016 11:0.020890244 12:0.018964191 
32768 0:0.015317287 1:0.0093818985 2:0.064748201 3:0.002891436 4:0.0020351198 5:0.014787952 6:0.017681133 7:0.018530825 8:0 9:0.0039138943 10:0.0069393686 11:0.0066066557 12:0.0086705852 
32768 0:0.04595186 1:0.027593819 2:0 3:0.0093803455 4:0.006465707 5:0.044911401 6:0.049862493 7:0.052258704 8:0.032608696 9:0.01369863 10:0.018207589 11:0.025705426 12:0.024456592 
32768 0:0.039387309 1:0.026490066 2:0 3:0.0034287859 4:0.0032292737 5:0.033086085 6:0.02775449 7:0.020099501 8:0.054347826 9:0.025440313 10:0.017181659 11:0.015928678 12:0.0064225879 
32768 0:0.037199125 1:0.024282561 2:0 3:0.0037264056 4:0.0035332577 5:0.032615524 6:0.032717388 7:0.019795713 8:0.043478261 9:0.015655577 10:0.017947277 11:0.021466798 12:0.0077904202 
32768 0:0.035010941 1:0.023730684 2:0 3:0.0036019525 4:0.0045856988 5:0.019546847 6:0.016497438 7:0.017290245 8:0.043478261 9:0.019569472 10:0.014527478 11:0.0073888175 12:0.0085046676 
32768 0:0.019693654 1:0.013245033 2:0.057553957 3:0.0024488683 4:0.0020453892 5:0.012931689 6:0.015461703 7:0.016204736 8:0 9:0.015655577 10:0.0077520932 11:0.0077895431 12:0.0074497934 
32768 0:0.041575492 1:0.024282561 2:0 3:0.0027182543 4:0.0021088962 5:0.017619991 6:0.015814486 7:0.012059701 8:0.032608696 9:0.0097847358 10:0.0079047556 11:0.012507842 12:0.010190533 
32768 0:0.037199125 1:0.024282561 2:0 3:0.0028522348 4:0.0041391662 5:0.028724234 6:0.022365062 7:0.02049755 8:0.032608696 9:0.0097847358 10:0.016583563 11:0.016132328 12:0.010192094 
32768 0:0.037199125 1:0.022075055 2:0 3:0.0030966442 4:0.0024725962 5:0.020576523 6:0.021146427 7:0.016574473 8:0.032608696 9:0.01369863 10:0.0090063901 11:0.011352494 12:0.0063292451 
32768 0:0.019693654 1:0.0099337748 2:0 3:0.0011660754 4:0.000738849 5:0.012556629 6:0.0057533645 7:0.0060298504 8:0.043478261 9:0.0078277886 10:0.0042803112 11:0.0028381234 12:0.0031646226 
32768 0:0.019693654 1:0.018763797 2:0.014388489 3:0.0014358034 4:0.0035011551 5:0.020861985 6:0.021441523 7:0.01715344 8:0.02173913 9:0.015655577 10:0.017281894 11:0.016360661 12:0.01179847 
32768 0:0.028446389 1:0.023730684 2:0.014388489 3:0.0041885548 4:0.0067030482 5:0.030449614 6:0.034134872 7:0.015962827 8:0.043478261 9:0.023483366 10:0.018831478 11:0.015856889 12:0.011266523 
32768 0:0.024070022 1:0.016556291 2:0 3:0.0021148804 4:0.0021468543 5:0.019388747 6:0.01460544 7:0.015307324 8:0.02173913 9:0.019569472 10:0.010923181 11:0.0045193557 12:0.0080336826 
32768 0:0.01750547 1:0.013796909 2:0.071942446 3:0.0033869141 4:0.0032931709 5:0.017050527 6:0.020386368 7:0.021366063 8:0 9:0.0039138943 10:0.010506603 11:0.018179063 12:0.016487838 
32768 0:0.070021882 1:0.045253863 2:0 3:0.0096839732 4:0.0095732466 5:0.052192113 6:0.040103299 7:0.04991272 8:0.11956522 9:0.037181996 10:0.028749646 11:0.027137411 12:0.021968899 
32768 0:0.028446389 1:0.019315673 2:0 3:0.0031930635 4:0.0026778034 5:0.022648109 6:0.019177882 7:0.02273999 8:0.032608696 9:0.01369863 10:0.011453846 11:0.011649274 12:0.0072031312 
32768 0:0.024070022 1:0.016556291 2:0 3:0.003656161 4:0.0040846144 5:0.019616785 6:0.021182662 7:0.022200624 8:0.02173913 9:0.011741683 10:0.011577398 11:0.013336783 12:0.011651466 
32768 0:0.074398249 1:0.040838852 2:0 3:0.0090531034 4:0.0061032454 5:0.073507724 6:0.064072637 7:0.067151736 8:0.097826087 9:0.031311155 10:0.027189466 11:0.038558083 12:0.026093277 
32768 0:0.026258206 1:0.017108168 2:0 3:0.0026848383 4:0.0031222107 5:0.013897638 6:0.0079072439 7:0.013552736 8:0.043478261 9:0.011741683 10:0.0084392154 11:0.0080908505 12:0.0082264892 
32768 0:0.013129103 1:0.0066225166 2:0.086330935 3:0.0031852733 4:0.0020182537 5:0.020415315 6:0.024409459 7:0.025582489 8:0 9:0 10:0.0069591847 11:0.011095097 12:0.0096229534 
32768 0:0.041575492 1:0.022626932 2:0 3:0.004165016 4:0.0028420858 5:0.034221874 6:0.037936478 7:0.032409472 8:0.032608696 9:0.0097847358 10:0.011923721 11:0.0094604113 12:0.012168668 
32768 0:0.059080963 1:0.040286976 2:0 3:0.012358017 4:0.01030064 5:0.060022156 6:0.063188554 7:0.055846238 8:0.032608696 9:0.029354207 10:0.032522521 11:0.039932106 12:0.031301109 
32768 0:0.052516411 1:0.036423841 2:0.22302158 3:0.030203514 4:0.024646271 5:0.058439134 6:0.059944301 7:0.062825008 8:0.043478261 9:0.02739726 10:0.029917208 11:0.030499779 12:0.030862452 
32768 0:0.04595186 1:0.02593819 2:0 3:0.0057591092 4:0.0046230302 5:0.028871615 6:0.019177882 7:0.028139302 8:0.054347826 9:0.01369863 10:0.014048251 11:0.013244576 12:0.0094938677 
32768 0:0.059080963 1:0.050220751 2:0 3:0.0063843754 4:0.011559624 5:0.05063933 6:0.047341178 7:0.054523562 8:0.076086957 9:0.045009785 10:0.039246979 11:0.032489911 12:0.023241438 
32768 0:0.0065645514 1:0.0033112583 2:0.3381295 3:0.015058273 4:0.0095412267 5:0.0068266631 6:0.008162262 7:0.0085545108 8:0 9:0 10:0.0023270769 11:0.0040264278 12:0 
32768 0:0.032822757 1:0.018211921 2:0 3:0.0027067565 4:0.0020696804 5:0.0098096849 6:0.0085766096 7:0.0089887704 8:0.02173913 9:0.0078277886 10:0.005255492 11:0.0059832891 12:0.0038338495 
32768 0:0.013129103 1:0.0066225166 2:0.014388489 3:0.0022303096 4:0.0014131693 5:0.011912109 6:0.0106901 7:0.011203828 8:0.02173913 9:0.0039138943 10:0.0040606068 11:0.0039422064 12:0.0023587704 
32768 0:0.021881838 1:0.014348786 2:0.071942446 3:0.002981439 4:0.0023235883 5:0.021601106 6:0.019744838 7:0.020693704 8:0.043478261 9:0.015655577 10:0.0092618405 11:0.0099024046 12:0.0098057206 
32768 0:0.0065645514 1:0.0049668874 2:0.014388489 3:0.00042793739 4:0.00052244513 5:0.0045367366 6:0.005424324 7:0.0056849974 8:0 9:0.0078277886 10:0.0035459258 11:0.0013379046 12:0.0019287604 
32768 0:0.037199125 1:0.028697572 2:0.035971223 3:0.0037311501 4:0.0051024187 5:0.025308798 6:0.028013497 7:0.022332681 8:0.054347826 9:0.037181996 10:0.021337831 11:0.015691569 12:0.014087252 
32768 0:0.028446389 1:0.018211921 2:0.028776978 3:0.0015881514 4:0.0016402833 5:0.016757826 6:0.016483853 7:0.013256108 8:0.02173913 9:0.011741683 10:0.0097172292 11:0.010829958 12:0.0048474022 
32768 0:0.04595186 1:0.03200883 2:0 3:0.0045802956 4:0.004737052 5:0.02835636 6:0.030923405 7:0.023439846 8:0.032608696 9:0.017612524 10:0.016719223 11:0.019773234 12:0.020982851 
32768 0:0.015317287 1:0.013245033 2:0 3:0.0013414934 4:0.0026005634 5:0.016929831 6:0.011665451 7:0.012226051 8:0.043478261 9:0.015655577 10:0.010820835 11:0.0086590972 12:0.0052743709 
32768 0:0.030634573 1:0.017108168 2:0 3:0.0068075361 4:0.0049189977 5:0.033479361 6:0.032658756 7:0.034228218 8:0.043478261 9:0.011741683 10:0.01384326 11:0.016839264 12:0.011752564 
32768 0:0.013129103 1:0.0066225166 2:0.057553957 3:0.0021228918 4:0.0013451072 5:0.012931689 6:0.015461703 7:0.016204736 8:0 9:0 10:0.0044081618 11:0.0076272274 12:0.0063949192 
32768 0:0.043763676 1:0.033664459 2:0 3:0.0037127693 4:0.0057650933 5:0.039525703 6:0.028756716 7:0.020594373 8:0.076086957 9:0.029354207 10:0.02088045 11:0.028727396 12:0.017606 
32768 0:0.032822757 1:0.025386313 2:0 3:0.0035014513 4:0.0037898058 5:0.02512136 6:0.030036215 7:0.025794649 8:0.02173913 9:0.021526419 10:0.018391021 11:0.016601368 12:0.014667544 
32768 0:0.037199125 1:0.027593819 2:0 3:0.0023569212 4:0.0031395442 5:0.027052589 6:0.012129157 7:0.017977541 8:0.097826087 9:0.031311155 10:0.016156347 11:0.011746432 12:0.0091237237 
32768 0:0.026258206 1:0.018763797 2:0 3:0.0017260652 4:0.0042582094 5:0.017349682 6:0.020744052 7:0.021740936 8:0 9:0.0039138943 10:0.015453472 11:0.0087220682 12:0.0089509039 
32768 0:0.010940919 1:0.0055187638 2:0.064748201 3:0.0023095549 4:0.0014633808 5:0.015216677 6:0.018193735 7:0.019068061 8:0 9:0 10:0.0051870697 11:0.0089749338 12:0.007897667 
32768 0:0.030634573 1:0.017108168 2:0.021582734 3:0.0056146037 4:0.0039124665 5:0.023804677 6:0.021594154 7:0.019068061 8:0.032608696 9:0.0097847358 10:0.010799357 11:0.010312839 12:0.013673531 
32768 0:0.10284464 1:0.071192053 2:0 3:0.02227754 4:0.021111986 5:0.05961522 6:0.055698101 7:0.05435485 8:0.065217391 9:0.043052838 10:0.034117856 11:0.039072057 12:0.036353358 
32768 0:0.01750547 1:0.01214128 2:0.043165468 3:0.001242388 4:0.0012699383 5:0.010759815 6:0.012864914 7:0.013483155 8:0 9:0.015655577 10:0.0067607831 11:0.0063462367 12:0.007076311 
32768 0:0.019693654 1:0.0099337748 2:0.035971223 3:0.0027314811 4:0.0017307217 5:0.011252984 6:0.011182531 7:0.011719923 8:0.02173913 9:0.0039138943 10:0.0038359239 11:0.003400908 12:0.0061509209 
32768 0:0.032822757 1:0.022075055 2:0 3:0.0025292591 4:0.0024892765 5:0.015764587 6:0.013424517 7:0.014069651 8:0.065217391 9:0.023483366 10:0.0086760464 11:0.0060868079 12:0.0052743709 
32768 0:0.043763676 1:0.026490066 2:0 3:0.002902129 4:0.0023805173 5:0.022850618 6:0.019650062 7:0.016574473 8:0.076086957 9:0.021526419 10:0.011586218 11:0.010139997 12:0.0064591065 
32768 0:0.01750547 1:0.011037528 2:0.071942446 3:0.0024533817 4:0.0017660986 5:0.016119787 6:0.019273534 7:0.02019975 8:0 9:0.0039138943 10:0.0071352179 11:0.011399678 12:0.010601355 
32768 0:0.026258206 1:0.018211921 2:0.050359712 3:0.0038258818 4:0.0033331586 5:0.018377209 6:0.01801647 7:0.015698213 8:0.032608696 9:0.021526419 10:0.011865953 11:0.010055318 12:0.0076139671 
32768 0:0.085339168 1:0.048013245 2:0.24460432 3:0.050057135 4:0.035144966 5:0.079766401 6:0.076756863 7:0.07817018 8:0.086956522 9:0.031311155 10:0.032780675 11:0.039802631 12:0.039214295 
32768 0:0.039387309 1:0.028145695 2:0 3:0.0041127952 4:0.0046150415 5:0.028288179 6:0.020655212 7:0.021647827 8:0.054347826 9:0.021526419 10:0.014501746 11:0.015865422 12:0.010529155 
32768 0:0.056892779 1:0.034768212 2:0 3:0.010395384 4:0.0083416409 5:0.044869926 6:0.046881816 7:0.031396423 8:0.076086957 9:0.021526419 10:0.019205077 11:0.024766357 12:0.021581661 
32768 0:0.030634573 1:0.017108168 2:0 3:0.0039145016 4:0.0029112586 5:0.019100297 6:0.011665451 7:0.012226051 8:0.043478261 9:0.015655577 10:0.007053451 11:0.0097260613 12:0.0033358054 
32768 0:0.024070022 1:0.013796909 2:0 3:0.0038887041 4:0.002667009 5:0.022380695 6:0.023016161 7:0.016164862 8:0.032608696 9:0.0097847358 10:0.008980822 11:0.0076084595 12:0.012659977 
32768 0:0.035010941 1:0.019315673 2:0.014388489 3:0.0068720699 4:0.0047124444 5:0.022181456 6:0.022968585 7:0.024072372 8:0.02173913 9:0.0078277886 10:0.0083966104 11:0.0085878213 12:0.012633808 
