svm_type c_svc
kernel_type rbf
gamma 8
nr_class 2
total_sv 1205
rho -19.1441
label 1 2
nr_sv 390 815
SV
32768 0:0.0859375 1:0.055688623 2:0 3:0.037497901 4:0.025591532 5:0.10938005 6:0.12580435 7:0.14467896 8:0.018867925 9:0.022727273 10:0.048108891 11:0.090328273 12:0.098241517 
1484.365373685621 0:0.1640625 1:0.13233533 2:0.59615385 3:0.20773377 4:0.15179861 5:0.24536101 6:0.27656531 7:0.27826114 8:0.037735849 9:0.15909091 10:0.22322389 11:0.24469584 12:0.22573476 
6730.402719646606 0:0.1640625 1:0.12335329 2:0.17307692 3:0.13920321 4:0.11327993 5:0.14284586 6:0.14562482 7:0.14132964 8:0.050314465 9:0.14049587 10:0.12945934 11:0.11434398 12:0.15633343 
32128.86184763286 0:0.1015625 1:0.071257485 2:0 3:0.033583635 4:0.028546029 5:0.10852778 6:0.097021431 7:0.096628578 8:0.13207547 9:0.055785124 10:0.061412266 11:0.076764028 12:0.080960568 
5036.431313439162 0:0.11132812 1:0.11856287 2:0 3:0.043192868 4:0.065399769 5:0.13497198 6:0.11911259 7:0.092124562 8:0.10691824 9:0.12190083 10:0.11668293 11:0.11087697 12:0.12454454 
1222.121623038193 0:0.14453125 1:0.1491018 2:0.49358974 3:0.14193925 4:0.13062747 5:0.18383189 6:0.21406554 7:0.2366763 8:0.031446541 9:0.17355372 10:0.1877558 11:0.20790941 12:0.21654583 
11.48257891996709 0:0.375 1:0.36047904 2:0 3:0.14895119 4:0.19871574 5:0.33626204 6:0.30713169 7:0.27000936 8:0.40251572 9:0.36363636 10:0.27996974 11:0.3236413 12:0.27358407 
4458.233778486599 0:0.13867188 1:0.10179641 2:0 3:0.066429478 4:0.058682299 5:0.14178225 6:0.13984805 7:0.13479296 8:0.13207547 9:0.068181818 10:0.091660633 11:0.11733468 12:0.12251192 
103.6353617901647 0:0.2109375 1:0.30838323 2:0.18589744 3:0.19780159 4:0.32683096 5:0.29314547 6:0.3251752 7:0.32618788 8:0.075471698 9:0.25 10:0.35830658 11:0.31784154 12:0.34508559 
280.0703000376627 0:0.22460938 1:0.19281437 2:0.42307692 3:0.20776187 4:0.21260639 5:0.29134078 6:0.3064167 7:0.29757013 8:0.1572327 9:0.15082645 10:0.21340686 11:0.26821771 12:0.25452523 
1397.139003548653 0:0.21289062 1:0.16347305 2:0.44230769 3:0.17962615 4:0.15222055 5:0.26051279 6:0.25052897 7:0.2582859 8:0.17610063 9:0.13636364 10:0.15181333 11:0.19431629 12:0.2002557 
6126.242514705605 0:0.11523438 1:0.082035928 2:0.40384615 3:0.085106059 4:0.057797626 5:0.13207037 6:0.14684787 7:0.15492334 8:0.062893082 9:0.053719008 10:0.067428945 11:0.1051579 12:0.11942336 
32768 0:0.1015625 1:0.071856287 2:0.16666667 3:0.040425753 4:0.031121851 5:0.10299914 6:0.11064793 7:0.11306748 8:0.088050314 9:0.049586777 10:0.055762299 11:0.080717564 12:0.085664216 
790.1624716553896 0:0.23046875 1:0.15688623 2:0 3:0.074686087 4:0.059270993 5:0.18552587 6:0.18322299 7:0.15417598 8:0.2327044 9:0.10950413 10:0.090363648 11:0.12573323 12:0.10781752 
32768 0:0.013671875 1:0.0089820359 2:0.096153846 3:0.0040577353 4:0.0026005497 5:0.026770119 6:0.033317296 7:0.036372371 8:0 9:0.0061983471 10:0.012768849 11:0.025711412 12:0.024533293 
32768 0:0.015625 1:0.0083832335 2:0.10897436 3:0.0052157918 4:0.0032312491 5:0.030391914 6:0.037824874 7:0.041293278 8:0 9:0 10:0.011047127 11:0.023542202 12:0.030751768 
32768 0:0.009765625 1:0.0047904192 2:0.051282051 3:0.00131675 4:0.00072579114 5:0.014388507 6:0.017907508 7:0.019549562 8:0 9:0 10:0.0040714708 11:0.012628813 12:0.014558873 
32768 0:0.0234375 1:0.01497006 2:0.044871795 3:0.0033577385 4:0.0021908538 5:0.012619555 6:0.015705924 7:0.0171461 8:0 9:0.0082644628 10:0.0061451289 11:0.0095097904 12:0.010963171 
32768 0:0.01171875 1:0.005988024 2:0.08974359 3:0.0035216695 4:0.0021426349 5:0.02523911 6:0.031411848 7:0.0342922 8:0 9:0 10:0.0088010935 11:0.015693923 12:0.014703117 
32768 0:0.015625 1:0.010179641 2:0.12820513 3:0.0066957332 4:0.0044388719 5:0.036136907 6:0.044974922 7:0.049098959 8:0 9:0.0041322314 10:0.017693333 11:0.028214812 12:0.036564785 
32768 0:0.017578125 1:0.011377246 2:0.083333333 3:0.0033691989 4:0.0022383281 5:0.028355881 6:0.029799894 7:0.032532437 8:0.012578616 9:0.0082644628 10:0.011071033 11:0.019717958 12:0.020189524 
32768 0:0.017578125 1:0.0095808383 2:0.083333333 3:0.0044869625 4:0.0027629157 5:0.024793491 6:0.030857243 7:0.033686741 8:0 9:0 10:0.0086068546 11:0.017330804 12:0.021049153 
32768 0:0.015625 1:0.010179641 2:0.1025641 3:0.0054580821 4:0.0036435783 5:0.0290524 6:0.036157755 7:0.03947329 8:0 9:0.0041322314 10:0.014605298 11:0.02199673 12:0.029396394 
32768 0:0.009765625 1:0.0047904192 2:0.083333333 3:0.0030227532 4:0.0018220398 5:0.024793491 6:0.030857243 7:0.033686741 8:0 9:0 10:0.0086068546 11:0.018258681 12:0.017011249 
32768 0:0.01953125 1:0.014371257 2:0.032051282 3:0.0016704129 4:0.0012034413 5:0.014130854 6:0.011105765 7:0.012124124 8:0.025157233 9:0.020661157 10:0.0066704125 11:0.0093984689 12:0.0090290299 
32768 0:0.01171875 1:0.0095808383 2:0.076923077 3:0.0027500633 4:0.0018874739 5:0.021711504 6:0.027021494 7:0.029499267 8:0 9:0.010330579 10:0.011153031 11:0.017489807 12:0.020162773 
32768 0:0.013671875 1:0.0071856287 2:0.083333333 3:0.0038168554 4:0.0023323163 5:0.024223356 6:0.028960294 7:0.031615848 8:0.012578616 9:0.0041322314 10:0.0083583408 11:0.020423508 12:0.010398364 
32768 0:0.01171875 1:0.0077844311 2:0.096153846 3:0.0039594009 4:0.002720925 5:0.026770119 6:0.033317296 7:0.036372371 8:0 9:0.0041322314 10:0.013288262 11:0.018542743 12:0.021979499 
32768 0:0.0078125 1:0.0053892216 2:0.057692308 3:0.0016556768 4:0.0013418764 5:0.016160915 6:0.020113395 7:0.021957721 8:0 9:0.0041322314 10:0.0069747192 11:0.014184459 12:0.012314363 
2282.715208867461 0:0.15820312 1:0.11257485 2:0.44871795 3:0.12592669 4:0.087892902 5:0.16738613 6:0.17461242 7:0.17232421 8:0.11320755 9:0.092975207 10:0.089266715 11:0.12332471 12:0.13312993 
444.2290231665217 0:0.12695312 1:0.10359281 2:0 3:0.028527764 4:0.030704909 5:0.1089752 6:0.095144283 7:0.094715896 8:0.13207547 9:0.088842975 10:0.073851574 11:0.079881512 12:0.062088144 
921.6388692594129 0:0.140625 1:0.10898204 2:0.53205128 3:0.13220946 4:0.102163 5:0.15577472 6:0.18456966 7:0.20149403 8:0.025157233 9:0.14256198 10:0.14743699 11:0.13084611 12:0.15005585 
1743.231924201049 0:0.09375 1:0.1251497 2:0.096153846 3:0.024398785 4:0.058071409 5:0.10497226 6:0.041346535 7:0.11119296 8:0.088050314 9:0.097107438 10:0.12493177 11:0.095648308 12:0.12239505 
41.83275910372846 0:0.3125 1:0.32934132 2:0.23717949 3:0.1616094 4:0.18564605 5:0.34232412 6:0.29943245 7:0.24643145 8:0.20125786 9:0.30371901 10:0.36823363 11:0.32028696 12:0.31606788 
1191.462737261755 0:0.1171875 1:0.092814371 2:0.20512821 3:0.082989876 4:0.068686948 5:0.1661747 6:0.17944674 7:0.17575179 8:0.018867925 9:0.11363636 10:0.15076698 11:0.16863051 12:0.1586257 
4.594942191405733 0:0.4453125 1:0.4988024 2:0.43589744 3:0.26624001 4:0.34403465 5:0.41019083 6:0.36193668 7:0.35749496 8:0.2327044 9:0.4214876 10:0.45562113 11:0.44571166 12:0.47229723 
52.05480664773314 0:0.2421875 1:0.31856287 2:0.30769231 3:0.15575771 4:0.2117378 5:0.33850214 6:0.392221 7:0.39261592 8:0.10062893 9:0.30785124 10:0.39249634 11:0.3581882 12:0.38307291 
16.07562495913204 0:0.12890625 1:0.10718563 2:0.33333333 3:0.13595431 4:0.13775502 5:0.21837868 6:0.26617957 7:0.26437139 8:0.012578616 9:0.13842975 10:0.20196655 11:0.2289562 12:0.20827811 
14.27112510803238 0:0.28125 1:0.2760479 2:0.17307692 3:0.17755666 4:0.18549097 5:0.26734385 6:0.19992036 7:0.19180633 8:0.1509434 9:0.27066116 10:0.27119941 11:0.30532641 12:0.23446752 
941.3491218741599 0:0.19921875 1:0.1497006 2:0 3:0.13876503 4:0.11277082 5:0.17914385 6:0.18630745 7:0.19858704 8:0.050314465 9:0.13842975 10:0.15895319 11:0.14636559 12:0.16224347 
4383.570376700711 0:0.0546875 1:0.036526946 2:0.31410256 3:0.051521643 4:0.034050375 5:0.087885033 6:0.1093791 7:0.11940877 8:0 9:0.05785124 10:0.079623748 11:0.072183393 12:0.086371834 
78.15513236410069 0:0.19140625 1:0.1994012 2:0.57692308 3:0.23026435 4:0.21020955 5:0.22014722 6:0.22829938 7:0.22049912 8:0.075471698 9:0.20454545 10:0.22075668 11:0.24543543 12:0.24166895 
32768 0:0.13085938 1:0.086227545 2:0 3:0.053394805 4:0.039313959 5:0.12162454 6:0.1245273 7:0.11268298 8:0.10062893 9:0.049586777 10:0.061211312 11:0.090402798 12:0.085177881 
32768 0:0.080078125 1:0.05988024 2:0.076923077 3:0.074651318 4:0.059079349 5:0.12421309 6:0.14140344 7:0.13984853 8:0.044025157 9:0.030991736 10:0.071734513 11:0.10620384 12:0.1032815 
9731.687269651016 0:0.095703125 1:0.080838323 2:0.41666667 3:0.069649546 4:0.058312564 5:0.14113757 6:0.157337 7:0.16777853 8:0.062893082 9:0.061983471 10:0.096641344 11:0.12303902 12:0.13918777 
2734.538559811248 0:0.13085938 1:0.10718563 2:0.43589744 3:0.13133771 4:0.1241805 5:0.17766248 6:0.16311486 7:0.17127672 8:0.12578616 9:0.095041322 10:0.10583193 11:0.12392517 12:0.13948471 
43.16371266592225 0:0.17578125 1:0.21676647 2:0.22435897 3:0.064956757 4:0.10720398 5:0.18489223 6:0.18614385 7:0.17742797 8:0.075471698 9:0.21280992 10:0.22147855 11:0.26470227 12:0.28350597 
15415.91447412345 0:0.078125 1:0.053892216 2:0.42307692 3:0.087855593 4:0.060482773 5:0.1245951 6:0.14666339 7:0.1601119 8:0.018867925 9:0.022727273 10:0.065539599 11:0.10762954 12:0.11352744 
6408.582847109771 0:0.17773438 1:0.13592814 2:0 3:0.038731765 4:0.035255634 5:0.13811606 6:0.11861735 7:0.11969404 8:0.18238994 9:0.11363636 10:0.090613132 11:0.11136943 12:0.090222901 
32768 0:0.0546875 1:0.038922156 2:0.076923077 3:0.01697303 4:0.015525483 5:0.056231115 6:0.054378159 7:0.05936444 8:0.037735849 9:0.02892562 10:0.029001417 11:0.035965278 12:0.045085329 
661.0882193465068 0:0.21289062 1:0.14371257 2:0.42948718 3:0.20995892 4:0.15231529 5:0.24663105 6:0.26115337 7:0.27190545 8:0.1572327 9:0.084710744 10:0.12132951 11:0.18726015 12:0.20410694 
10.65591287425008 0:0.2578125 1:0.37664671 2:0.14102564 3:0.14828406 4:0.25996565 5:0.35044846 6:0.3786019 7:0.27724158 8:0.11320755 9:0.32231405 10:0.41729381 11:0.42351392 12:0.48277706 
116.0258707951105 0:0.296875 1:0.3251497 2:0.23717949 3:0.2508713 4:0.27603155 5:0.34778446 6:0.37875242 7:0.30160574 8:0.10691824 9:0.31818182 10:0.39326982 11:0.44559531 12:0.37474296 
72.14382459789398 0:0.33203125 1:0.26766467 2:0.40384615 3:0.17268581 4:0.15287792 5:0.22714207 6:0.22588797 7:0.22953394 8:0.16352201 9:0.25 10:0.21417812 11:0.22165848 12:0.2158336 
64.52055591356668 0:0.1953125 1:0.19820359 2:0.064102564 3:0.047458867 4:0.060988325 5:0.071261145 6:0.050022871 7:0.038256167 8:0.12578616 9:0.18801653 10:0.078864429 11:0.06226258 12:0.051723387 
17146.08701991536 0:0.10742188 1:0.076646707 2:0.15384615 3:0.035227379 4:0.024517128 5:0.13063883 6:0.14940784 7:0.163108 8:0.025157233 9:0.033057851 10:0.081130642 11:0.10354546 12:0.11729276 
32768 0:0.05078125 1:0.035329341 2:0.17307692 3:0.019676958 4:0.014347736 5:0.052117749 6:0.060421897 7:0.065962366 8:0.012578616 9:0.024793388 10:0.027237552 11:0.039478178 12:0.047317429 
4519.812566888371 0:0.072265625 1:0.04491018 2:0.28846154 3:0.075627308 4:0.051196162 5:0.077696551 6:0.083475697 7:0.086627396 8:0.044025157 9:0.018595041 10:0.035089228 11:0.059226552 12:0.062765645 
32768 0:0.083984375 1:0.055688623 2:0.21153846 3:0.051464907 4:0.036540243 5:0.092367688 6:0.099298955 7:0.099666722 8:0.044025157 9:0.026859504 10:0.043700888 11:0.068814142 12:0.076838476 
1.34062145348333 0:0.39453125 1:0.36467066 2:0 3:0.46210664 4:0.42429695 5:0.54093941 6:0.5748112 7:0.55927231 8:0.11320755 9:0.40702479 10:0.51522504 11:0.57595901 12:0.52770899 
75.60844416287318 0:0.25390625 1:0.17305389 2:0.43589744 3:0.39543161 4:0.2691284 5:0.32557191 6:0.38290732 7:0.37805651 8:0.037735849 9:0.24586777 10:0.27997095 11:0.28783275 12:0.31459923 
38.88835536013954 0:0.453125 1:0.41916168 2:0.22435897 3:0.37066951 4:0.36568574 5:0.48225363 6:0.50766528 7:0.52954167 8:0.19496855 9:0.41942149 10:0.46530811 11:0.46296437 12:0.46925914 
537.1572254758224 0:0.23046875 1:0.22155689 2:0.36538462 3:0.2055695 4:0.20871978 5:0.27233406 6:0.25334559 7:0.22749471 8:0.10062893 9:0.24173554 10:0.27228051 11:0.26933147 12:0.27821773 
32768 0:0.0703125 1:0.046706587 2:0.39102564 3:0.077566952 4:0.051248728 5:0.10904055 6:0.13570863 7:0.14815263 8:0 9:0.012396694 10:0.053165131 11:0.093423379 12:0.10672003 
1101.419612804595 0:0.19140625 1:0.1245509 2:0.16025641 3:0.19263513 4:0.13206591 5:0.27100339 6:0.30683689 7:0.31040983 8:0.088050314 9:0.045454545 10:0.13173107 11:0.21289271 12:0.23005758 
32768 0:0.013671875 1:0.010778443 2:0.070512821 3:0.004041004 4:0.0039602096 5:0.023242324 6:0.024833246 7:0.027110365 8:0.012578616 9:0.012396694 10:0.012432286 11:0.019728252 12:0.017635728 
18200.08910862514 0:0.1171875 1:0.085628743 2:0.44230769 3:0.11647385 4:0.090520636 5:0.1385559 6:0.15516308 7:0.16939097 8:0.037735849 9:0.037190083 10:0.07811454 11:0.12354001 12:0.12534369 
3492.265481223726 0:0.12304688 1:0.085628743 2:0.42948718 3:0.090894481 4:0.061756937 5:0.18454986 6:0.20294915 7:0.19456553 8:0.088050314 9:0.045454545 10:0.096607579 11:0.135406 12:0.14626814 
9742.570865919119 0:0.091796875 1:0.080838323 2:0.076923077 3:0.029653495 4:0.03474194 5:0.09600656 6:0.07557654 7:0.078457876 8:0.11320755 9:0.090909091 10:0.06885412 11:0.078585182 12:0.076176075 
32768 0:0.013671875 1:0.0089820359 2:0.1025641 3:0.004300456 4:0.0028367379 5:0.028832301 6:0.035883826 7:0.039174243 8:0 9:0.0041322314 10:0.012378834 11:0.027521392 12:0.026619893 
32768 0:0.095703125 1:0.080239521 2:0 3:0.017019591 4:0.020524729 5:0.077598053 6:0.08454251 7:0.085767158 8:0.050314465 9:0.05785124 10:0.062011672 11:0.08183428 12:0.067906775 
27468.80208791888 0:0.09375 1:0.056287425 2:0.30128205 3:0.11719996 4:0.07519037 5:0.12702022 6:0.15007979 7:0.15587981 8:0.044025157 9:0.01446281 10:0.053166021 11:0.1001215 12:0.11897455 
111.6790140944647 0:0.31054688 1:0.21257485 2:0.26923077 3:0.21908126 4:0.16989367 5:0.31049292 6:0.28731582 7:0.24184038 8:0.27044025 9:0.13842975 10:0.16830373 11:0.21440429 12:0.19645231 
10280.66064838286 0:0.06640625 1:0.077245509 2:0.064102564 3:0.021980084 4:0.030187636 5:0.098531366 6:0.07317115 7:0.060447237 8:0.081761006 9:0.076446281 10:0.086961366 11:0.10865617 12:0.10661174 
1681.09672142436 0:0.15429688 1:0.13173653 2:0.18589744 3:0.09443481 4:0.10384272 5:0.21772091 6:0.19700608 7:0.19411587 8:0.20125786 9:0.12809917 10:0.15149271 11:0.16221214 12:0.15389068 
969.3803649703257 0:0.12890625 1:0.082035928 2:0.44871795 3:0.18391426 4:0.12101113 5:0.151303 6:0.15568683 7:0.16996275 8:0.050314465 9:0.10950413 10:0.12291671 11:0.11036549 12:0.12624797 
13922.0013273854 0:0.056640625 1:0.033532934 2:0.36538462 3:0.058124824 4:0.037229693 5:0.10222619 6:0.12722768 7:0.13889399 8:0 9:0 10:0.042358658 11:0.085293592 12:0.098329003 
610.0943005374027 0:0.13476562 1:0.094011976 2:0.23076923 3:0.071726922 4:0.057886072 5:0.13467491 6:0.1292477 7:0.11241131 8:0.12578616 9:0.070247934 10:0.077140105 11:0.093505511 12:0.094868644 
565.5458484893775 0:0.13476562 1:0.10359281 2:0.22435897 3:0.076821494 4:0.061950216 5:0.22421321 6:0.22153943 7:0.22600478 8:0.12578616 9:0.07231405 10:0.14419618 11:0.21713371 12:0.2179923 
25.75156288273061 0:0.19140625 1:0.1742515 2:0.39102564 3:0.29861792 4:0.21653288 5:0.22957757 6:0.26402623 7:0.27864739 8:0.050314465 9:0.20867769 10:0.22616804 11:0.23763442 12:0.26296537 
0.04034234385870504 0:0.37109375 1:0.27904192 2:0.45512821 3:0.347968 4:0.27447993 5:0.37158229 6:0.41360479 7:0.33653834 8:0.18867925 9:0.29958678 10:0.3237706 11:0.37581263 12:0.35635769 
6279.649724530305 0:0.14257812 1:0.1011976 2:0.1025641 3:0.057051897 4:0.044824303 5:0.14760982 6:0.14285975 7:0.12391764 8:0.11320755 9:0.061983471 10:0.076017343 11:0.11086453 12:0.10953298 
1662.778197499134 0:0.09375 1:0.060479042 2:0.48076923 3:0.098817625 4:0.064731985 5:0.1441913 6:0.17908745 7:0.18474557 8:0.025157233 9:0.016528926 10:0.06488956 11:0.11871023 12:0.13354509 
6462.834374952375 0:0.11914062 1:0.073652695 2:0.56410256 3:0.14137965 4:0.091949163 5:0.17223218 6:0.2093867 7:0.21892757 8:0.025157233 9:0.012396694 10:0.075923932 11:0.1449342 12:0.15688977 
166.8061897988305 0:0.14257812 1:0.10598802 2:0.6474359 3:0.17644163 4:0.12394863 5:0.20039447 6:0.23507173 7:0.25292216 8:0.062893082 9:0.05785124 10:0.11887973 11:0.17189423 12:0.21595563 
32768 0:0.099609375 1:0.092814371 2:0.26923077 3:0.046838599 4:0.048658064 5:0.1119943 6:0.11716428 7:0.11173778 8:0.075471698 9:0.099173554 10:0.083692978 11:0.097286162 12:0.09582875 
625.2909023116107 0:0.16992188 1:0.12994012 2:0.41025641 3:0.10889667 4:0.091007087 5:0.1664894 6:0.16722607 7:0.1615099 8:0.11320755 9:0.11157025 10:0.099000826 11:0.14781002 12:0.13065975 
32768 0:0.0546875 1:0.038323353 2:0 3:0.016146205 4:0.01204673 5:0.064515084 6:0.071831539 7:0.082586555 8:0.018867925 9:0.018595041 10:0.032256226 11:0.056482876 12:0.048885585 
32768 0:0.009765625 1:0.0047904192 2:0.070512821 3:0.0025025137 4:0.0014877427 5:0.020348422 6:0.025325041 7:0.027647256 8:0 9:0 10:0.0066693123 11:0.014357235 12:0.012927971 
1202.703473987386 0:0.15234375 1:0.18083832 2:0.42307692 3:0.10605957 4:0.12844382 5:0.17764425 6:0.1722023 7:0.17073138 8:0.075471698 9:0.17561983 10:0.18606223 11:0.19491398 12:0.20877715 
3251.17125593798 0:0.1328125 1:0.10239521 2:0.08974359 3:0.087482902 4:0.075661922 5:0.15242155 6:0.17922139 7:0.1853022 8:0.031446541 9:0.11157025 10:0.14401506 11:0.12895471 12:0.14047432 
211.9265568036252 0:0.25976562 1:0.20538922 2:0.10897436 3:0.1232606 4:0.11132456 5:0.27266122 6:0.26329965 7:0.26148608 8:0.21383648 9:0.1446281 10:0.17962706 11:0.21683737 12:0.23613151 
32768 0:0.10546875 1:0.081437126 2:0.28846154 3:0.069739016 4:0.055123574 5:0.14202188 6:0.16290734 7:0.16341493 8:0.037735849 9:0.045454545 10:0.084845391 11:0.12405645 12:0.13615831 
1764.765125499223 0:0.12304688 1:0.094610778 2:0.16025641 3:0.11576208 4:0.096160292 5:0.15618407 6:0.1507074 7:0.17808452 8:0.10062893 9:0.070247934 10:0.092244104 11:0.11756673 12:0.12287631 
772.6765093475688 0:0.171875 1:0.14790419 2:0.34615385 3:0.14721568 4:0.15674093 5:0.21724056 6:0.22637756 7:0.23602951 8:0.11949686 9:0.12190083 10:0.15771569 11:0.20575705 12:0.20171319 
32768 0:0.056640625 1:0.038323353 2:0.1474359 3:0.020495279 4:0.01665962 5:0.054938767 6:0.051853342 7:0.061457755 8:0.037735849 9:0.020661157 10:0.025186996 11:0.036568246 12:0.031172675 
387.2162438310006 0:0.20507812 1:0.14730539 2:0.20512821 3:0.19561478 4:0.1553217 5:0.28865816 6:0.31058516 7:0.33614144 8:0.062893082 9:0.053719008 10:0.15301632 11:0.24282564 12:0.29779671 
32768 0:0.056640625 1:0.037125749 2:0.25641026 3:0.037472249 4:0.02687963 5:0.072760218 6:0.090004672 7:0.098257775 8:0.012578616 9:0.012396694 10:0.032353364 11:0.063473498 12:0.069136239 
20804.27072816973 0:0.04296875 1:0.025149701 2:0 3:0.013851194 4:0.0087802113 5:0.033932863 6:0.033388429 7:0.031615848 8:0.037735849 9:0.012396694 10:0.012590576 11:0.020423508 12:0.021744785 
2907.864045915886 0:0.14257812 1:0.1011976 2:0.25 3:0.093502183 4:0.080581375 5:0.17175142 6:0.16286463 7:0.17229688 8:0.13836478 9:0.066115702 10:0.10721962 11:0.14919988 12:0.12031755 
32768 0:0.048828125 1:0.030538922 2:0.23076923 3:0.029725605 4:0.019657873 5:0.067287354 6:0.080759609 7:0.088164973 8:0.025157233 9:0.012396694 10:0.030554399 11:0.056953653 12:0.065657873 
6565.268802745246 0:0.099609375 1:0.10718563 2:0.096153846 3:0.021170406 4:0.034485893 5:0.10646243 6:0.079366076 7:0.061977779 8:0.10062893 9:0.11983471 10:0.10792623 11:0.13065993 12:0.086059112 
32768 0:0.037109375 1:0.026347305 2:0 3:0.007334691 4:0.005563098 5:0.027748142 6:0.025997931 7:0.028381847 8:0.012578616 9:0.020661157 10:0.015839822 11:0.015181159 12:0.014891057 
164.6055635709811 0:0.26171875 1:0.20658683 2:0.74358974 3:0.36525464 4:0.27936411 5:0.27058394 6:0.29842789 7:0.30925242 8:0.062893082 9:0.25619835 10:0.25284516 11:0.25325541 12:0.28015662 
2483.055701907255 0:0.2109375 1:0.17904192 2:0.26282051 3:0.14737077 4:0.11544105 5:0.20347537 6:0.22923675 7:0.24268288 8:0.088050314 9:0.20041322 10:0.18849456 11:0.17951207 12:0.20501964 
823.6706267186356 0:0.09765625 1:0.098802395 2:0.096153846 3:0.034508361 4:0.035285364 5:0.06918517 6:0.062294436 7:0.050380797 8:0.037735849 9:0.1053719 10:0.077480745 11:0.067518953 12:0.061610606 
44.81422769101385 0:0.2890625 1:0.23413174 2:0.038461538 3:0.29067157 4:0.24812639 5:0.33777796 6:0.39285753 7:0.39439869 8:0.094339623 9:0.28719008 10:0.33396355 11:0.27823826 12:0.38342455 
6870.050176447603 0:0.11328125 1:0.1245509 2:0.41025641 3:0.10943076 4:0.11685652 5:0.12707539 6:0.14562613 7:0.15535919 8:0.050314465 9:0.12603306 10:0.13182041 11:0.15570669 12:0.13101565 
32768 0:0.052734375 1:0.043712575 2:0 3:0.0051546044 4:0.0053847861 5:0.049828391 6:0.03208289 7:0.034544565 8:0.06918239 9:0.047520661 10:0.035794325 11:0.029799565 12:0.017283304 
11580.65821531097 0:0.06640625 1:0.056287425 2:0.057692308 3:0.0078631762 4:0.0086950198 5:0.061323933 6:0.047919188 7:0.049346197 8:0.088050314 9:0.05785124 10:0.04515623 11:0.050626078 12:0.039579768 
32768 0:0.048828125 1:0.028742515 2:0 3:0.011646936 4:0.0073637932 5:0.051945176 6:0.045302811 7:0.049456915 8:0.044025157 9:0.01446281 10:0.020441885 11:0.041252882 12:0.02938583 
16943.6145787963 0:0.03515625 1:0.023952096 2:0.038461538 3:0.0044640579 4:0.0035079433 5:0.015363246 6:0.018071955 7:0.015526453 8:0.025157233 9:0.016528926 10:0.0078231502 11:0.011957038 12:0.012138773 
32768 0:0.015625 1:0.010179641 2:0.12820513 3:0.0068926552 4:0.0045831901 5:0.037136674 6:0.046219203 7:0.050457336 8:0 9:0.0041322314 10:0.018818775 11:0.029092309 12:0.03757639 
32768 0:0.048828125 1:0.037724551 2:0 3:0.0058861911 4:0.0061593016 5:0.037799834 6:0.031411848 7:0.0342922 8:0.06918239 9:0.04338843 10:0.022947024 11:0.031771125 12:0.023732147 
32768 0:0.0546875 1:0.034131737 2:0 3:0.018003561 4:0.012178294 5:0.058160081 6:0.069554167 7:0.07201362 8:0.025157233 9:0.012396694 10:0.024786593 11:0.046520047 12:0.046039201 
32768 0:0.013671875 1:0.0071856287 2:0.038461538 3:0.0013108191 4:0.00072198003 5:0.010708048 6:0.013326918 7:0.014548948 8:0 9:0 10:0.0024672113 11:0.0093984689 12:0.0072232239 
32768 0:0.01171875 1:0.0077844311 2:0.044871795 3:0.0013492196 4:0.00093317837 5:0.012992627 6:0.016170238 7:0.017652991 8:0 9:0.0082644628 10:0.0044747535 11:0.0098372363 12:0.013146466 
32768 0:0.01171875 1:0.014371257 2:0.051282051 3:0.0016399086 4:0.0021989449 5:0.015352352 6:0.019107081 7:0.020859132 8:0 9:0.012396694 10:0.014282258 11:0.025636293 12:0.017632978 
32768 0:0.009765625 1:0.0047904192 2:0.08974359 3:0.0030157941 4:0.001817568 5:0.02523911 6:0.031411848 7:0.0342922 8:0 9:0 10:0.0088010935 11:0.018649801 12:0.016508923 
32768 0:0.00390625 1:0.0011976048 2:0.038461538 3:0.00075672374 4:0.0003659278 5:0.010708048 6:0.013326918 7:0.014548948 8:0 9:0 10:0.0024672113 11:0.0062656459 12:0 
32768 0:0.037109375 1:0.031137725 2:0 3:0.011589658 4:0.010902381 5:0.040056708 6:0.042143414 7:0.046007813 8:0.025157233 9:0.033057851 10:0.030238746 11:0.028238884 12:0.030857625 
32768 0:0.0234375 1:0.017964072 2:0.012820513 3:0.0050522509 4:0.0040804763 5:0.017544112 6:0.014010892 7:0.01529564 8:0.018867925 9:0.01446281 10:0.011992353 11:0.012455548 12:0.011390909 
1216.95252588826 0:0.05078125 1:0.033532934 2:0.038461538 3:0.0080371684 4:0.0057124804 5:0.047258309 6:0.030075507 7:0.0370016 8:0.081761006 9:0.030991736 10:0.019608019 11:0.022286584 12:0.020143729 
32768 0:0.0078125 1:0.0071856287 2:0.076923077 3:0.0024033326 4:0.0018911943 5:0.022854985 6:0.028444636 7:0.031052906 8:0 9:0.0061983471 10:0.013781986 11:0.026705576 12:0.020571804 
1143.358217324016 0:0.109375 1:0.065868263 2:0.16025641 3:0.081328227 4:0.052139805 5:0.11401276 6:0.10044228 7:0.12210233 8:0.081761006 9:0.026859504 10:0.047496255 11:0.078796932 12:0.072777093 
32768 0:0.052734375 1:0.040718563 2:0.10897436 3:0.01602748 4:0.015343141 5:0.046293623 6:0.053344624 7:0.047717175 8:0.012578616 9:0.024793388 10:0.035101754 11:0.045396719 12:0.047804894 
10243.639951328 0:0.072265625 1:0.053892216 2:0.19230769 3:0.033244155 4:0.028522809 5:0.085431262 6:0.093528553 7:0.078902439 8:0.062893082 9:0.037190083 10:0.050437565 11:0.066133859 12:0.054564054 
32768 0:0.03515625 1:0.025149701 2:0 3:0.0033069623 4:0.0028455352 5:0.027335926 6:0.021987754 7:0.015526453 8:0.050314465 9:0.024793388 10:0.01714745 11:0.018627685 12:0.011704207 
32768 0:0.025390625 1:0.016167665 2:0.12179487 3:0.0065752289 4:0.0042583582 5:0.03409616 6:0.042435068 7:0.046326211 8:0 9:0.0082644628 10:0.013950645 11:0.031223905 12:0.03194608 
32768 0:0.01953125 1:0.01257485 2:0.12179487 3:0.0068964203 4:0.0047237392 5:0.035063293 6:0.043638734 7:0.047640248 8:0 9:0.0041322314 10:0.016386501 11:0.030775103 12:0.035478459 
32768 0:0.013671875 1:0.0089820359 2:0.064102564 3:0.0027695767 4:0.0018788402 5:0.017935759 6:0.022322313 7:0.024369188 8:0 9:0.0041322314 10:0.0083186904 11:0.017308653 12:0.014110221 
30870.40265127832 0:0.10742188 1:0.071257485 2:0.5 3:0.13207663 4:0.090064081 5:0.14463183 6:0.17379014 7:0.18972607 8:0.037735849 9:0.024793388 10:0.074769139 11:0.12376433 12:0.14129206 
32768 0:0.03515625 1:0.020359281 2:0 3:0.0049101316 4:0.003034837 5:0.02337966 6:0.019866597 7:0.017485661 8:0.037735849 9:0.012396694 10:0.0079905858 11:0.012803944 12:0.013021853 
32768 0:0.033203125 1:0.019161677 2:0 3:0.0207976 4:0.013243854 5:0.065126823 6:0.07228377 7:0.07891193 8:0.0062893082 9:0.0020661157 10:0.026187577 11:0.047640545 12:0.051075906 
32768 0:0.03125 1:0.022155689 2:0.032051282 3:0.0025029789 4:0.0022404831 5:0.019808139 6:0.011325704 7:0.01236423 8:0.025157233 9:0.016528926 10:0.011121884 11:0.019911083 12:0.011458256 
32768 0:0.0625 1:0.050898204 2:0 3:0.012998974 4:0.012414651 5:0.065639601 6:0.062954667 7:0.043915441 8:0.056603774 9:0.039256198 10:0.045398931 11:0.0658448 12:0.066052494 
32768 0:0.033203125 1:0.019161677 2:0 3:0.0055750814 4:0.0034621224 5:0.024742476 6:0.015933339 7:0.019145602 8:0.037735849 9:0.012396694 10:0.0085846176 11:0.011993842 12:0.011562799 
32768 0:0.01953125 1:0.01257485 2:0.1025641 3:0.0064200976 4:0.0042795329 5:0.0290524 6:0.036157755 7:0.03947329 8:0 9:0.0041322314 10:0.015294956 11:0.027065745 12:0.027590586 
32768 0:0.03125 1:0.026946108 2:0 3:0.0086131272 4:0.010189451 5:0.039743928 6:0.036157251 7:0.029993426 8:0.012578616 9:0.016528926 10:0.027844704 11:0.029055928 12:0.036026055 
16070.24841226039 0:0.05859375 1:0.04011976 2:0.21794872 3:0.032777178 4:0.022023473 5:0.075511743 6:0.091882303 7:0.08403338 8:0.018867925 9:0.01446281 10:0.037206392 11:0.065692212 12:0.063302942 
32768 0:0.013671875 1:0.0071856287 2:0.096153846 3:0.0045252844 4:0.0027875408 5:0.027007027 6:0.033612144 7:0.036694256 8:0 9:0 10:0.0095717031 11:0.023704107 12:0.012767929 
20496.53803023717 0:0.03515625 1:0.022155689 2:0.21794872 3:0.022618797 4:0.014670762 5:0.060914684 6:0.075812607 7:0.082764349 8:0 9:0.0041322314 10:0.028493614 11:0.048511479 12:0.061635942 
32768 0:0.0625 1:0.038922156 2:0.17948718 3:0.029054899 4:0.018759872 5:0.070617068 6:0.076360126 7:0.081271931 8:0.037735849 9:0.016528926 10:0.031281718 11:0.055418774 12:0.058490737 
32768 0:0.021484375 1:0.011976048 2:0 3:0.00099871929 4:0.00052143002 5:0.014277397 6:0.0088846122 7:0.0048496495 8:0.025157233 9:0.0082644628 10:0.0040230396 11:0.0062656459 12:0.0054174179 
32768 0:0.013671875 1:0.01257485 2:0.044871795 3:0.0013948914 4:0.0019021105 5:0.029901371 6:0.037214358 7:0.018938487 8:0.012578616 9:0.0082644628 10:0.019211697 11:0.027898179 12:0.023132827 
29129.18606038324 0:0.03515625 1:0.029341317 2:0.038461538 3:0.0050855963 4:0.005981483 5:0.025335362 6:0.014296482 7:0.015607418 8:0.018867925 9:0.018595041 10:0.018848665 11:0.021473666 12:0.01805037 
32768 0:0.0078125 1:0.011377246 2:0.025641026 3:0.0014347283 4:0.003123787 5:0.01738073 6:0.017189235 7:0.0084691052 8:0.0062893082 9:0.012396694 10:0.018911437 11:0.024159797 12:0.015947633 
32768 0:0.01171875 1:0.0077844311 2:0.019230769 3:0.0005617796 4:0.0004105687 5:0.0053540238 6:0.0066634591 7:0.0072744742 8:0 9:0.0041322314 10:0.0020565785 11:0.0046992345 12:0.0054174179 
32768 0:0.005859375 1:0.0041916168 2:0.044871795 3:0.0010921848 4:0.00080812219 5:0.012492722 6:0.015548071 7:0.016973773 8:0 9:0.0041322314 10:0.0056239264 11:0.0074622782 12:0.012640642 
32768 0:0.01953125 1:0.010778443 2:0.12820513 3:0.0074180664 4:0.0046463932 5:0.03679201 6:0.045790243 7:0.049989042 8:0 9:0 10:0.013836837 11:0.0322924 12:0.03000442 
32768 0:0.013671875 1:0.0089820359 2:0.064102564 3:0.0021461834 4:0.0013556051 5:0.019304208 6:0.024025444 7:0.026228491 8:0 9:0.0082644628 10:0.0099702556 11:0.016943331 12:0.017726973 
32768 0:0.009765625 1:0.0047904192 2:0.064102564 3:0.0023495512 4:0.0013894516 5:0.018200181 6:0.022651405 7:0.024728457 8:0 9:0 10:0.0057329252 11:0.012471723 12:0.010754293 
32768 0:0.009765625 1:0.0047904192 2:0.083333333 3:0.0028045417 4:0.0016818208 5:0.02320077 6:0.02887499 7:0.031522722 8:0 9:0 10:0.0079126101 11:0.017230526 12:0.016029948 
8688.137824804009 0:0.03125 1:0.019760479 2:0.15384615 3:0.01044568 4:0.0067454446 5:0.047466541 6:0.054633142 7:0.059642804 8:0.012578616 9:0.0082644628 10:0.019134157 11:0.040363793 12:0.044416955 
32768 0:0.009765625 1:0.01257485 2:0 3:0.00070410399 4:0.0021997593 5:0.016561977 6:0.016170238 7:0.017652991 8:0.012578616 9:0.016528926 10:0.017741444 11:0.013640631 12:0.014891057 
32768 0:0.017578125 1:0.0095808383 2:0.12820513 3:0.0069040961 4:0.0043161247 5:0.035871514 6:0.044644622 7:0.048738372 8:0 9:0 10:0.013435606 11:0.025218834 12:0.032684638 
32768 0:0.013671875 1:0.01257485 2:0.076923077 3:0.0033579447 4:0.0034469288 5:0.022428641 6:0.027474146 7:0.029993426 8:0.012578616 9:0.016528926 10:0.013533987 11:0.025430067 12:0.022336587 
32768 0:0.05078125 1:0.050299401 2:0 3:0.0044862148 4:0.0066860079 5:0.045853609 6:0.034362257 7:0.020575319 8:0.056603774 9:0.051652893 10:0.034796706 11:0.046297999 12:0.030386173 
11896.42177367912 0:0.044921875 1:0.029341317 2:0.076923077 3:0.0181801 4:0.014117259 5:0.041646521 6:0.035306065 7:0.035579399 8:0.050314465 9:0.020661157 10:0.018832452 11:0.025911883 12:0.027335009 
19393.82104382039 0:0.08984375 1:0.055688623 2:0.29487179 3:0.050716001 4:0.032997838 5:0.096602519 6:0.10680588 7:0.11335323 8:0.037735849 9:0.020661157 10:0.040621491 11:0.076271196 12:0.079283951 
5993.699023387881 0:0.048828125 1:0.046107784 2:0.08974359 3:0.0076831397 4:0.0091429719 5:0.050358294 6:0.060834377 7:0.052695788 8:0.025157233 9:0.02892562 10:0.044667378 11:0.061658146 12:0.058828774 
19294.75573762673 0:0.13867188 1:0.10419162 2:0.08974359 3:0.045671932 4:0.039327825 5:0.13650208 6:0.1182731 7:0.10003979 8:0.12578616 9:0.082644628 10:0.08300413 11:0.09320523 12:0.058925407 
27894.6030432443 0:0.037109375 1:0.037724551 2:0.057692308 3:0.0046229575 4:0.0090954019 5:0.02802167 6:0.021875821 7:0.023881754 8:0.025157233 9:0.05785124 10:0.024593346 11:0.030871223 12:0.017072828 
32768 0:0.052734375 1:0.043712575 2:0 3:0.0051546044 4:0.0053847861 5:0.049828391 6:0.03208289 7:0.034544565 8:0.06918239 9:0.047520661 10:0.035794325 11:0.029799565 12:0.017283304 
32021.18193556228 0:0.06640625 1:0.056287425 2:0.057692308 3:0.0078631762 4:0.0086950198 5:0.061323933 6:0.047919188 7:0.049346197 8:0.088050314 9:0.05785124 10:0.04515623 11:0.050626078 12:0.039579768 
381.1680353319755 0:0.1953125 1:0.17904192 2:0.23717949 3:0.055761548 4:0.071132375 5:0.17706642 6:0.13129068 7:0.11054678 8:0.2327044 9:0.1838843 10:0.13046656 11:0.17218113 12:0.14619235 
2825.732614281438 0:0.18164062 1:0.14790419 2:0.15384615 3:0.090526324 4:0.084444793 5:0.18536484 6:0.1941524 7:0.17554775 8:0.16352201 9:0.10743802 10:0.12436023 11:0.17509457 12:0.16680947 
32768 0:0.048828125 1:0.028742515 2:0 3:0.011646936 4:0.0073637932 5:0.051945176 6:0.045302811 7:0.049456915 8:0.044025157 9:0.01446281 10:0.020441885 11:0.041252882 12:0.02938583 
10917.02034519365 0:0.15625 1:0.10898204 2:0 3:0.11934072 4:0.094736181 5:0.18774848 6:0.20418397 7:0.20705349 8:0.11320755 9:0.049586777 10:0.10904619 11:0.14278424 12:0.15419015 
29899.3670351352 0:0.03515625 1:0.023952096 2:0.038461538 3:0.0044640579 4:0.0035079433 5:0.015363246 6:0.018071955 7:0.015526453 8:0.025157233 9:0.016528926 10:0.0078231502 11:0.011957038 12:0.012138773 
32768 0:0.015625 1:0.010179641 2:0.12820513 3:0.0068926552 4:0.0045831901 5:0.037136674 6:0.046219203 7:0.050457336 8:0 9:0.0041322314 10:0.018818775 11:0.029092309 12:0.03757639 
973.7014848157357 0:0.24804688 1:0.1742515 2:0.12820513 3:0.061760188 4:0.049726889 5:0.18936888 6:0.16979374 7:0.1364155 8:0.21383648 9:0.14049587 10:0.095966705 11:0.11980318 12:0.11472093 
32768 0:0.048828125 1:0.037724551 2:0 3:0.0058861911 4:0.0061593016 5:0.037799834 6:0.031411848 7:0.0342922 8:0.06918239 9:0.04338843 10:0.022947024 11:0.031771125 12:0.023732147 
32768 0:0.0546875 1:0.034131737 2:0 3:0.018003561 4:0.012178294 5:0.058160081 6:0.069554167 7:0.07201362 8:0.025157233 9:0.012396694 10:0.024786593 11:0.046520047 12:0.046039201 
1496.885433415984 0:0.11132812 1:0.11317365 2:0.21794872 3:0.03724821 4:0.050464008 5:0.13116778 6:0.11782696 7:0.16472212 8:0.075471698 9:0.08677686 10:0.11481622 11:0.16448376 12:0.11394285 
32768 0:0.013671875 1:0.0071856287 2:0.038461538 3:0.0013108191 4:0.00072198003 5:0.010708048 6:0.013326918 7:0.014548948 8:0 9:0 10:0.0024672113 11:0.0093984689 12:0.0072232239 
32768 0:0.01171875 1:0.0077844311 2:0.044871795 3:0.0013492196 4:0.00093317837 5:0.012992627 6:0.016170238 7:0.017652991 8:0 9:0.0082644628 10:0.0044747535 11:0.0098372363 12:0.013146466 
32768 0:0.01171875 1:0.014371257 2:0.051282051 3:0.0016399086 4:0.0021989449 5:0.015352352 6:0.019107081 7:0.020859132 8:0 9:0.012396694 10:0.014282258 11:0.025636293 12:0.017632978 
8423.110794879956 0:0.07421875 1:0.055688623 2:0.19230769 3:0.039344612 4:0.034333616 5:0.072214156 6:0.074020715 7:0.077889956 8:0.050314465 9:0.041322314 10:0.042557107 11:0.056785804 12:0.062869394 
32768 0:0.009765625 1:0.0047904192 2:0.08974359 3:0.0030157941 4:0.001817568 5:0.02523911 6:0.031411848 7:0.0342922 8:0 9:0 10:0.0088010935 11:0.018649801 12:0.016508923 
32768 0:0.00390625 1:0.0011976048 2:0.038461538 3:0.00075672374 4:0.0003659278 5:0.010708048 6:0.013326918 7:0.014548948 8:0 9:0 10:0.0024672113 11:0.0062656459 12:0 
32768 0:0.037109375 1:0.031137725 2:0 3:0.011589658 4:0.010902381 5:0.040056708 6:0.042143414 7:0.046007813 8:0.025157233 9:0.033057851 10:0.030238746 11:0.028238884 12:0.030857625 
32768 0:0.0234375 1:0.017964072 2:0.012820513 3:0.0050522509 4:0.0040804763 5:0.017544112 6:0.014010892 7:0.01529564 8:0.018867925 9:0.01446281 10:0.011992353 11:0.012455548 12:0.011390909 
7162.683495399721 0:0.125 1:0.10658683 2:0.31410256 3:0.087887618 4:0.090870315 5:0.11830932 6:0.14724427 7:0.12995943 8:0.018867925 9:0.099173554 10:0.11657683 11:0.10535472 12:0.11054257 
32768 0:0.05078125 1:0.033532934 2:0.038461538 3:0.0080371684 4:0.0057124804 5:0.047258309 6:0.030075507 7:0.0370016 8:0.081761006 9:0.030991736 10:0.019608019 11:0.022286584 12:0.020143729 
32768 0:0.0078125 1:0.0071856287 2:0.076923077 3:0.0024033326 4:0.0018911943 5:0.022854985 6:0.028444636 7:0.031052906 8:0 9:0.0061983471 10:0.013781986 11:0.026705576 12:0.020571804 
80.67624321482285 0:0.20507812 1:0.13952096 2:0.23076923 3:0.11173034 4:0.078593825 5:0.17718611 6:0.17798856 7:0.18433276 8:0.1572327 9:0.084710744 10:0.093510535 11:0.13346838 12:0.14968206 
3960.09898787777 0:0.1484375 1:0.10538922 2:0.40384615 3:0.11536629 4:0.088446334 5:0.18905238 6:0.20269643 7:0.22010555 8:0.10062893 9:0.053719008 10:0.10902866 11:0.14930618 12:0.18301568 
3812.847231073554 0:0.11328125 1:0.080838323 2:0.3525641 3:0.070189953 4:0.054275594 5:0.12831931 6:0.14145793 7:0.14229877 8:0.088050314 9:0.053719008 10:0.066736127 11:0.1049859 12:0.11044857 
32768 0:0.109375 1:0.065868263 2:0.16025641 3:0.081328227 4:0.052139805 5:0.11401276 6:0.10044228 7:0.12210233 8:0.081761006 9:0.026859504 10:0.047496255 11:0.078796932 12:0.072777093 
32768 0:0.052734375 1:0.040718563 2:0.10897436 3:0.01602748 4:0.015343141 5:0.046293623 6:0.053344624 7:0.047717175 8:0.012578616 9:0.024793388 10:0.035101754 11:0.045396719 12:0.047804894 
29113.82419282895 0:0.072265625 1:0.053892216 2:0.19230769 3:0.033244155 4:0.028522809 5:0.085431262 6:0.093528553 7:0.078902439 8:0.062893082 9:0.037190083 10:0.050437565 11:0.066133859 12:0.054564054 
24361.52638354872 0:0.10546875 1:0.065269461 2:0.30128205 3:0.081549371 4:0.052529081 5:0.11872145 6:0.13835112 7:0.1448057 8:0.10062893 9:0.037190083 10:0.053690753 11:0.090322202 12:0.098507514 
9942.722005971897 0:0.072265625 1:0.046107784 2:0.16666667 3:0.064574641 4:0.046564495 5:0.074365876 6:0.078951821 7:0.084805753 8:0.037735849 9:0.016528926 10:0.034254471 11:0.058790929 12:0.064730681 
605.9115129486872 0:0.21679688 1:0.16407186 2:0.26282051 3:0.16734912 4:0.15276288 5:0.22293511 6:0.24377356 7:0.24008895 8:0.13207547 9:0.084710744 10:0.14259878 11:0.22924251 12:0.17706886 
17339.21295352218 0:0.11328125 1:0.077844311 2:0.22435897 3:0.067821393 4:0.050493571 5:0.15246475 6:0.17725037 7:0.17849753 8:0.056603774 9:0.047520661 10:0.076364933 11:0.1194005 12:0.13343949 
32768 0:0.03515625 1:0.025149701 2:0 3:0.0033069623 4:0.0028455352 5:0.027335926 6:0.021987754 7:0.015526453 8:0.050314465 9:0.024793388 10:0.01714745 11:0.018627685 12:0.011704207 
18902.94571615955 0:0.041015625 1:0.025748503 2:0.064102564 3:0.0060232748 4:0.0039366468 5:0.024352621 6:0.022322313 7:0.024369188 8:0.025157233 9:0.016528926 10:0.010982239 11:0.018048212 12:0.016342321 
7169.41934897591 0:0.12695312 1:0.089820359 2:0.23717949 3:0.062374303 4:0.047357911 5:0.12938477 6:0.13228801 7:0.12072921 8:0.06918239 9:0.047520661 10:0.069446868 11:0.10141046 12:0.10384925 
15044.40030839265 0:0.060546875 1:0.037724551 2:0.096153846 3:0.020749345 4:0.014723045 5:0.043238274 6:0.053813072 7:0.044104196 8:0.018867925 9:0.010330579 10:0.01878827 11:0.033823058 12:0.0288072 
28.00433319867193 0:0.19921875 1:0.14311377 2:0.37820513 3:0.2878506 4:0.20459663 5:0.33474985 6:0.41357093 7:0.45149389 8:0.037735849 9:0.20867769 10:0.30851108 11:0.32604108 12:0.34718359 
6.813653894646956 0:0.24023438 1:0.21377246 2:0.083333333 3:0.20996987 4:0.22337477 5:0.32133538 6:0.30852085 7:0.30931811 8:0.2327044 9:0.17561983 10:0.25934764 11:0.26713602 12:0.24837826 
113.0030479864376 0:0.27929688 1:0.25269461 2:0.44230769 3:0.25968762 4:0.24996204 5:0.40095274 6:0.41705073 7:0.42996883 8:0.18238994 9:0.16735537 10:0.28952953 11:0.4188882 12:0.38936923 
3141.685760104775 0:0.10546875 1:0.10479042 2:0 3:0.039646528 4:0.049137362 5:0.10331953 6:0.072859453 7:0.072596872 8:0.094339623 9:0.088842975 10:0.10308019 11:0.10116872 12:0.1138341 
32768 0:0.025390625 1:0.016167665 2:0.12179487 3:0.0065752289 4:0.0042583582 5:0.03409616 6:0.042435068 7:0.046326211 8:0 9:0.0082644628 10:0.013950645 11:0.031223905 12:0.03194608 
32768 0:0.01953125 1:0.01257485 2:0.12179487 3:0.0068964203 4:0.0047237392 5:0.035063293 6:0.043638734 7:0.047640248 8:0 9:0.0041322314 10:0.016386501 11:0.030775103 12:0.035478459 
32768 0:0.013671875 1:0.0089820359 2:0.064102564 3:0.0027695767 4:0.0018788402 5:0.017935759 6:0.022322313 7:0.024369188 8:0 9:0.0041322314 10:0.0083186904 11:0.017308653 12:0.014110221 
358.9895188315558 0:0.265625 1:0.19580838 2:0.16666667 3:0.21937487 4:0.18098048 5:0.30481581 6:0.32401114 7:0.29003597 8:0.13207547 9:0.10123967 10:0.18785453 11:0.26384688 12:0.25780118 
9780.086357199791 0:0.11132812 1:0.070658683 2:0.42948718 3:0.083639045 4:0.053898588 5:0.12820369 6:0.14883383 7:0.16248135 8:0.025157233 9:0.020661157 10:0.058082426 11:0.10939174 12:0.12100247 
32768 0:0.10742188 1:0.071257485 2:0.5 3:0.13207663 4:0.090064081 5:0.14463183 6:0.17379014 7:0.18972607 8:0.037735849 9:0.024793388 10:0.074769139 11:0.12376433 12:0.14129206 
32768 0:0.03515625 1:0.020359281 2:0 3:0.0049101316 4:0.003034837 5:0.02337966 6:0.019866597 7:0.017485661 8:0.037735849 9:0.012396694 10:0.0079905858 11:0.012803944 12:0.013021853 
328.8473495021619 0:0.25390625 1:0.19041916 2:0.1474359 3:0.15372939 4:0.13098344 5:0.27909464 6:0.21919877 7:0.26455152 8:0.23899371 9:0.13636364 10:0.16555943 11:0.22155157 12:0.19202943 
597.0891467923672 0:0.18945312 1:0.1245509 2:0 3:0.20208718 4:0.14112005 5:0.2217587 6:0.22586875 7:0.21666848 8:0.1572327 9:0.064049587 10:0.11096507 11:0.15754097 12:0.17808701 
32768 0:0.033203125 1:0.019161677 2:0 3:0.0207976 4:0.013243854 5:0.065126823 6:0.07228377 7:0.07891193 8:0.0062893082 9:0.0020661157 10:0.026187577 11:0.047640545 12:0.051075906 
32768 0:0.03125 1:0.022155689 2:0.032051282 3:0.0025029789 4:0.0022404831 5:0.019808139 6:0.011325704 7:0.01236423 8:0.025157233 9:0.016528926 10:0.011121884 11:0.019911083 12:0.011458256 
19537.3719370229 0:0.15429688 1:0.10718563 2:0 3:0.096262552 4:0.071492802 5:0.17303423 6:0.15945231 7:0.16121521 8:0.1509434 9:0.070247934 10:0.098634102 11:0.11539049 12:0.1021576 
13.48547864067575 0:0.359375 1:0.38682635 2:0.60897436 3:0.30297257 4:0.34406485 5:0.35998286 6:0.37029559 7:0.38356294 8:0.1509434 9:0.40289256 10:0.38286541 11:0.37062934 12:0.40052926 
24548.32200706283 0:0.064453125 1:0.041916168 2:0.29487179 3:0.043222821 4:0.028689455 5:0.086379023 6:0.10306246 7:0.11251292 8:0.012578616 9:0.016528926 10:0.037544053 11:0.06715608 12:0.083345567 
82.47293213744632 0:0.234375 1:0.16826347 2:0.11538462 3:0.17436966 4:0.1384185 5:0.25347513 6:0.21018827 7:0.19040017 8:0.20125786 9:0.11570248 10:0.14692585 11:0.20735006 12:0.17036174 
32768 0:0.0625 1:0.050898204 2:0 3:0.012998974 4:0.012414651 5:0.065639601 6:0.062954667 7:0.043915441 8:0.056603774 9:0.039256198 10:0.045398931 11:0.0658448 12:0.066052494 
1795.701784267247 0:0.23632812 1:0.19041916 2:0 3:0.11701191 4:0.10164866 5:0.2777633 6:0.26313605 7:0.19074923 8:0.27044025 9:0.15495868 10:0.20227068 11:0.24173803 12:0.20679806 
4311.648178351509 0:0.18554688 1:0.12275449 2:0.32051282 3:0.19184036 4:0.14128039 5:0.19961819 6:0.20341195 7:0.21796455 8:0.13207547 9:0.059917355 10:0.10346984 11:0.15573306 12:0.16923864 
7327.624001764764 0:0.1171875 1:0.088622754 2:0 3:0.037186872 4:0.0281278 5:0.098234932 6:0.091522539 7:0.092380343 8:0.081761006 9:0.047520661 10:0.063177796 11:0.090525521 12:0.099866663 
32768 0:0.033203125 1:0.019161677 2:0 3:0.0055750814 4:0.0034621224 5:0.024742476 6:0.015933339 7:0.019145602 8:0.037735849 9:0.012396694 10:0.0085846176 11:0.011993842 12:0.011562799 
342.2204407980836 0:0.24804688 1:0.19101796 2:0 3:0.14853915 4:0.12809019 5:0.23702233 6:0.20924156 7:0.21995409 8:0.24528302 9:0.15495868 10:0.15044024 11:0.17305091 12:0.15483545 
961.0671987183855 0:0.13085938 1:0.080838323 2:0.33974359 3:0.16441119 4:0.10578415 5:0.17829252 6:0.20370684 7:0.20576671 8:0.088050314 9:0.033057851 10:0.079656931 11:0.13706236 12:0.15536376 
10419.17812602232 0:0.10351562 1:0.077844311 2:0.24358974 3:0.085341757 4:0.071008001 5:0.16546519 6:0.18281875 7:0.16973187 8:0.050314465 9:0.041322314 10:0.09936228 11:0.15857448 12:0.14788829 
17665.80746975453 0:0.06640625 1:0.054491018 2:0.20512821 3:0.027995689 4:0.026463078 5:0.092990919 6:0.085601012 7:0.093157858 8:0.075471698 9:0.061983471 10:0.06328935 11:0.062233558 12:0.07248171 
448.6227930581663 0:0.125 1:0.11736527 2:0 3:0.10104517 4:0.11367966 5:0.17771092 6:0.18369021 7:0.18156517 8:0.094339623 9:0.11363636 10:0.11495731 11:0.15475576 12:0.1492568 
1815.547921007531 0:0.20507812 1:0.15329341 2:0 3:0.072578979 4:0.060231655 5:0.19023671 6:0.15675129 7:0.12055307 8:0.22012579 9:0.12190083 10:0.12368257 11:0.13096949 12:0.1407888 
32768 0:0.01953125 1:0.01257485 2:0.1025641 3:0.0064200976 4:0.0042795329 5:0.0290524 6:0.036157755 7:0.03947329 8:0 9:0.0041322314 10:0.015294956 11:0.027065745 12:0.027590586 
32768 0:0.03125 1:0.026946108 2:0 3:0.0086131272 4:0.010189451 5:0.039743928 6:0.036157251 7:0.029993426 8:0.012578616 9:0.016528926 10:0.027844704 11:0.029055928 12:0.036026055 
9956.231755137984 0:0.056640625 1:0.050299401 2:0.076923077 3:0.010700188 4:0.012719232 5:0.041905527 6:0.038601748 7:0.03585502 8:0.050314465 9:0.066115702 10:0.032813556 11:0.035255426 12:0.038083877 
167.9156708359337 0:0.28710938 1:0.19520958 2:0 3:0.20123883 4:0.16299119 5:0.34361274 6:0.32978513 7:0.34388515 8:0.22012579 9:0.10950413 10:0.19117824 11:0.2691095 12:0.26108029 
2183.898817399989 0:0.21289062 1:0.14670659 2:0 3:0.15851955 4:0.11624193 5:0.20505638 6:0.22015144 7:0.18757575 8:0.18238994 9:0.088842975 10:0.11571247 11:0.14008393 12:0.13913566 
7560.81785054153 0:0.13085938 1:0.081437126 2:0.55128205 3:0.15744468 4:0.10706682 5:0.19876609 6:0.24201244 7:0.24415792 8:0.012578616 9:0.0082644628 10:0.085552655 11:0.15523323 12:0.15807666 
32768 0:0.05859375 1:0.04011976 2:0.21794872 3:0.032777178 4:0.022023473 5:0.075511743 6:0.091882303 7:0.08403338 8:0.018867925 9:0.01446281 10:0.037206392 11:0.065692212 12:0.063302942 
32768 0:0.013671875 1:0.0071856287 2:0.096153846 3:0.0045252844 4:0.0027875408 5:0.027007027 6:0.033612144 7:0.036694256 8:0 9:0 10:0.0095717031 11:0.023704107 12:0.012767929 
38.48389799478362 0:0.32421875 1:0.28143713 2:0 3:0.21606869 4:0.21918498 5:0.44461992 6:0.41700172 7:0.37826655 8:0.33333333 9:0.20867769 10:0.3389088 11:0.52078344 12:0.47148234 
25223.30496080049 0:0.046875 1:0.035928144 2:0.25641026 3:0.030637089 4:0.025260713 5:0.08444155 6:0.092576676 7:0.10227729 8:0.025157233 9:0.024793388 10:0.049408214 11:0.070639784 12:0.083133784 
2.167649219406456 0:0.3671875 1:0.26467066 2:0 3:0.34007907 4:0.28124422 5:0.46625599 6:0.48017217 7:0.49244514 8:0.28301887 9:0.13016529 10:0.26848333 11:0.44625193 12:0.46303019 
6863.090654051748 0:0.14648438 1:0.12634731 2:0.096153846 3:0.082004606 4:0.083220997 5:0.19140149 6:0.20149303 7:0.18243435 8:0.094339623 9:0.084710744 10:0.14157897 11:0.16809998 12:0.16742527 
30430.1937126606 0:0.03515625 1:0.022155689 2:0.21794872 3:0.022618797 4:0.014670762 5:0.060914684 6:0.075812607 7:0.082764349 8:0 9:0.0041322314 10:0.028493614 11:0.048511479 12:0.061635942 
32768 0:0.0625 1:0.038922156 2:0.17948718 3:0.029054899 4:0.018759872 5:0.070617068 6:0.076360126 7:0.081271931 8:0.037735849 9:0.016528926 10:0.031281718 11:0.055418774 12:0.058490737 
1167.551928650913 0:0.1640625 1:0.17964072 2:0.12179487 3:0.054535943 4:0.073800841 5:0.18359083 6:0.17447488 7:0.10505748 8:0.13207547 9:0.19214876 10:0.19751901 11:0.21178951 12:0.17970781 
721.2362548643712 0:0.18554688 1:0.1239521 2:0.31410256 3:0.12539393 4:0.093511866 5:0.19533003 6:0.14566958 7:0.1269177 8:0.26415094 9:0.10330579 10:0.1000986 11:0.1107891 12:0.11522581 
1905.22646185669 0:0.14648438 1:0.10718563 2:0.32692308 3:0.083371665 4:0.064225744 5:0.16302605 6:0.1697478 7:0.17691138 8:0.10062893 9:0.066115702 10:0.083752423 11:0.12736978 12:0.12499669 
23.90443778645977 0:0.359375 1:0.22874251 2:0.58974359 3:0.46152483 4:0.30765452 5:0.2969535 6:0.26364422 7:0.24443237 8:0.21383648 9:0.28305785 10:0.22891977 11:0.2010021 12:0.21124067 
2972.185836559959 0:0.19335938 1:0.17365269 2:0 3:0.13570181 4:0.14860337 5:0.25125493 6:0.26169896 7:0.26003276 8:0.13207547 9:0.12603306 10:0.19701646 11:0.25183258 12:0.2181471 
4287.075832654256 0:0.1640625 1:0.11736527 2:0.30769231 3:0.13361673 4:0.10805632 5:0.19085667 6:0.20945474 7:0.18197816 8:0.12578616 9:0.070247934 10:0.10355933 11:0.15087863 12:0.13892349 
3190.842216604798 0:0.13867188 1:0.092814371 2:0.21794872 3:0.073224452 4:0.053371146 5:0.15271241 6:0.13167043 7:0.12060037 8:0.16352201 9:0.078512397 10:0.079121533 11:0.1030663 12:0.090918071 
29026.19115118551 0:0.099609375 1:0.067664671 2:0.46153846 3:0.12387408 4:0.086776667 5:0.15083007 6:0.16981031 7:0.17607968 8:0.037735849 9:0.033057851 10:0.074310297 11:0.12272155 12:0.12541891 
3.006677679787589 0:0.33203125 1:0.23892216 2:0.91025641 3:0.54899083 4:0.384989 5:0.33015437 6:0.36132642 7:0.38433872 8:0.10062893 9:0.30165289 10:0.28517485 11:0.28672439 12:0.29263536 
32768 0:0.021484375 1:0.011976048 2:0 3:0.00099871929 4:0.00052143002 5:0.014277397 6:0.0088846122 7:0.0048496495 8:0.025157233 9:0.0082644628 10:0.0040230396 11:0.0062656459 12:0.0054174179 
32768 0:0.013671875 1:0.01257485 2:0.044871795 3:0.0013948914 4:0.0019021105 5:0.029901371 6:0.037214358 7:0.018938487 8:0.012578616 9:0.0082644628 10:0.019211697 11:0.027898179 12:0.023132827 
32768 0:0.03515625 1:0.029341317 2:0.038461538 3:0.0050855963 4:0.005981483 5:0.025335362 6:0.014296482 7:0.015607418 8:0.018867925 9:0.018595041 10:0.018848665 11:0.021473666 12:0.01805037 
32768 0:0.0078125 1:0.011377246 2:0.025641026 3:0.0014347283 4:0.003123787 5:0.01738073 6:0.017189235 7:0.0084691052 8:0.0062893082 9:0.012396694 10:0.018911437 11:0.024159797 12:0.015947633 
32768 0:0.01171875 1:0.0077844311 2:0.019230769 3:0.0005617796 4:0.0004105687 5:0.0053540238 6:0.0066634591 7:0.0072744742 8:0 9:0.0041322314 10:0.0020565785 11:0.0046992345 12:0.0054174179 
32768 0:0.005859375 1:0.0041916168 2:0.044871795 3:0.0010921848 4:0.00080812219 5:0.012492722 6:0.015548071 7:0.016973773 8:0 9:0.0041322314 10:0.0056239264 11:0.0074622782 12:0.012640642 
32768 0:0.01953125 1:0.010778443 2:0.12820513 3:0.0074180664 4:0.0046463932 5:0.03679201 6:0.045790243 7:0.049989042 8:0 9:0 10:0.013836837 11:0.0322924 12:0.03000442 
32768 0:0.013671875 1:0.0089820359 2:0.064102564 3:0.0021461834 4:0.0013556051 5:0.019304208 6:0.024025444 7:0.026228491 8:0 9:0.0082644628 10:0.0099702556 11:0.016943331 12:0.017726973 
32768 0:0.009765625 1:0.0047904192 2:0.064102564 3:0.0023495512 4:0.0013894516 5:0.018200181 6:0.022651405 7:0.024728457 8:0 9:0 10:0.0057329252 11:0.012471723 12:0.010754293 
32768 0:0.009765625 1:0.0047904192 2:0.083333333 3:0.0028045417 4:0.0016818208 5:0.02320077 6:0.02887499 7:0.031522722 8:0 9:0 10:0.0079126101 11:0.017230526 12:0.016029948 
31451.3821704125 0:0.03125 1:0.019760479 2:0.15384615 3:0.01044568 4:0.0067454446 5:0.047466541 6:0.054633142 7:0.059642804 8:0.012578616 9:0.0082644628 10:0.019134157 11:0.040363793 12:0.044416955 
32768 0:0.009765625 1:0.01257485 2:0 3:0.00070410399 4:0.0021997593 5:0.016561977 6:0.016170238 7:0.017652991 8:0.012578616 9:0.016528926 10:0.017741444 11:0.013640631 12:0.014891057 
32768 0:0.017578125 1:0.0095808383 2:0.12820513 3:0.0069040961 4:0.0043161247 5:0.035871514 6:0.044644622 7:0.048738372 8:0 9:0 10:0.013435606 11:0.025218834 12:0.032684638 
32768 0:0.013671875 1:0.01257485 2:0.076923077 3:0.0033579447 4:0.0034469288 5:0.022428641 6:0.027474146 7:0.029993426 8:0.012578616 9:0.016528926 10:0.013533987 11:0.025430067 12:0.022336587 
2965.580088655528 0:0.19726562 1:0.13353293 2:0 3:0.18250242 4:0.12683999 5:0.20070568 6:0.23828955 7:0.24961439 8:0.088050314 9:0.053719008 10:0.098644618 11:0.17274509 12:0.17707628 
32768 0:0.05078125 1:0.050299401 2:0 3:0.0044862148 4:0.0066860079 5:0.045853609 6:0.034362257 7:0.020575319 8:0.056603774 9:0.051652893 10:0.034796706 11:0.046297999 12:0.030386173 
514.4359217032243 0:0.2109375 1:0.18622754 2:0 3:0.06085194 4:0.076378751 5:0.21347422 6:0.18979833 7:0.15616919 8:0.20754717 9:0.15495868 10:0.17284939 11:0.17809351 12:0.18143882 
14450.27634856068 0:0.16015625 1:0.1011976 2:0 3:0.11341282 4:0.07341418 5:0.14043048 6:0.15549705 7:0.16490592 8:0.081761006 9:0.035123967 10:0.065234676 11:0.11010385 12:0.12335123 
16.13944310310367 0:0.328125 1:0.22275449 2:0.76923077 3:0.33871546 4:0.24243484 5:0.31090458 6:0.30518042 7:0.30241919 8:0.27672956 9:0.14049587 10:0.16853635 11:0.21998126 12:0.23867111 
12191.11624674663 0:0.11328125 1:0.095808383 2:0 3:0.073404695 4:0.067182926 5:0.1325029 6:0.1219111 7:0.13520105 8:0.10062893 9:0.10330579 10:0.087557692 11:0.10930806 12:0.10178302 
200.6131550657361 0:0.3125 1:0.20479042 2:0.3974359 3:0.21618099 4:0.15658572 5:0.24972724 6:0.22419457 7:0.22511874 8:0.27044025 9:0.13429752 10:0.12815467 11:0.17466584 12:0.16656215 
4258.118035370874 0:0.1015625 1:0.062874251 2:0 3:0.023423003 4:0.015166995 5:0.081509565 6:0.078743885 7:0.072235476 8:0.094339623 9:0.035123967 10:0.03570738 11:0.057747358 12:0.050812513 
12905.67918601205 0:0.18164062 1:0.11437126 2:0 3:0.10824068 4:0.074692011 5:0.20506636 6:0.19376673 7:0.18708511 8:0.17610063 9:0.066115702 10:0.094876917 11:0.13031085 12:0.13120563 
389.4178792753341 0:0.140625 1:0.088622754 2:0 3:0.18209504 4:0.11873217 5:0.28308336 6:0.34274917 7:0.36407917 8:0.0062893082 9:0.010330579 10:0.12496226 11:0.23620661 12:0.2864352 
418.9587704952346 0:0.27734375 1:0.27724551 2:0.55769231 3:0.20298416 4:0.23662386 5:0.22892686 6:0.22489935 7:0.24552181 8:0.088050314 9:0.23760331 10:0.24944547 11:0.25266985 12:0.24834359 
10343.57545710195 0:0.052734375 1:0.073053892 2:0.13461538 3:0.014069072 4:0.03762315 5:0.085337155 6:0.068089689 7:0.067779658 8:0.037735849 9:0.078512397 10:0.1007496 11:0.10647546 12:0.079134323 
17007.52195932535 0:0.056640625 1:0.045508982 2:0.31410256 3:0.039989 4:0.033002171 5:0.098148995 6:0.11670912 7:0.11928561 8:0.012578616 9:0.020661157 10:0.064760486 11:0.099948919 12:0.08883391 
30189.17286766373 0:0.044921875 1:0.029341317 2:0.076923077 3:0.0181801 4:0.014117259 5:0.041646521 6:0.035306065 7:0.035579399 8:0.050314465 9:0.020661157 10:0.018832452 11:0.025911883 12:0.027335009 
4534.253784457876 0:0.099609375 1:0.061676647 2:0.6474359 3:0.17421236 4:0.11203585 5:0.18088714 6:0.22512677 7:0.24577008 8:0 9:0.0041322314 10:0.080268475 11:0.15433442 12:0.18047513 
16485.62630616833 0:0.11328125 1:0.068263473 2:0.38461538 3:0.10180099 4:0.065295254 5:0.11292587 6:0.11450481 7:0.12097254 8:0.062893082 9:0.020661157 10:0.047022499 11:0.08500681 12:0.086234655 
3684.196830945089 0:0.24414062 1:0.18383234 2:0 3:0.18653227 4:0.16054839 5:0.2903564 6:0.3114269 7:0.29025253 8:0.17610063 9:0.11983471 10:0.18453808 11:0.23071212 12:0.2178954 
1268.671897902761 0:0.12304688 1:0.10179641 2:0.46153846 3:0.11066638 4:0.084490857 5:0.22979823 6:0.22530799 7:0.19848165 8:0.025157233 9:0.041322314 10:0.16388951 11:0.1958314 12:0.21271447 
32768 0:0.08984375 1:0.055688623 2:0.29487179 3:0.050716001 4:0.032997838 5:0.096602519 6:0.10680588 7:0.11335323 8:0.037735849 9:0.020661157 10:0.040621491 11:0.076271196 12:0.079283951 
179.7546937869786 0:0.29101562 1:0.21137725 2:0.12820513 3:0.23023776 4:0.18935109 5:0.25654232 6:0.22954086 7:0.25058612 8:0.28930818 9:0.16115702 10:0.16633809 11:0.21868516 12:0.17797733 
7795.167999234494 0:0.20507812 1:0.14311377 2:0 3:0.11378326 4:0.096170437 5:0.19029379 6:0.21135571 7:0.2101528 8:0.11320755 9:0.074380165 10:0.10112501 11:0.17814232 12:0.18499295 
19832.89860617186 0:0.048828125 1:0.046107784 2:0.08974359 3:0.0076831397 4:0.0091429719 5:0.050358294 6:0.060834377 7:0.052695788 8:0.025157233 9:0.02892562 10:0.044667378 11:0.061658146 12:0.058828774 
6330.393155220521 0:0.15429688 1:0.11017964 2:0 3:0.098946038 4:0.076178627 5:0.1401044 6:0.16216086 7:0.16548957 8:0.075471698 9:0.066115702 10:0.079020519 11:0.1195022 12:0.11419856 
32768 0:0.125 1:0.10359281 2:0.1474359 3:0.058299972 4:0.053638182 5:0.13837641 6:0.14137448 7:0.12490018 8:0.06918239 9:0.076446281 10:0.091071464 11:0.11564333 12:0.10895983 
32768 0:0.12890625 1:0.08742515 2:0 3:0.039220488 4:0.03084691 5:0.11672442 6:0.10598067 7:0.10095722 8:0.10691824 9:0.051652893 10:0.059335806 11:0.084816105 12:0.068230333 
32768 0:0.033203125 1:0.019161677 2:0.070512821 3:0.010213495 4:0.006442688 5:0.020187035 6:0.017346561 7:0.015014796 8:0.018867925 9:0.0061983471 10:0.0065989661 11:0.012230655 12:0.0086267251 
32768 0:0.07421875 1:0.047904192 2:0.16666667 3:0.033743613 4:0.023258256 5:0.09080057 6:0.094717404 7:0.08790836 8:0.062893082 9:0.02892562 10:0.042616606 11:0.06063752 12:0.061999026 
28411.50690919629 0:0.11523438 1:0.076047904 2:0.11538462 3:0.062294346 4:0.043080766 5:0.11485021 6:0.12773769 7:0.12784124 8:0.075471698 9:0.037190083 10:0.05362678 11:0.092716497 12:0.095780419 
30750.30702675747 0:0.033203125 1:0.020958084 2:0.17307692 3:0.015231264 4:0.010760155 5:0.060854188 6:0.07129501 7:0.066184833 8:0.012578616 9:0.0082644628 10:0.02751445 11:0.039716279 12:0.044586732 
32768 0:0.04296875 1:0.030538922 2:0.14102564 3:0.013891714 4:0.010717319 5:0.040125884 6:0.048865367 7:0.053346144 8:0.012578616 9:0.016528926 10:0.022769445 11:0.040535704 12:0.039727732 
32768 0:0.056640625 1:0.037724551 2:0.10897436 3:0.023229099 4:0.016711071 5:0.052767793 6:0.056410067 7:0.054044434 8:0.037735849 9:0.020661157 10:0.024994422 11:0.036898911 12:0.040242858 
4.869492766350196 0:0.265625 1:0.19461078 2:0 3:0.06564679 4:0.056439962 5:0.17659533 6:0.18424686 7:0.16857971 8:0.20125786 9:0.1322314 10:0.11901344 11:0.14696779 12:0.13703443 
676.3156774060577 0:0.171875 1:0.10299401 2:0.71153846 3:0.26389771 4:0.16945585 5:0.20480215 6:0.24743684 7:0.2701259 8:0.037735849 9:0.15495868 10:0.17505193 11:0.16979928 12:0.19545665 
28474.11468978756 0:0.12695312 1:0.10179641 2:0.24358974 3:0.045768594 4:0.04643448 5:0.13436904 6:0.14264403 7:0.13677735 8:0.11320755 9:0.090909091 10:0.088070863 11:0.10806271 12:0.091143907 
276.9923591542603 0:0.21875 1:0.17125749 2:0 3:0.1815895 4:0.17763178 5:0.27504113 6:0.28494286 7:0.30046894 8:0.1572327 9:0.12603306 10:0.17371297 11:0.24155162 12:0.23816891 
31.71229302962726 0:0.27929688 1:0.20299401 2:0 3:0.40039555 4:0.28669017 5:0.43908308 6:0.51986915 7:0.55021403 8:0.088050314 9:0.090909091 10:0.24363533 11:0.40315731 12:0.42014662 
21611.23653521407 0:0.056640625 1:0.052694611 2:0.18589744 3:0.020099544 4:0.017671053 5:0.078087459 6:0.066039628 7:0.076754901 8:0.050314465 9:0.037190083 10:0.057744421 11:0.089201596 12:0.07676596 
16.32326956679696 0:0.36132812 1:0.32035928 2:0 3:0.12747719 4:0.17083823 5:0.31050585 6:0.23566755 7:0.23139424 8:0.44654088 9:0.32231405 10:0.28570482 11:0.23533138 12:0.22526653 
232.6564495819695 0:0.21679688 1:0.14311377 2:0.34615385 3:0.16261258 4:0.11590738 5:0.21824441 6:0.2217686 7:0.20796624 8:0.19496855 9:0.080578512 10:0.10863071 11:0.15562039 12:0.15757119 
32768 0:0.08203125 1:0.07245509 2:0.25 3:0.0452596 4:0.044755966 5:0.10506212 6:0.10458475 7:0.098683255 8:0.050314465 9:0.059917355 10:0.072686821 11:0.092818832 12:0.09456529 
28920.83445188482 0:0.09375 1:0.077245509 2:0 3:0.025408425 4:0.02574559 5:0.081541746 6:0.076750809 7:0.056976199 8:0.081761006 9:0.064049587 10:0.061139783 11:0.065567805 12:0.063998209 
27521.2262072972 0:0.12695312 1:0.11137725 2:0.37820513 3:0.093252176 4:0.084724123 5:0.16354117 6:0.17953531 7:0.18929806 8:0.075471698 9:0.078512397 10:0.12095796 11:0.1784323 12:0.16297172 
20385.96679325298 0:0.06640625 1:0.053892216 2:0.19230769 3:0.030531523 4:0.028767574 5:0.092943093 6:0.097956616 7:0.079035019 8:0.050314465 9:0.037190083 10:0.063763955 11:0.087867448 12:0.080574489 
20697.99455889634 0:0.09375 1:0.05988024 2:0.37820513 3:0.072474803 4:0.047149611 5:0.13882352 6:0.13429339 7:0.14803336 8:0.050314465 9:0.024793388 10:0.062168428 11:0.10629218 12:0.11364524 
545.8075519906946 0:0.22851562 1:0.18443114 2:0.23717949 3:0.098177615 4:0.080137399 5:0.20058862 6:0.1651059 7:0.16715999 8:0.25157233 9:0.16942149 10:0.13922241 11:0.15327311 12:0.13682181 
32768 0:0.0234375 1:0.022155689 2:0.070512821 3:0.0035057381 4:0.0033156695 5:0.023822566 6:0.025997931 7:0.028381847 8:0.012578616 9:0.024793388 10:0.020954197 11:0.020909101 12:0.021136418 
32768 0:0.07421875 1:0.046107784 2:0 3:0.018179521 4:0.012344246 5:0.077057757 6:0.064325662 7:0.045751501 8:0.094339623 9:0.035123967 10:0.031862749 11:0.038977171 12:0.027074428 
32768 0:0.029296875 1:0.018562874 2:0 3:0.0064104793 4:0.0042092174 5:0.037761737 6:0.043976587 7:0.041150643 8:0.018867925 9:0.010330579 10:0.017104244 11:0.024367643 12:0.035753135 
6732.857444186833 0:0.052734375 1:0.053293413 2:0 3:0.01448051 4:0.019775876 5:0.068701381 6:0.060941891 7:0.038296569 8:0.06918239 9:0.055785124 10:0.065976428 11:0.056019778 12:0.054016272 
32768 0:0.087890625 1:0.068862275 2:0 3:0.038725022 4:0.02994762 5:0.087627752 6:0.083908906 7:0.086088678 8:0.088050314 9:0.061983471 10:0.057724931 11:0.066249728 12:0.060523605 
32768 0:0.056640625 1:0.036526946 2:0.15384615 3:0.036379279 4:0.025601939 5:0.070492394 6:0.08066799 7:0.078004767 8:0.012578616 9:0.0082644628 10:0.034055966 11:0.066577591 12:0.052413545 
32768 0:0.078125 1:0.069461078 2:0.21794872 3:0.043125317 4:0.046195749 5:0.089152 6:0.10585685 7:0.106692 8:0.044025157 9:0.051652893 10:0.061697496 11:0.092186176 12:0.090090192 
32768 0:0.06640625 1:0.046107784 2:0 3:0.016833514 4:0.013052228 5:0.066099788 6:0.054013264 7:0.058966085 8:0.056603774 9:0.039256198 10:0.033847014 11:0.034588872 12:0.036341146 
32768 0:0.080078125 1:0.052095808 2:0 3:0.026097388 4:0.018304357 5:0.07149822 6:0.067181461 7:0.067895093 8:0.062893082 9:0.02892562 10:0.036815489 11:0.052066732 12:0.057663364 
32768 0:0.07421875 1:0.046107784 2:0.43589744 3:0.084579269 4:0.05474859 5:0.12320372 6:0.15195024 7:0.16588353 8:0.012578616 9:0.0082644628 10:0.054059799 11:0.1049438 12:0.11587475 
21971.44475063181 0:0.13671875 1:0.08742515 2:0.32692308 3:0.08146746 4:0.054594741 5:0.13803767 6:0.1366321 7:0.14588276 8:0.094339623 9:0.039256198 10:0.063411772 11:0.098775945 12:0.11194299 
32768 0:0.0625 1:0.04251497 2:0.26282051 3:0.041563484 4:0.027287727 5:0.076167836 6:0.091310739 7:0.099683603 8:0.012578616 9:0.020661157 10:0.038992624 11:0.066609804 12:0.074235982 
22872.98577135832 0:0.10546875 1:0.080838323 2:0 3:0.057484432 4:0.052910219 5:0.12633015 6:0.11886602 7:0.1160789 8:0.11949686 9:0.064049587 10:0.083408863 11:0.0881137 12:0.099979588 
32768 0:0.06640625 1:0.056886228 2:0 3:0.034880903 4:0.033505326 5:0.11700009 6:0.12909624 7:0.13742252 8:0.037735849 9:0.037190083 10:0.068896597 11:0.099423826 12:0.11405559 
9532.285252147532 0:0.048828125 1:0.040718563 2:0.1474359 3:0.028990864 4:0.028184155 5:0.046756825 6:0.058192157 7:0.054789288 8:0.0062893082 9:0.030991736 10:0.028459829 11:0.040097168 12:0.045737724 
32768 0:0.037109375 1:0.025748503 2:0.044871795 3:0.0057593162 4:0.0042663073 5:0.033552014 6:0.024411321 7:0.0171461 8:0.044025157 9:0.022727273 10:0.018106557 11:0.015087191 12:0.016825198 
32768 0:0.06640625 1:0.054491018 2:0.096153846 3:0.020665589 4:0.019541047 5:0.082473216 6:0.071804137 7:0.043127991 8:0.081761006 9:0.055785124 10:0.055267141 11:0.052009577 12:0.054928037 
32768 0:0.099609375 1:0.065868263 2:0.28205128 3:0.072357499 4:0.053896894 5:0.11756773 6:0.11504729 7:0.11639513 8:0.088050314 9:0.041322314 10:0.056048835 11:0.083596428 12:0.082196927 
2195.324325964211 0:0.14453125 1:0.11796407 2:0.46153846 3:0.15810566 4:0.14192111 5:0.20292556 6:0.2459107 7:0.23131494 8:0.037735849 9:0.070247934 10:0.13683574 11:0.20271032 12:0.21332794 
31631.62324586726 0:0.02734375 1:0.026347305 2:0.11538462 3:0.0062936257 4:0.0054256752 5:0.032907774 6:0.040956038 7:0.044711559 8:0 9:0.016528926 10:0.021864823 11:0.039747055 12:0.040520641 
579.206332784614 0:0.25 1:0.15389222 2:0.33974359 3:0.22369709 4:0.14609515 5:0.24446415 6:0.23477373 7:0.21817057 8:0.25786164 9:0.088842975 10:0.10773515 11:0.1586985 12:0.13963757 
210.1573747699566 0:0.30273438 1:0.29161677 2:0.12820513 3:0.1561206 4:0.21484282 5:0.35230595 6:0.31722164 7:0.27210736 8:0.31446541 9:0.23553719 10:0.28384502 11:0.37943775 12:0.31874774 
23600.82738399334 0:0.052734375 1:0.031137725 2:0.1474359 3:0.044018165 4:0.028164994 5:0.055233226 6:0.050693456 7:0.055341863 8:0.037735849 9:0.012396694 10:0.021875099 11:0.041680815 12:0.027336059 
27.50027375868603 0:0.25 1:0.29281437 2:0.32692308 3:0.21471002 4:0.26155194 5:0.22237266 6:0.17521188 7:0.18370574 8:0.1509434 9:0.2768595 10:0.24928667 11:0.26068167 12:0.25778082 
110.1125913984869 0:0.3125 1:0.25748503 2:0.58974359 3:0.34628092 4:0.27782665 5:0.36703224 6:0.3841216 7:0.37612881 8:0.11949686 9:0.30578512 10:0.3311147 11:0.33463945 12:0.31600445 
1123.421743232293 0:0.12109375 1:0.11137725 2:0.18589744 3:0.052401248 4:0.048435941 5:0.13162645 6:0.1373105 7:0.13479506 8:0.037735849 9:0.11363636 10:0.11770997 11:0.11710791 12:0.099523879 
8.295397101038997 0:0.390625 1:0.35928144 2:0.53205128 3:0.52330404 4:0.46501088 5:0.48491479 6:0.56902412 7:0.50302448 8:0.11320755 9:0.41942149 10:0.47519129 11:0.45677478 12:0.46448264 
11447.39397552059 0:0.171875 1:0.14071856 2:0.33333333 3:0.12514447 4:0.088081211 5:0.15319607 6:0.16931805 7:0.16124019 8:0.062893082 9:0.15495868 10:0.14424886 11:0.14361782 12:0.14774606 
5184.63910000546 0:0.12890625 1:0.1 2:0.58974359 3:0.19764756 4:0.13655752 5:0.16600486 6:0.20485246 7:0.22363669 8:0.012578616 9:0.14256198 10:0.14749655 11:0.15218876 12:0.16250793 
21.35600536105772 0:0.37109375 1:0.30538922 2:0 3:0.15651034 4:0.17099834 5:0.36684534 6:0.28783599 7:0.22274769 8:0.4591195 9:0.29132231 10:0.27072024 11:0.28549747 12:0.20663503 
1191.698253051147 0:0.21875 1:0.16586826 2:0.36538462 3:0.24472657 4:0.1845528 5:0.19851346 6:0.20772948 7:0.22749178 8:0.06918239 9:0.19214876 10:0.17701899 11:0.16943312 12:0.19408617 
2142.6997667393 0:0.12890625 1:0.085628743 2:0.3525641 3:0.10224082 4:0.069877337 5:0.12286347 6:0.13378943 7:0.1337176 8:0.062893082 9:0.10950413 10:0.097197751 11:0.088038977 12:0.096655974 
22062.47814167831 0:0.125 1:0.077245509 2:0.5 3:0.14377507 4:0.092530866 5:0.16447544 6:0.17360553 7:0.18952453 8:0.075471698 9:0.02892562 10:0.074412183 11:0.12686134 12:0.13753036 
7006.627675751702 0:0.14453125 1:0.091616766 2:0.3525641 3:0.14084802 4:0.096081835 5:0.17190611 6:0.20346883 7:0.20793529 8:0.025157233 9:0.12603306 10:0.14651793 11:0.13409273 12:0.1674589 
863.1505958190181 0:0.1328125 1:0.089820359 2:0.70512821 3:0.23720804 4:0.15882804 5:0.20087225 6:0.2450124 7:0.26747915 8:0.012578616 9:0.13429752 10:0.17598548 11:0.17057351 12:0.20872258 
62.86065141167601 0:0.06640625 1:0.071257485 2:0.20512821 3:0.043002808 4:0.047177955 5:0.11285429 6:0.11470629 7:0.076435694 8:0.037735849 9:0.061983471 10:0.094311868 11:0.098122931 12:0.11057901 
813.3484364844455 0:0.15429688 1:0.13113772 2:0.24358974 3:0.14258638 4:0.11011301 5:0.27971539 6:0.26742685 7:0.28313766 8:0.06918239 9:0.097107438 10:0.1876629 11:0.22782962 12:0.24463907 
2754.023419559274 0:0.26171875 1:0.18502994 2:0 3:0.1633366 4:0.1265144 5:0.29496764 6:0.27968825 7:0.27837534 8:0.22012579 9:0.10950413 10:0.16056845 11:0.22179955 12:0.24330246 
1514.504523060944 0:0.140625 1:0.095209581 2:0.5 3:0.16112203 4:0.11360716 5:0.22734627 6:0.26655477 7:0.27491918 8:0.050314465 9:0.037190083 10:0.12794222 11:0.20958383 12:0.23399069 
32768 0:0.068359375 1:0.047904192 2:0.30769231 3:0.065690283 4:0.044875503 5:0.09568122 6:0.10808598 7:0.11799707 8:0.031446541 9:0.02892562 10:0.053583425 11:0.082151735 12:0.085320516 
32768 0:0.14257812 1:0.1011976 2:0.38461538 3:0.093208942 4:0.064614275 5:0.16539125 6:0.17912666 7:0.16320775 8:0.10062893 9:0.066115702 10:0.092956246 11:0.13208494 12:0.12992786 
222.1566267824066 0:0.140625 1:0.11437126 2:0.11538462 3:0.2400962 4:0.17965853 5:0.19034529 6:0.20529436 7:0.2418774 8:0.031446541 9:0.15495868 10:0.17447404 11:0.16925367 12:0.19241865 
2002.687047468855 0:0.21289062 1:0.18443114 2:0.32692308 3:0.1455281 4:0.13201398 5:0.27693106 6:0.28248138 7:0.26792454 8:0.11320755 9:0.12809917 10:0.19659208 11:0.24340066 12:0.25146041 
32768 0:0.087890625 1:0.056886228 2:0.16666667 3:0.070230283 4:0.05179298 5:0.12279206 6:0.12679744 7:0.106274 8:0.062893082 9:0.024793388 10:0.061898966 11:0.084878578 12:0.080307831 
23227.14387705603 0:0.15625 1:0.11317365 2:0.30128205 3:0.10653787 4:0.080288918 5:0.14562477 6:0.15362693 7:0.1660459 8:0.075471698 9:0.13016529 10:0.11603189 11:0.11985662 12:0.12369725 
1380.083170223849 0:0.125 1:0.090419162 2:0.17948718 3:0.062048145 4:0.049392534 5:0.13040981 6:0.10231884 7:0.11678583 8:0.088050314 9:0.10123967 10:0.10292737 11:0.089341594 12:0.073843105 
1829.191645981349 0:0.1875 1:0.19700599 2:0.46153846 3:0.14736908 4:0.13065263 5:0.16631345 6:0.17730875 7:0.18168642 8:0.10062893 9:0.2107438 10:0.17329999 11:0.18454306 12:0.16747055 
32768 0:0.09765625 1:0.073652695 2:0.26923077 3:0.069326162 4:0.047417308 5:0.12987693 6:0.13541381 7:0.13292721 8:0.044025157 9:0.051652893 10:0.076775737 11:0.11473367 12:0.11740764 
7153.505107776921 0:0.1640625 1:0.10838323 2:0.12179487 3:0.15763157 4:0.11187833 5:0.20679741 6:0.22132906 7:0.22298584 8:0.081761006 9:0.04338843 10:0.10497803 11:0.16367112 12:0.16909611 
32768 0:0.05078125 1:0.031736527 2:0.19871795 3:0.030498861 4:0.019574554 5:0.069932994 6:0.069710245 7:0.076102422 8:0.044025157 9:0.018595041 10:0.029704879 11:0.051376611 12:0.054120899 
8687.354075383579 0:0.078125 1:0.079640719 2:0.08974359 3:0.054089513 4:0.062029907 5:0.10056564 6:0.11181218 7:0.12258716 8:0.018867925 9:0.090909091 10:0.098932775 11:0.10095242 12:0.095697012 
19846.59264198698 0:0.08984375 1:0.067664671 2:0.28205128 3:0.069303669 4:0.059021133 5:0.098298478 6:0.10326514 7:0.1015629 8:0.06918239 9:0.04338843 10:0.057589476 11:0.06954299 12:0.073386494 
1894.308078789345 0:0.20507812 1:0.14670659 2:0.29487179 3:0.11147809 4:0.091577146 5:0.25985089 6:0.24514718 7:0.2626685 8:0.18867925 9:0.11157025 10:0.14640152 11:0.18820496 12:0.17949619 
798.5174396018634 0:0.1796875 1:0.1508982 2:0.35897436 3:0.17944924 4:0.15803638 5:0.20853371 6:0.22286756 7:0.21126286 8:0.088050314 9:0.16735537 10:0.19752089 11:0.18243725 12:0.20822484 
1303.367892261618 0:0.1171875 1:0.070658683 2:0.41025641 3:0.11045899 4:0.070858739 5:0.16946846 6:0.19918252 7:0.20445774 8:0.088050314 9:0.02892562 10:0.071668604 11:0.13229532 12:0.15148341 
5324.722150330895 0:0.20898438 1:0.16227545 2:0.30769231 3:0.088207063 4:0.067660456 5:0.24336575 6:0.22739725 7:0.23547728 8:0.1572327 9:0.1053719 10:0.15701867 11:0.18948527 12:0.20887441 
2828.533618459283 0:0.14453125 1:0.13113772 2:0.33974359 3:0.087981377 4:0.070516242 5:0.12076733 6:0.12149872 7:0.13263971 8:0.062893082 9:0.13842975 10:0.12286355 11:0.11412167 12:0.12133094 
509.540339700656 0:0.09375 1:0.091017964 2:0.19871795 3:0.094940379 4:0.092087658 5:0.12196896 6:0.13814067 7:0.1476399 8:0.050314465 9:0.092975207 10:0.11667251 11:0.1586297 12:0.11631683 
5252.852697199351 0:0.16015625 1:0.11377246 2:0.53846154 3:0.19788903 4:0.14080741 5:0.16122291 6:0.17852921 7:0.19489969 8:0.056603774 9:0.15702479 10:0.14315802 11:0.13541893 12:0.14029679 
3250.114720649988 0:0.17578125 1:0.13233533 2:0.37820513 3:0.17648246 4:0.13275921 5:0.16942398 6:0.17891714 7:0.17224886 8:0.088050314 9:0.14876033 10:0.14688642 11:0.15804538 12:0.15703054 
4019.170469363919 0:0.140625 1:0.13952096 2:0.37820513 3:0.10345095 4:0.097803441 5:0.13933418 6:0.15296495 7:0.14629777 8:0.062893082 9:0.17355372 10:0.13455727 11:0.12329676 12:0.11682578 
930.444545343462 0:0.08984375 1:0.068862275 2:0.16025641 3:0.03046724 4:0.024756488 5:0.090016745 6:0.073987551 7:0.088811898 8:0.062893082 9:0.078512397 10:0.073651124 11:0.061822929 12:0.068360638 
32768 0:0.046875 1:0.026347305 2:0.16025641 3:0.029846751 4:0.019058684 5:0.054920035 6:0.056628515 7:0.061821145 8:0.025157233 9:0.030991736 10:0.040080432 11:0.041273204 12:0.030610386 
1565.617703365735 0:0.140625 1:0.10718563 2:0.27564103 3:0.19550701 4:0.14740761 5:0.19466191 6:0.23071787 7:0.2431 8:0.031446541 9:0.1322314 10:0.1670025 11:0.15323556 12:0.15469412 
32768 0:0.015625 1:0.0071856287 2:0.057692308 3:0.002206186 4:0.0012973276 5:0.016836586 6:0.020954315 7:0.02287575 8:0 9:0.01446281 10:0.013353084 11:0.012562256 12:0.0089601292 
5.203462567575556 0:0.2578125 1:0.29760479 2:0.44230769 3:0.21365289 4:0.21684552 5:0.29299782 6:0.27697269 7:0.308622 8:0.13207547 9:0.29752066 10:0.31031015 11:0.33032288 12:0.30935074 
345.2677723534255 0:0.21484375 1:0.12934132 2:0.10897436 3:0.23381746 4:0.15012679 5:0.20394825 6:0.20849893 7:0.20279007 8:0.10691824 9:0.18181818 10:0.1667183 11:0.15379433 12:0.17162194 
3813.858136704022 0:0.05859375 1:0.074850299 2:0.29487179 3:0.044893401 4:0.038446413 5:0.083979873 6:0.10267879 7:0.11209406 8:0.012578616 9:0.090909091 10:0.098124497 11:0.099783365 12:0.10376629 
3.963817530516669 0:0.3515625 1:0.31556886 2:0.80128205 3:0.52055268 4:0.42363725 5:0.42635932 6:0.45954665 7:0.40130095 8:0.12578616 9:0.37396694 10:0.40957278 11:0.38710938 12:0.42997528 
975.0857996870195 0:0.1796875 1:0.19401198 2:0.0064102564 3:0.059434149 4:0.079691092 5:0.064398184 6:0.051088515 7:0.049212179 8:0.10062893 9:0.15909091 10:0.078530637 11:0.065594246 12:0.064443716 
15659.60479595102 0:0.0390625 1:0.021556886 2:0.18589744 3:0.018406267 4:0.011707224 5:0.052245569 6:0.065023284 7:0.070985684 8:0 9:0.035123967 10:0.042636633 11:0.042723189 12:0.052864181 
32768 0:0.05078125 1:0.037125749 2:0.025641026 3:0.0043710108 4:0.0033683056 5:0.031082622 6:0.028751209 7:0.020185588 8:0.044025157 9:0.030991736 10:0.020095712 11:0.020276056 12:0.016194944 
683.2844402633501 0:0.265625 1:0.19580838 2:0.17948718 3:0.22944326 4:0.18896035 5:0.30498272 6:0.33104338 7:0.34200152 8:0.18867925 9:0.11570248 10:0.17851664 11:0.30502001 12:0.27882798 
18877.39005713283 0:0.091796875 1:0.065269461 2:0.35897436 3:0.097773599 4:0.07922543 5:0.15224917 6:0.16345175 7:0.17247831 8:0.050314465 9:0.033057851 10:0.083791902 11:0.14169639 12:0.13938459 
9721.594268053983 0:0.13085938 1:0.12035928 2:0.29487179 3:0.061609792 4:0.060500189 5:0.11696465 6:0.11755895 7:0.12155344 8:0.11320755 9:0.12396694 10:0.087008638 11:0.10749002 12:0.10166544 
1634.207352963989 0:0.1875 1:0.13952096 2:0 3:0.20506231 4:0.15137237 5:0.24573057 6:0.26052992 7:0.27930356 8:0.1509434 9:0.082644628 10:0.13095838 11:0.19050888 12:0.20291361 
5210.760261291444 0:0.068359375 1:0.04251497 2:0.39102564 3:0.08836818 4:0.056936813 5:0.12558641 6:0.15362192 7:0.17063337 8:0.0062893082 9:0.0061983471 10:0.056360869 11:0.10672477 12:0.12184229 
32768 0:0.041015625 1:0.025748503 2:0.14102564 3:0.015650387 4:0.011023756 5:0.043674921 6:0.049914205 7:0.059340806 8:0.012578616 9:0.012396694 10:0.017009341 11:0.02423584 12:0.027939801 
-7000.852705972634 0:0.1328125 1:0.098203593 2:0.038461538 3:0.13575706 4:0.09577297 5:0.16692233 6:0.16978949 7:0.18486077 8:0.075471698 9:0.070247934 10:0.091081559 11:0.13473576 12:0.14590279 
-4388.054920931286 0:0.12109375 1:0.093413174 2:0.57051282 3:0.17864901 4:0.12924796 5:0.16118843 6:0.19950851 7:0.21780271 8:0.012578616 9:0.12603306 10:0.15283147 11:0.16034361 12:0.16737567 
-10130.5810546875 0:0.1328125 1:0.11676647 2:0.37179487 3:0.087769902 4:0.068974637 5:0.12310201 6:0.1372107 7:0.14494277 8:0.037735849 9:0.11363636 10:0.11773092 11:0.129222 12:0.11682445 
-10130.5810546875 0:0.087890625 1:0.052694611 2:0.25 3:0.065093849 4:0.04170787 5:0.097010474 6:0.086738795 7:0.097672964 8:0.062893082 9:0.020661157 10:0.040085203 11:0.059793837 12:0.062443169 
-10130.5810546875 0:0.044921875 1:0.028143713 2:0.21153846 3:0.031737936 4:0.020547181 5:0.068888662 6:0.07659615 7:0.082050852 8:0.018867925 9:0.010330579 10:0.031647133 11:0.056014717 12:0.061104589 
-10130.5810546875 0:0.041015625 1:0.023952096 2:0 3:0.0068080222 4:0.0042543892 5:0.037036192 6:0.035656715 7:0.035305981 8:0.056603774 9:0.018595041 10:0.013943272 11:0.018108061 12:0.017424422 
-3926.649782662523 0:0.056640625 1:0.038323353 2:0 3:0.013095228 4:0.010130726 5:0.058032275 6:0.047222362 7:0.051552482 8:0.044025157 9:0.026859504 10:0.028175124 11:0.034153521 12:0.026024085 
-10130.5810546875 0:0.046875 1:0.031137725 2:0 3:0.0080759828 4:0.0060370847 5:0.033151377 6:0.031411848 7:0.0342922 8:0.018867925 9:0.01446281 10:0.01786521 11:0.021292556 12:0.024546695 
-10130.5810546875 0:0.052734375 1:0.032934132 2:0.31410256 3:0.045881784 4:0.029572543 5:0.088336886 6:0.10994147 7:0.1200227 8:0 9:0.0041322314 10:0.039005535 11:0.074030809 12:0.085344929 
-9.878087927639204 0:0.44140625 1:0.50538922 2:0.41666667 3:0.46423135 4:0.49257417 5:0.5550405 6:0.60051653 7:0.59708371 8:0.16981132 9:0.44214876 10:0.6076617 11:0.63192279 12:0.58440837 
-10130.5810546875 0:0.087890625 1:0.054491018 2:0.38461538 3:0.067943398 4:0.044209026 5:0.12995416 6:0.14788561 7:0.16144619 8:0.025157233 9:0.012396694 10:0.057923825 11:0.10127018 12:0.12504037 
-10130.5810546875 0:0.05078125 1:0.043712575 2:0.26282051 3:0.035180686 4:0.027478987 5:0.073951024 6:0.09203725 7:0.10047673 8:0 9:0.020661157 10:0.053693448 11:0.080428296 12:0.077522755 
-10130.5810546875 0:0.056640625 1:0.04011976 2:0 3:0.013964584 4:0.011159002 5:0.057926703 6:0.050650083 7:0.055294512 8:0.06918239 9:0.035123967 10:0.036290112 11:0.0469024 12:0.039079865 
-7802.599322004469 0:0.11914062 1:0.10239521 2:0.3525641 3:0.074411841 4:0.065297139 5:0.18422384 6:0.18641643 7:0.18831397 8:0.075471698 9:0.061983471 10:0.13255986 11:0.1767844 12:0.17332102 
-10130.5810546875 0:0.05078125 1:0.031736527 2:0.27564103 3:0.041156345 4:0.026617067 5:0.080892454 6:0.096537147 7:0.10538925 8:0.012578616 9:0.0082644628 10:0.037569072 11:0.064577755 12:0.074447166 
-10130.5810546875 0:0.0234375 1:0.013173653 2:0.1025641 3:0.012470833 4:0.0078932151 5:0.030379789 6:0.028040835 7:0.019995617 8:0.0062893082 9:0.0020661157 10:0.011041842 11:0.025139744 12:0.015534262 
-10130.5810546875 0:0.015625 1:0.010179641 2:0.032051282 3:0.0030321425 4:0.0019249072 5:0.019631421 6:0.019990377 7:0.012124124 8:0.0062893082 9:0.0082644628 10:0.0093349695 11:0.017230526 12:0.016252254 
-10130.5810546875 0:0.00390625 1:0.002994012 2:0.032051282 3:0.00050554047 4:0.0004617958 5:0.0091000915 6:0.011325704 7:0.01236423 8:0 9:0.0041322314 10:0.006433811 11:0.010202403 12:0.0055962289 
-10130.5810546875 0:0.005859375 1:0.0041916168 2:0.057692308 3:0.0015077169 4:0.0011057773 5:0.016160915 6:0.020113395 7:0.021957721 8:0 9:0.0041322314 10:0.0084113872 11:0.0094852248 12:0.016352268 
-10130.5810546875 0:0.025390625 1:0.022155689 2:0.064102564 3:0.004769399 4:0.0043507488 5:0.01863255 6:0.023189519 7:0.025315914 8:0 9:0.020661157 10:0.0169136 11:0.020644164 12:0.021993403 
-10130.5810546875 0:0.0859375 1:0.071257485 2:0.044871795 3:0.014026406 4:0.013013142 5:0.068440247 6:0.047305851 7:0.056116118 8:0.10062893 9:0.061983471 10:0.042992787 11:0.06642826 12:0.033237517 
-10130.5810546875 0:0.14453125 1:0.11377246 2:0 3:0.086004123 4:0.075990665 5:0.17018362 6:0.15041845 7:0.14616122 8:0.17610063 9:0.10743802 10:0.11310321 11:0.1103296 12:0.11277301 
-1371.957478732541 0:0.171875 1:0.13473054 2:0.35897436 3:0.16479632 4:0.13641999 5:0.19867395 6:0.18700093 7:0.16258412 8:0.17610063 9:0.10330579 10:0.12693377 11:0.13722485 12:0.13852333 
-10130.5810546875 0:0.017578125 1:0.014371257 2:0.08974359 3:0.0038550121 4:0.0027204121 5:0.025552651 6:0.031802071 7:0.034718205 8:0 9:0.012396694 10:0.015394886 11:0.029063024 12:0.025855206 
-6.885271595724105 0:0.4453125 1:0.45508982 2:0 3:0.52569075 4:0.50509652 5:0.51685779 6:0.49666966 7:0.42799936 8:0.17610063 9:0.44008264 10:0.55592025 11:0.64818837 12:0.55624098 
-10130.5810546875 0:0.01953125 1:0.010778443 2:0.070512821 3:0.0034539363 4:0.0020991107 5:0.020348422 6:0.025325041 7:0.027647256 8:0 9:0 10:0.0066693123 11:0.017859839 12:0.015481765 
-10130.5810546875 0:0.0234375 1:0.018562874 2:0.08974359 3:0.007228553 4:0.0053297817 5:0.028988633 6:0.033019814 7:0.036047611 8:0.012578616 9:0.016528926 10:0.018304715 11:0.026419205 12:0.02429144 
-10130.5810546875 0:0.037109375 1:0.031137725 2:0 3:0.001757044 4:0.0029001032 5:0.019531964 6:0.017857026 7:0.0068584399 8:0.018867925 9:0.022727273 10:0.018724834 11:0.028165425 12:0.010975123 
-10130.5810546875 0:0.04296875 1:0.051497006 2:0 3:0.018055355 4:0.0300217 5:0.070628928 6:0.066092508 7:0.072869954 8:0.075471698 9:0.066115702 10:0.060586064 11:0.06834318 12:0.067585766 
-10130.5810546875 0:0.109375 1:0.098802395 2:0.41666667 3:0.088495237 4:0.083609592 5:0.1622663 6:0.17790302 7:0.19421608 8:0.056603774 9:0.07231405 10:0.12263257 11:0.16902318 12:0.15404135 
-10130.5810546875 0:0.060546875 1:0.048502994 2:0.25641026 3:0.032663303 4:0.023323951 5:0.075721457 6:0.089840084 7:0.098078094 8:0.012578616 9:0.024793388 10:0.04685035 11:0.075920842 12:0.079597685 
-10130.5810546875 0:0.037109375 1:0.024550898 2:0.025641026 3:0.0072949414 4:0.005337653 5:0.035688665 6:0.025537471 7:0.027879164 8:0.025157233 9:0.016528926 10:0.019035117 11:0.019490924 12:0.029829987 
-1835.217768926401 0:0.17578125 1:0.11796407 2:0.39102564 3:0.24119956 4:0.17629014 5:0.16418225 6:0.18987037 7:0.20396111 8:0.037735849 9:0.15495868 10:0.13941036 11:0.13473332 12:0.15427512 
-10130.5810546875 0:0.017578125 1:0.01497006 2:0.038461538 3:0.0056226002 4:0.0049910968 5:0.041306863 6:0.051409296 7:0.020556348 8:0.012578616 9:0.012396694 10:0.028845323 11:0.043408837 12:0.033665609 
-10121.15895498674 0:0.015625 1:0.021556886 2:0.08974359 3:0.0036450817 4:0.0046478713 5:0.032187801 6:0.03117537 7:0.034034038 8:0.012578616 9:0.016528926 10:0.027387043 11:0.03440313 12:0.025567999 
-10130.5810546875 0:0.01953125 1:0.010778443 2:0.083333333 3:0.0051133689 4:0.0031654338 5:0.02485764 6:0.030937081 7:0.033773899 8:0 9:0 10:0.008634816 11:0.021817586 12:0.019441508 
-10130.5810546875 0:0.0625 1:0.043712575 2:0 3:0.013254432 4:0.010151658 5:0.065043391 6:0.05367533 7:0.048496495 8:0.06918239 9:0.035123967 10:0.035186716 11:0.05069014 12:0.04790118 
-7326.553687023914 0:0.14453125 1:0.097005988 2:0.55769231 3:0.18576394 4:0.12253732 5:0.16484016 6:0.19329137 7:0.21101549 8:0.050314465 9:0.13842975 10:0.14526816 11:0.13835104 12:0.14928977 
-1574.414190696408 0:0.05078125 1:0.036526946 2:0 3:0.0085137073 4:0.0067861195 5:0.036714844 6:0.039980755 7:0.043646845 8:0.018867925 9:0.022727273 10:0.020469336 11:0.033993957 12:0.019168332 
-10130.5810546875 0:0.04296875 1:0.035928144 2:0 3:0.0013772648 4:0.0030263558 5:0.025828053 6:0.0088846122 7:0.0096992989 8:0.044025157 9:0.022727273 10:0.022569871 11:0.034107161 12:0.020683238 
-10130.5810546875 0:0.11914062 1:0.082634731 2:0.41025641 3:0.10461069 4:0.075233437 5:0.15232271 6:0.17758098 7:0.17735407 8:0.044025157 9:0.039256198 10:0.08027295 11:0.13708589 12:0.14328106 
-10130.5810546875 0:0.12890625 1:0.083233533 2:0.43589744 3:0.11665702 4:0.076241206 5:0.1557204 6:0.1633041 7:0.16936618 8:0.075471698 9:0.045454545 10:0.072373987 11:0.11978706 12:0.1230063 
-10130.5810546875 0:0.064453125 1:0.041916168 2:0.29487179 3:0.05091144 4:0.034600434 5:0.0842776 6:0.10354004 7:0.11303429 8:0.025157233 9:0.016528926 10:0.04126439 11:0.06988615 12:0.082372649 
-10130.5810546875 0:0.076171875 1:0.071856287 2:0.21794872 3:0.031991252 4:0.031030869 5:0.086903416 6:0.085583049 7:0.087436205 8:0.075471698 9:0.066115702 10:0.076393789 11:0.088750992 12:0.093977989 
-10130.5810546875 0:0.025390625 1:0.029341317 2:0.038461538 3:0.0019555578 4:0.0038770194 5:0.017019783 6:0.019342254 7:0.016266218 8:0.012578616 9:0.037190083 10:0.028939399 11:0.02167474 12:0.021685503 
-10130.5810546875 0:0.037109375 1:0.023952096 2:0 3:0.0063802251 4:0.0051107723 5:0.032673218 6:0.031096143 7:0.033947546 8:0.044025157 9:0.018595041 10:0.015250033 11:0.023941458 12:0.02583686 
-5902.138373489223 0:0.11523438 1:0.082035928 2:0.28205128 3:0.073141391 4:0.050068798 5:0.14992725 6:0.17395108 7:0.18120291 8:0.050314465 9:0.041322314 10:0.085820882 11:0.13841176 12:0.13579731 
-134.902972028984 0:0.083984375 1:0.068862275 2:0.12820513 3:0.073526091 4:0.069540985 5:0.14350045 6:0.16926563 7:0.16535574 8:0.018867925 9:0.039256198 10:0.088701298 11:0.12324187 12:0.12944425 
-10130.5810546875 0:0.080078125 1:0.062275449 2:0.19871795 3:0.030768567 4:0.027241294 5:0.12473687 6:0.12858662 7:0.11178894 8:0.050314465 9:0.045454545 10:0.07213042 11:0.099188623 12:0.10577004 
-10130.5810546875 0:0.02734375 1:0.021556886 2:0.1025641 3:0.0069199468 4:0.0052898994 5:0.0299166 6:0.037233312 7:0.040647472 8:0 9:0.012396694 10:0.017518793 11:0.031211268 12:0.033882438 
-10130.5810546875 0:0.06640625 1:0.047305389 2:0.17307692 3:0.0292892 4:0.021045415 5:0.082838587 6:0.082695721 7:0.085939439 8:0.031446541 9:0.030991736 10:0.043261397 11:0.064701105 12:0.0645475 
-10130.5810546875 0:0.0390625 1:0.030538922 2:0.12820513 3:0.011699335 4:0.012780005 5:0.0581886 6:0.065578789 7:0.06526768 8:0.025157233 9:0.02892562 10:0.036362395 11:0.051482482 12:0.054167656 
-10130.5810546875 0:0.0390625 1:0.024550898 2:0.17307692 3:0.023017486 4:0.014917485 5:0.055228883 6:0.068736228 7:0.066184833 8:0.0062893082 9:0.0061983471 10:0.026015251 11:0.04431383 12:0.048797535 
-10130.5810546875 0:0.046875 1:0.037724551 2:0 3:0.0036562459 4:0.0036234716 5:0.031298694 6:0.027814599 7:0.02448741 8:0.031446541 9:0.039256198 10:0.021386881 11:0.022698647 12:0.012176059 
-10130.5810546875 0:0.06640625 1:0.061676647 2:0.1474359 3:0.022722142 4:0.025519457 5:0.067863296 6:0.069670188 7:0.05715815 8:0.062893082 9:0.066115702 10:0.053340671 11:0.051401217 12:0.050576927 
-8397.627116039008 0:0.125 1:0.077245509 2:0.19871795 3:0.066294976 4:0.043522319 5:0.13361948 6:0.13638846 7:0.13425342 8:0.10062893 9:0.037190083 10:0.058537737 11:0.096466542 12:0.072283828 
-10130.5810546875 0:0.037109375 1:0.023353293 2:0.076923077 3:0.0098774913 4:0.0070296738 5:0.033156289 6:0.031420255 7:0.031862496 8:0.037735849 9:0.016528926 10:0.013509154 11:0.02058284 12:0.012522935 
-10130.5810546875 0:0.072265625 1:0.048502994 2:0.1474359 3:0.040609667 4:0.031450832 5:0.076106823 6:0.086355459 7:0.086129211 8:0.037735849 9:0.024793388 10:0.036958475 11:0.063950011 12:0.060999483 
-10130.5810546875 0:0.033203125 1:0.020958084 2:0.076923077 3:0.01006359 4:0.0065935308 5:0.0323764 6:0.026967788 7:0.034048408 8:0.037735849 9:0.016528926 10:0.016054182 11:0.021994916 12:0.016034324 
-10130.5810546875 0:0.0625 1:0.039520958 2:0.11538462 3:0.014402217 4:0.0095385062 5:0.049533727 6:0.052674348 7:0.043714148 8:0.050314465 9:0.020661157 10:0.02188873 11:0.03013597 12:0.034741647 
-10130.5810546875 0:0.083984375 1:0.052095808 2:0.25641026 3:0.058888851 4:0.038035435 5:0.10752186 6:0.10186188 7:0.098396099 8:0.06918239 9:0.026859504 10:0.049176446 11:0.08519219 12:0.076016493 
-10130.5810546875 0:0.04296875 1:0.026946108 2:0.19230769 3:0.023087621 4:0.015287448 5:0.060755145 6:0.067990508 7:0.074224992 8:0.025157233 9:0.012396694 10:0.027473501 11:0.047948571 12:0.047200736 
-10130.5810546875 0:0.02734375 1:0.019161677 2:0.096153846 3:0.0086759595 4:0.0058420307 5:0.033191224 6:0.04053023 7:0.038339845 8:0.0062893082 9:0.01446281 10:0.017579235 11:0.029131986 12:0.028434678 
-9998.783524925337 0:0.15234375 1:0.11556886 2:0 3:0.047022868 4:0.039470389 5:0.13759626 6:0.11839825 7:0.10268209 8:0.14465409 9:0.07231405 10:0.079079525 11:0.10563476 12:0.068815595 
-5981.213820634481 0:0.033203125 1:0.020958084 2:0 3:0.0027979855 4:0.0018311661 5:0.024349581 6:0.022498037 7:0.020575319 8:0.031446541 9:0.01446281 10:0.0090578051 11:0.011993784 12:0.0073830145 
-10130.5810546875 0:0.013671875 1:0.010778443 2:0.083333333 3:0.0045428414 4:0.003618781 5:0.02485764 6:0.030937081 7:0.033773899 8:0 9:0.012396694 10:0.01484961 11:0.024032828 12:0.022598173 
-10130.5810546875 0:0.033203125 1:0.02754491 2:0.025641026 3:0.0071551346 4:0.0070108606 5:0.035475681 6:0.030925261 7:0.029101315 8:0.025157233 9:0.033057851 10:0.025917694 11:0.023375662 12:0.027479554 
-10130.5810546875 0:0.13085938 1:0.090419162 2:0.35897436 3:0.085402371 4:0.058949193 5:0.11917635 6:0.13003665 7:0.13940059 8:0.062893082 9:0.041322314 10:0.060826046 11:0.10205324 12:0.10281099 
-10130.5810546875 0:0.078125 1:0.063473054 2:0 3:0.019125651 4:0.020923352 5:0.07350009 6:0.063263568 7:0.072906219 8:0.06918239 9:0.047520661 10:0.054025239 11:0.076143012 12:0.065304729 
-1807.73482109985 0:0.041015625 1:0.034131737 2:0 3:0.0051487682 4:0.0057379635 5:0.05124542 6:0.043291789 7:0.024728457 8:0.06918239 9:0.04338843 10:0.032960861 11:0.038382525 12:0.040859849 
-10130.5810546875 0:0.083984375 1:0.058682635 2:0.26923077 3:0.055872653 4:0.043564275 5:0.11566244 6:0.12157908 7:0.12636185 8:0.062893082 9:0.041322314 10:0.057110111 11:0.085642125 12:0.094174589 
-10130.5810546875 0:0.060546875 1:0.039520958 2:0.31410256 3:0.049088727 4:0.035285778 5:0.087885033 6:0.1093791 7:0.11940877 8:0 9:0.016528926 10:0.041334079 11:0.077136821 12:0.084887726 
-148.6485652328253 0:0.13085938 1:0.12035928 2:0.21794872 3:0.054257362 4:0.056755721 5:0.13255476 6:0.13815701 7:0.12639742 8:0.10062893 9:0.13636364 10:0.096651166 11:0.11574496 12:0.086172003 
-10130.5810546875 0:0.02734375 1:0.015568862 2:0 3:0.0049996398 4:0.0030923535 5:0.014697981 6:0.014047804 7:0.019970043 8:0.0062893082 9:0.0020661157 10:0.0042063662 11:0.0099068555 12:0.011420919 
-10130.5810546875 0:0.0234375 1:0.013173653 2:0.11538462 3:0.0079571366 4:0.0049927906 5:0.032907774 6:0.040956038 7:0.044711559 8:0 9:0 10:0.012143754 11:0.024183966 12:0.021734618 
-10130.5810546875 0:0.05078125 1:0.033532934 2:0 3:0.01187304 4:0.0087312654 5:0.061084012 6:0.04022679 7:0.043915441 8:0.081761006 9:0.035123967 10:0.030395739 11:0.034803383 12:0.028552299 
-10130.5810546875 0:0.10351562 1:0.076646707 2:0.064102564 3:0.060179265 4:0.052096948 5:0.12982759 6:0.11610457 7:0.10861773 8:0.094339623 9:0.055785124 10:0.081813697 11:0.098062699 12:0.096117782 
-10130.5810546875 0:0.095703125 1:0.059281437 2:0.49358974 3:0.12335118 4:0.079457835 5:0.13900385 6:0.17177714 7:0.18752848 8:0.012578616 9:0.0082644628 10:0.062898998 11:0.12421912 12:0.13314456 
-10130.5810546875 0:0.01953125 1:0.01257485 2:0.14102564 3:0.0086823772 4:0.0056994779 5:0.040105572 6:0.049914205 7:0.054491157 8:0 9:0.0041322314 10:0.019170742 11:0.03676713 12:0.038774635 
-10130.5810546875 0:0.009765625 1:0.0065868263 2:0.070512821 3:0.0026672421 4:0.0017801173 5:0.020348422 6:0.025325041 7:0.027647256 8:0 9:0.0061983471 10:0.0096925586 11:0.016293428 12:0.018035562 
-10130.5810546875 0:0.013671875 1:0.0071856287 2:0.070512821 3:0.003568069 4:0.0021724504 5:0.019712375 6:0.024533436 7:0.026783064 8:0 9:0 10:0.0063920685 11:0.01730158 12:0.0094162107 
-372.0179101364117 0:0.013671875 1:0.0071856287 2:0.1025641 3:0.0055752961 4:0.0034622604 5:0.019447091 6:0.021661506 7:0.023647788 8:0.0062893082 9:0.0020661157 10:0.0062764352 11:0.015276224 12:0.013744876 
-10130.5810546875 0:0.095703125 1:0.07245509 2:0.44230769 3:0.096545781 4:0.073733856 5:0.13736153 6:0.15383789 7:0.16794427 8:0.050314465 9:0.037190083 10:0.076973682 11:0.11266843 12:0.12870582 
-10130.5810546875 0:0.025390625 1:0.016167665 2:0.064102564 3:0.0064508609 4:0.0041784418 5:0.023240881 6:0.023611181 7:0.025776241 8:0.012578616 9:0.012396694 10:0.010774812 11:0.01842442 12:0.016642185 
-10130.5810546875 0:0.015625 1:0.01257485 2:0.08974359 3:0.0036013946 4:0.0029045478 5:0.02523911 6:0.031411848 7:0.0342922 8:0 9:0.012396694 10:0.015391687 11:0.023245853 12:0.025537953 
-106.0620419760189 0:0.08984375 1:0.055688623 2:0.46153846 3:0.11266727 4:0.072454796 5:0.14157345 6:0.17603843 7:0.17489023 8:0.018867925 9:0.010330579 10:0.061843308 11:0.12344642 12:0.13546058 
-10130.5810546875 0:0.044921875 1:0.028143713 2:0 3:0.0069511739 4:0.0049814307 5:0.043164077 6:0.041861343 7:0.024248247 8:0.031446541 9:0.01446281 10:0.020039407 11:0.030898178 12:0.025392249 
-10130.5810546875 0:0.16796875 1:0.11856287 2:0.28205128 3:0.13926875 4:0.10111149 5:0.15967728 6:0.18227054 7:0.18506627 8:0.050314465 9:0.1446281 10:0.14290016 11:0.12639825 12:0.15582884 
-10130.5810546875 0:0.03125 1:0.022155689 2:0.1474359 3:0.01371372 4:0.0094595439 5:0.041816264 6:0.052043281 7:0.056815462 8:0 9:0.037190083 10:0.039287529 11:0.032271713 12:0.038273482 
-71.67004490011573 0:0.0625 1:0.088023952 2:0.038461538 3:0.013306598 4:0.03497824 5:0.058789487 6:0.054102311 7:0.027110365 8:0.018867925 9:0.074380165 10:0.074357593 11:0.074309585 12:0.085043429 
-10130.5810546875 0:0.080078125 1:0.058682635 2:0 3:0.02627022 4:0.02654263 5:0.073687283 6:0.075388431 7:0.072095223 8:0.056603774 9:0.039256198 10:0.042003103 11:0.051261339 12:0.055623228 
-10130.5810546875 0:0.10351562 1:0.064071856 2:0 3:0.046475547 4:0.030000705 5:0.10393863 6:0.10381275 7:0.093684422 8:0.094339623 9:0.035123967 10:0.047247133 11:0.064163016 12:0.073481095 
-3787.876596485036 0:0.078125 1:0.048502994 2:0.3974359 3:0.089812281 4:0.057858256 5:0.12021021 6:0.14185446 7:0.15185677 8:0.018867925 9:0.010330579 10:0.053764989 11:0.10726831 12:0.11053638 
-10130.5810546875 0:0.060546875 1:0.069461078 2:0.10897436 3:0.016036233 4:0.029533782 5:0.067781594 6:0.043789147 7:0.047804453 8:0.088050314 9:0.082644628 10:0.065198519 11:0.074387175 12:0.052605634 
-2328.893427283017 0:0.14257812 1:0.10718563 2:0.20512821 3:0.067330506 4:0.053448306 5:0.1447305 6:0.15173147 7:0.1433237 8:0.088050314 9:0.074380165 10:0.094393232 11:0.12397807 12:0.097036845 
-10130.5810546875 0:0.0390625 1:0.024550898 2:0.25 3:0.028275648 4:0.018305758 5:0.071118777 6:0.088512318 7:0.096628578 8:0 9:0.0041322314 10:0.032941432 11:0.058918455 12:0.07015505 
-10130.5810546875 0:0.07421875 1:0.053293413 2:0 3:0.01529539 4:0.012823546 5:0.076657433 6:0.061400642 7:0.047991562 8:0.094339623 9:0.055785124 10:0.03885692 11:0.046198308 12:0.048225037 
-10130.5810546875 0:0.037109375 1:0.023353293 2:0.038461538 3:0.0079457434 4:0.0057827488 5:0.024330148 6:0.023384858 7:0.025529165 8:0.025157233 9:0.012396694 10:0.0094440951 11:0.01923985 12:0.0047795423 
-10130.5810546875 0:0.015625 1:0.010179641 2:0.096153846 3:0.0047753262 4:0.0033850486 5:0.027300273 6:0.033977109 7:0.037092687 8:0 9:0.0041322314 10:0.012635431 11:0.02190971 12:0.020177991 
-10130.5810546875 0:0.015625 1:0.0083832335 2:0.096153846 3:0.0050320284 4:0.0031131658 5:0.027877507 6:0.034695518 7:0.037876972 8:0 9:0 10:0.009951133 11:0.02225289 12:0.02820759 
-10130.5810546875 0:0.009765625 1:0.0071856287 2:0.070512821 3:0.0023748981 4:0.0017497422 5:0.019631421 6:0.024432683 7:0.026673072 8:0 9:0.0041322314 10:0.010176606 11:0.015918309 12:0.016252254 
-10130.5810546875 0:0.009765625 1:0.010179641 2:0.051282051 3:0.0014475489 4:0.0011665354 5:0.014716803 6:0.018316097 7:0.019995617 8:0 9:0.01446281 10:0.012549746 11:0.017347441 12:0.014891057 
-10130.5810546875 0:0.037109375 1:0.023353293 2:0 3:0.015157402 4:0.0097330069 5:0.046116772 6:0.046885301 7:0.046879711 8:0.018867925 9:0.010330579 10:0.02010164 11:0.037372625 12:0.0300546 
-10130.5810546875 0:0.064453125 1:0.055688623 2:0.25 3:0.040784145 4:0.03234609 5:0.082298475 6:0.087374331 7:0.096218304 8:0.050314465 9:0.053719008 10:0.050096604 11:0.0730275 12:0.072983062 
-7175.885608951918 0:0.13476562 1:0.11497006 2:0.28846154 3:0.053517112 4:0.054580718 5:0.14335157 6:0.15216107 7:0.13494583 8:0.12578616 9:0.11157025 10:0.090785942 11:0.11382219 12:0.098232197 
-10130.5810546875 0:0.076171875 1:0.051497006 2:0.20512821 3:0.029022026 4:0.020035899 5:0.075462562 6:0.082911182 7:0.090513837 8:0.044025157 9:0.030991736 10:0.035474662 11:0.060972709 12:0.063813815 
-2299.585052098146 0:0.08984375 1:0.055688623 2:0.16666667 3:0.038320729 4:0.025294453 5:0.097647573 6:0.080391041 7:0.10638111 8:0.075471698 9:0.02892562 10:0.043311115 11:0.072010161 12:0.063205689 
-10130.5810546875 0:0.11523438 1:0.077245509 2:0.35897436 3:0.083668373 4:0.05649153 5:0.14427941 6:0.15286663 7:0.14379453 8:0.075471698 9:0.041322314 10:0.072335367 11:0.1160656 12:0.12448541 
-10130.5810546875 0:0.076171875 1:0.047305389 2:0.39102564 3:0.084494546 4:0.054384447 5:0.11792398 6:0.13750083 7:0.14998673 8:0.025157233 9:0.012396694 10:0.051902124 11:0.093387258 12:0.10765962 
-10130.5810546875 0:0.109375 1:0.07245509 2:0.21794872 3:0.08910547 4:0.063571821 5:0.13619844 6:0.15378267 7:0.14218736 8:0.062893082 9:0.033057851 10:0.072791176 11:0.10992762 12:0.11541156 
-10130.5810546875 0:0.09765625 1:0.084431138 2:0.21794872 3:0.040711081 4:0.039721688 5:0.12029818 6:0.1279632 7:0.14210697 8:0.037735849 9:0.066115702 10:0.088278274 11:0.096113408 12:0.10810716 
-3603.54813779236 0:0.060546875 1:0.044311377 2:0 3:0.019103787 4:0.017743952 5:0.070301 6:0.080453589 7:0.087830892 8:0.031446541 9:0.035123967 10:0.03866759 11:0.053045966 12:0.059977049 
-10130.5810546875 0:0.021484375 1:0.013772455 2:0.044871795 3:0.0042092948 4:0.0032015901 5:0.017706959 6:0.015705924 7:0.0171461 8:0.025157233 9:0.012396694 10:0.0061171869 11:0.0066457216 12:0.0076613864 
-6297.554502456391 0:0.03515625 1:0.020359281 2:0 3:0.0089523747 4:0.0056323137 5:0.046515703 6:0.031317706 7:0.029366495 8:0.062893082 9:0.020661157 10:0.018075256 11:0.022086013 12:0.025461416 
-10130.5810546875 0:0.0078125 1:0.0035928144 2:0.012820513 3:0.00051812077 4:0.00021260559 5:0.0061049897 6:0.0049666493 7:0.005422073 8:0.0062893082 9:0.0020661157 10:0.00046080429 11:0.0035026026 12:0.004037905 
-10130.5810546875 0:0.08984375 1:0.066467066 2:0.22435897 3:0.054484465 4:0.049097345 5:0.11645594 6:0.12525096 7:0.11011804 8:0.062893082 9:0.049586777 10:0.062943742 11:0.081936089 12:0.076611799 
-10130.5810546875 0:0.14648438 1:0.10479042 2:0.070512821 3:0.046049164 4:0.035803939 5:0.13987937 6:0.1370064 7:0.12181922 8:0.1572327 9:0.076446281 10:0.073099506 11:0.099814879 12:0.084043851 
-10130.5810546875 0:0.0859375 1:0.059281437 2:0.16666667 3:0.042604321 4:0.034850076 5:0.092909223 6:0.098878134 7:0.088238316 8:0.062893082 9:0.037190083 10:0.050598908 11:0.063352813 12:0.055561899 
-10130.5810546875 0:0.044921875 1:0.026347305 2:0.22435897 3:0.028404004 4:0.0181316 5:0.063709454 6:0.078246399 7:0.085421311 8:0.012578616 9:0.0041322314 10:0.025569765 11:0.052048453 12:0.063614624 
-6376.9349428106 0:0.11914062 1:0.082035928 2:0.1474359 3:0.099260813 4:0.074909433 5:0.1447998 6:0.15396231 7:0.16058792 8:0.075471698 9:0.045454545 10:0.083071421 11:0.10553505 12:0.11502716 
-1528.786776687514 0:0.03515625 1:0.022155689 2:0.1474359 3:0.018251911 4:0.012735561 5:0.048017104 6:0.052185971 7:0.056556148 8:0.025157233 9:0.012396694 10:0.021744487 11:0.033035511 12:0.031133982 
-5683.448019995392 0:0.041015625 1:0.032934132 2:0 3:0.0040721125 4:0.0044016896 5:0.036057441 6:0.023922552 7:0.035305981 8:0.044025157 9:0.037190083 10:0.02312573 11:0.022750746 12:0.019449127 
-7249.637336673188 0:0.029296875 1:0.019760479 2:0 3:0.00793186 4:0.0057947257 5:0.022574547 6:0.028095611 7:0.030671877 8:0 9:0.0041322314 10:0.013624445 11:0.019813712 12:0.020589356 
-10130.5810546875 0:0.01953125 1:0.010778443 2:0.10897436 3:0.0070323129 4:0.0043985146 5:0.030704704 6:0.038214163 7:0.041718263 8:0 9:0 10:0.011183467 11:0.026949563 12:0.023845038 
-2792.502319463516 0:0.11132812 1:0.092814371 2:0.28846154 3:0.085151777 4:0.073926787 5:0.13257579 6:0.15296829 7:0.16233877 8:0.031446541 9:0.076446281 10:0.094104179 11:0.12668458 12:0.12331102 
-10130.5810546875 0:0.08203125 1:0.049101796 2:0.45512821 3:0.10462285 4:0.067108532 5:0.13750976 6:0.15958332 7:0.17421653 8:0.025157233 9:0.0082644628 10:0.057738261 11:0.10553685 12:0.11518298 
-10130.5810546875 0:0.09765625 1:0.077245509 2:0.19230769 3:0.030371737 4:0.026797525 5:0.098522665 6:0.080496979 7:0.078278399 8:0.10062893 9:0.066115702 10:0.060696835 11:0.065777266 12:0.075543081 
-10130.5810546875 0:0.08984375 1:0.07005988 2:0 3:0.020696724 4:0.017697664 5:0.070698771 6:0.067067436 7:0.063045443 8:0.094339623 9:0.059917355 10:0.039470208 11:0.052712049 12:0.052500028 
-10130.5810546875 0:0.083984375 1:0.053892216 2:0.35897436 3:0.078015923 4:0.050914996 5:0.11811037 6:0.1403418 7:0.13581183 8:0.037735849 9:0.020661157 10:0.056115402 11:0.098450095 12:0.1083446 
-568.3587885083442 0:0.15429688 1:0.11916168 2:0.32051282 3:0.079705689 4:0.062398295 5:0.16442448 6:0.16791603 7:0.17044676 8:0.13207547 9:0.10950413 10:0.10055873 11:0.13339648 12:0.1496218 
-10130.5810546875 0:0.091796875 1:0.065269461 2:0.1474359 3:0.06248705 4:0.048722675 5:0.10688918 6:0.10490301 7:0.10976021 8:0.075471698 9:0.045454545 10:0.059522415 11:0.084317268 12:0.088319311 
-10130.5810546875 0:0.017578125 1:0.0095808383 2:0.1025641 3:0.0056493513 4:0.003509847 5:0.029541619 6:0.036766622 7:0.040137988 8:0 9:0 10:0.010676496 11:0.021229489 12:0.025853503 
-10130.5810546875 0:0.0078125 1:0.0053892216 2:0.070512821 3:0.0022409389 4:0.0015603192 5:0.019953269 6:0.024833246 7:0.027110365 8:0 9:0.0041322314 10:0.010386641 11:0.019079424 12:0.014772107 
-10130.5810546875 0:0.025390625 1:0.017964072 2:0.12820513 3:0.0078727079 4:0.0051322062 5:0.03679201 6:0.045790243 7:0.049989042 8:0 9:0.010330579 10:0.018693076 11:0.03450764 12:0.035421838 
-10130.5810546875 0:0.109375 1:0.07005988 2:0.23076923 3:0.078721066 4:0.052699083 5:0.10607993 6:0.10009678 7:0.10125383 8:0.094339623 9:0.039256198 10:0.047825631 11:0.0674407 12:0.076695234 
