svm_type c_svc
kernel_type rbf
gamma 8
nr_class 2
total_sv 9410
rho -0.192912
label 2 1
nr_sv 8748 662
SV
1503.018798828125 0:0.007797271 1:0.0099337748 2:0.044871795 3:0.0011427307 4:0.0019579062 5:0.011341842 6:0.01356081 7:0.014212494 8:0 9:0.011741683 10:0.0089217204 11:0.0094535283 12:0.0064042127 
1503.018798828125 0:0.0097465887 1:0.0071743929 2:0.064102564 3:0.0019071837 4:0.0018342444 5:0.016119787 6:0.019273534 7:0.02019975 8:0 9:0.0039138943 10:0.0076378659 11:0.0095075962 12:0.0041848051 
1503.018798828125 0:0.023391813 1:0.013245033 2:0.18589744 3:0.011712621 4:0.0075254257 5:0.047174427 6:0.056403844 7:0.059114408 8:0 9:0 10:0.016080847 11:0.025148095 12:0.023417974 
1503.018798828125 0:0.031189084 1:0.019315673 2:0.18589744 3:0.014897562 4:0.0097983738 5:0.047201686 6:0.056436435 7:0.059148566 8:0 9:0.0039138943 10:0.017762105 11:0.0259479 12:0.029550891 
1503.018798828125 0:0.050682261 1:0.034768212 2:0.19230769 3:0.022597451 4:0.017158043 5:0.070897037 6:0.083510646 7:0.088841277 8:0.012578616 9:0.015655577 10:0.031269124 11:0.038519829 12:0.041259341 
1503.018798828125 0:0.025341131 1:0.016004415 2:0.14102564 3:0.011745982 4:0.0078378564 5:0.036044935 6:0.043096928 7:0.04516801 8:0 9:0.0039138943 10:0.015456556 11:0.01784863 12:0.019901946 
1503.018798828125 0:0.11306043 1:0.08388521 2:0 3:0.0070853817 4:0.0076167725 5:0.049536111 6:0.033648358 7:0.029486319 8:0.10691824 9:0.082191781 10:0.036363918 11:0.030031634 12:0.026962684 
1503.018798828125 0:0.046783626 1:0.028145695 2:0 3:0.013534841 4:0.0090109652 5:0.04574489 6:0.050009799 7:0.052413089 8:0.025157233 9:0.011741683 10:0.018555801 11:0.024344749 12:0.02172119 
1503.018798828125 0:0.029239766 1:0.016556291 2:0.17307692 3:0.013708278 4:0.0088076464 5:0.043780095 6:0.052345429 7:0.05486096 8:0 9:0 10:0.014923784 11:0.023929814 12:0.026682713 
1503.018798828125 0:0.021442495 1:0.015452539 2:0.1474359 3:0.0098309545 4:0.0071781992 5:0.037855254 6:0.045261426 7:0.047436526 8:0 9:0.0078277886 10:0.019132889 11:0.023665276 12:0.024895925 
1503.018798828125 0:0.035087719 1:0.01986755 2:0.064102564 3:0.0087586487 4:0.0056274815 5:0.02224472 6:0.011404335 7:0.011952386 8:0.050314465 9:0.015655577 10:0.0075827934 11:0.0084406889 12:0.0031422676 
1503.018798828125 0:0.021442495 1:0.01214128 2:0.12820513 3:0.0086650873 4:0.0055673678 5:0.033376634 6:0.039906588 7:0.041824355 8:0 9:0 10:0.011377447 11:0.019685841 12:0.016676139 
1503.018798828125 0:0.056530214 1:0.037527594 2:0.19871795 3:0.020979458 4:0.015232945 5:0.055638896 6:0.063200486 7:0.063113714 8:0.012578616 9:0.015655577 10:0.026426438 11:0.032816325 12:0.034951995 
1503.018798828125 0:0.068226121 1:0.043046358 2:0 3:0.0077711093 4:0.0062019935 5:0.037963057 6:0.032706755 7:0.028101981 8:0.075471698 9:0.031311155 10:0.018190538 11:0.015318804 12:0.013841462 
1503.018798828125 0:0.0097465887 1:0.0055187638 2:0.070512821 3:0.0021542559 4:0.0013841216 5:0.018705445 6:0.022365062 7:0.023439846 8:0 9:0 10:0.0063763232 11:0.011032641 12:0.0099430707 
1503.018798828125 0:0.095516569 1:0.072847682 2:0.070512821 3:0.01326254 4:0.013409922 5:0.053931431 6:0.039111257 7:0.034950237 8:0.10691824 9:0.068493151 10:0.031004848 11:0.029462871 12:0.028009591 
1503.018798828125 0:0.023391813 1:0.014900662 2:0.1474359 3:0.010052654 4:0.0066995183 5:0.037013671 6:0.044150799 7:0.046272526 8:0.012578616 9:0.0078277886 10:0.015351068 11:0.01988742 12:0.022175279 
1503.018798828125 0:0.01754386 1:0.011589404 2:0.12179487 3:0.0061830326 4:0.0042298767 5:0.030475594 6:0.036437975 7:0.038189053 8:0 9:0.0039138943 10:0.012895887 11:0.016082699 12:0.02004261 
1503.018798828125 0:0.056530214 1:0.036423841 2:0 3:0.0068409194 4:0.0056756847 5:0.027140909 6:0.025917609 7:0.023439846 8:0.037735849 9:0.019569472 10:0.014546266 11:0.013494043 12:0.0097768362 
1503.018798828125 0:0.085769981 1:0.05187638 2:0.025641026 3:0.01800618 4:0.01261308 5:0.055476934 6:0.050270592 7:0.036302524 8:0.081761006 9:0.04109589 10:0.021561523 11:0.017692617 12:0.02301825 
1503.018798828125 0:0.066276803 1:0.041390728 2:0.30769231 3:0.043197421 4:0.028367847 5:0.080243187 6:0.095942324 7:0.097249187 8:0.012578616 9:0.015655577 10:0.031451967 11:0.046881498 12:0.049547092 
1503.018798828125 0:0.079922027 1:0.045253863 2:0.5 3:0.10735372 4:0.068975375 5:0.10916305 6:0.1305202 7:0.13679252 8:0 9:0 10:0.037211564 11:0.064385355 12:0.069507921 
1503.018798828125 0:0.046783626 1:0.042494481 2:0.064102564 3:0.0071997918 4:0.010017412 5:0.03806113 6:0.031686836 7:0.036932861 8:0.025157233 9:0.039138943 10:0.026771479 11:0.025725497 12:0.022667421 
1503.018798828125 0:0.044834308 1:0.030353201 2:0.20512821 3:0.018715826 4:0.013510041 5:0.051652096 6:0.061757543 7:0.064725387 8:0 9:0.015655577 10:0.023266458 11:0.030464874 12:0.032914695 
1503.018798828125 0:0.021442495 1:0.01214128 2:0 3:0.0028233289 4:0.0018140048 5:0.022599294 6:0.015814486 7:0.016574473 8:0.025157233 9:0.0078277886 10:0.0077036607 11:0.0078012548 12:0.0086987152 
1503.018798828125 0:0.035087719 1:0.023178808 2:0.10897436 3:0.0057396786 4:0.0040679212 5:0.027408798 6:0.032771178 7:0.034346042 8:0 9:0.015655577 10:0.011788335 11:0.016949685 12:0.018025698 
1503.018798828125 0:0.076023392 1:0.068984547 2:0.19230769 3:0.022077493 4:0.025857964 5:0.10377112 6:0.075606449 7:0.068547524 8:0.10062893 9:0.066536204 10:0.066265439 11:0.057399186 12:0.058174555 
1503.018798828125 0:0.046783626 1:0.036975717 2:0 3:0.0071684756 4:0.0079691517 5:0.024779851 6:0.026125901 7:0.027381417 8:0.025157233 9:0.019569472 10:0.017226022 11:0.018861166 12:0.017414114 
1503.018798828125 0:0.021442495 1:0.01214128 2:0.044871795 3:0.0049935965 4:0.0032084141 5:0.01122785 6:0.0019177882 7:0.0060298504 8:0.031446541 9:0.0097847358 10:0.0038273562 11:0.00094604113 12:0.0010548742 
1503.018798828125 0:0.013645224 1:0.0093818985 2:0.096153846 3:0.0036338625 4:0.0024315996 5:0.025361128 6:0.030322893 7:0.031780101 8:0 9:0.0058708415 10:0.010511889 11:0.014012182 12:0.016679025 
1503.018798828125 0:0.085769981 1:0.061258278 2:0 3:0.012106518 4:0.011278053 5:0.03952243 6:0.020684289 7:0.026800561 8:0.094339623 9:0.060665362 10:0.024351931 11:0.014965795 12:0.014866725 
1503.018798828125 0:0.15009747 1:0.11203091 2:0.032051282 3:0.020087829 4:0.020743105 5:0.078574124 6:0.050798748 7:0.035271955 8:0.22012579 9:0.11937378 10:0.046275305 11:0.032990236 12:0.026408081 
1503.018798828125 0:0.035087719 1:0.021523179 2:0.15384615 3:0.018710197 4:0.012231401 5:0.050165453 6:0.055155369 7:0.04890594 8:0.0062893082 9:0.0058708415 10:0.018998872 11:0.027695956 12:0.025527976 
1503.018798828125 0:0.038986355 1:0.02593819 2:0.17948718 3:0.014816957 4:0.010067053 5:0.045196918 6:0.054039445 7:0.056636385 8:0 9:0.0078277886 10:0.019505374 11:0.031302938 12:0.028232433 
1503.018798828125 0:0.058479532 1:0.034768212 2:0 3:0.011347701 4:0.0078613427 5:0.035427687 6:0.030897043 7:0.024119402 8:0.050314465 9:0.023483366 10:0.013143803 11:0.014075487 12:0.011734963 
1503.018798828125 0:0.070175439 1:0.057395143 2:0.070512821 3:0.011886021 4:0.014711079 5:0.046546827 6:0.034952952 7:0.030010283 8:0.075471698 9:0.054794521 10:0.028560613 11:0.031712522 12:0.019145467 
1503.018798828125 0:0.040935673 1:0.031456954 2:0.12820513 3:0.011757374 4:0.010845766 5:0.040570712 6:0.04710016 7:0.045741769 8:0.037735849 9:0.031311155 10:0.019365952 11:0.023881546 12:0.024095512 
1503.018798828125 0:0.025341131 1:0.017660044 2:0.13461538 3:0.0092967884 4:0.0069409364 5:0.034289146 6:0.040997627 7:0.042967825 8:0 9:0.0078277886 10:0.017000986 11:0.018659559 12:0.021058817 
1503.018798828125 0:0.037037037 1:0.024282561 2:0.057692308 3:0.0034045407 4:0.0028075765 5:0.015216677 6:0.018193735 7:0.019068061 8:0 9:0.011741683 10:0.0067162029 11:0.0094743153 12:0.010007415 
1503.018798828125 0:0.15009747 1:0.099889625 2:0.26282051 3:0.039957016 4:0.029213042 5:0.11674475 6:0.10934821 7:0.090287278 8:0.16352201 9:0.093933464 10:0.049798464 11:0.053149403 12:0.053699041 
1503.018798828125 0:0.027290448 1:0.015452539 2:0.14102564 3:0.0110695 4:0.0071122162 5:0.03636471 6:0.043479265 7:0.045568721 8:0 9:0 10:0.012396024 11:0.021448236 12:0.023915652 
1503.018798828125 0:0.10526316 1:0.067328918 2:0.038461538 3:0.020573081 4:0.016557538 5:0.045401132 6:0.035819419 7:0.020208661 8:0.088050314 9:0.054794521 10:0.020923168 11:0.016760923 12:0.0085167296 
1503.018798828125 0:0.013645224 1:0.014900662 2:0.025641026 3:0.00088961521 4:0.002264109 5:0.020223583 6:0.016483853 7:0.0087677561 8:0.012578616 9:0.015655577 10:0.01272072 11:0.014566463 12:0.0095556948 
1503.018798828125 0:0.048732943 1:0.029249448 2:0.16025641 3:0.013879757 4:0.0093095626 5:0.045100426 6:0.050371525 7:0.051243876 8:0.025157233 9:0.011741683 10:0.016036048 11:0.022003998 12:0.023729498 
1503.018798828125 0:0.050682261 1:0.030905077 2:0.21153846 3:0.023306946 4:0.015342299 5:0.056193861 6:0.06432457 7:0.067415777 8:0.012578616 9:0.0078277886 10:0.022066677 11:0.033623266 12:0.033271807 
1503.018798828125 0:0.072124756 1:0.044701987 2:0.21153846 3:0.025515944 4:0.017471976 5:0.073308597 6:0.069637474 7:0.071435677 8:0.050314465 9:0.023483366 10:0.029834898 11:0.035332051 12:0.039396668 
1503.018798828125 0:0.066276803 1:0.051324503 2:0 3:0.019058349 4:0.014744553 5:0.052686198 6:0.052149099 7:0.053249364 8:0.06918239 9:0.052837573 10:0.030840172 11:0.028510451 12:0.027811215 
1503.018798828125 0:0.037037037 1:0.022626932 2:0.057692308 3:0.0026562977 4:0.001860226 5:0.015131904 6:0.018092377 7:0.018961831 8:0 9:0.0078277886 10:0.0060640821 11:0.0097086603 12:0.009951663 
1503.018798828125 0:0.12670565 1:0.10209713 2:0.5 3:0.13960551 4:0.11002578 5:0.14398023 6:0.15350539 7:0.15699498 8:0.018867925 9:0.11545988 10:0.11564701 11:0.10656596 12:0.10662371 
1503.018798828125 0:0.076023392 1:0.056843267 2:0.23717949 3:0.043167792 4:0.039029087 5:0.090546632 6:0.104426 7:0.083783371 8:0.012578616 9:0.072407045 10:0.066809096 11:0.066347767 12:0.059972002 
1503.018798828125 0:0.11500975 1:0.13189845 2:0.076923077 3:0.012366205 4:0.043338029 5:0.067449888 6:0.04692239 7:0.02453457 8:0.075471698 9:0.090019569 10:0.079067003 11:0.095320074 12:0.070405198 
1503.018798828125 0:0.083820663 1:0.11423841 2:0.051282051 3:0.01035225 4:0.034322462 5:0.046705127 6:0.030371969 7:0.020594373 8:0.037735849 9:0.070450098 10:0.05989131 11:0.068748143 12:0.050401187 
71.79365082054066 0:0.25925926 1:0.37748344 2:0.20512821 3:0.11599353 4:0.24926442 5:0.23372484 6:0.15658651 7:0.14409319 8:0.13836478 9:0.30332681 10:0.24903585 11:0.23410928 12:0.21328667 
1503.018798828125 0:0.040935673 1:0.022075055 2:0.096153846 3:0.0074247936 4:0.004770472 5:0.02719037 6:0.028766823 7:0.030149252 8:0.012578616 9:0.025440313 10:0.016694679 11:0.013244576 12:0.015823113 
1503.018798828125 0:0.15009747 1:0.11203091 2:0.48076923 3:0.13335004 4:0.10713459 5:0.14658731 6:0.14880311 7:0.15193415 8:0.062893082 9:0.11937378 10:0.10870046 11:0.099108404 12:0.10742465 
1503.018798828125 0:0.089668616 1:0.075607064 2:0 3:0.026285459 4:0.03486445 5:0.085690684 6:0.075342371 7:0.071232814 8:0.081761006 9:0.064579256 10:0.06005943 11:0.039996824 12:0.039655449 
1503.018798828125 0:0.058479532 1:0.041390728 2:0.11538462 3:0.012910916 4:0.010325477 5:0.045924482 6:0.039867544 7:0.041131096 8:0.050314465 9:0.039138943 10:0.020006152 11:0.022405462 12:0.0222046 
1503.018798828125 0:0.01754386 1:0.0099337748 2:0.11538462 3:0.0057149081 4:0.0036718609 5:0.029575904 6:0.035362267 7:0.037061649 8:0 9:0 10:0.010081852 11:0.015552054 12:0.019450919 
1503.018798828125 0:0.093567251 1:0.054635762 2:0.032051282 3:0.022352745 4:0.014698582 5:0.060473324 6:0.046043662 7:0.050074651 8:0.062893082 9:0.023483366 10:0.021627021 11:0.024871945 12:0.025764205 
1503.018798828125 0:0.050682261 1:0.03807947 2:0.038461538 3:0.006739206 4:0.0065303803 5:0.020181369 6:0.015603689 7:0.014418284 8:0.037735849 9:0.035225049 10:0.01373854 11:0.0096581696 12:0.0070909489 
1503.018798828125 0:0.031189084 1:0.017660044 2:0.21794872 3:0.01817093 4:0.011674925 5:0.054747151 6:0.065458129 7:0.06860381 8:0 9:0 10:0.018662241 11:0.028276654 12:0.031529615 
1503.018798828125 0:0.023391813 1:0.014900662 2:0.14102564 3:0.00921739 4:0.0066167977 5:0.036044935 6:0.043096928 7:0.04516801 8:0 9:0.0078277886 10:0.013963307 11:0.019367547 12:0.0215956 
1503.018798828125 0:0.013645224 1:0.0093818985 2:0.10897436 3:0.0046949648 4:0.0033568453 5:0.02837728 6:0.033929138 7:0.035559649 8:0 9:0.0039138943 10:0.013539477 11:0.012723464 12:0.015678994 
1503.018798828125 0:0.015594542 1:0.010485651 2:0.10897436 3:0.005083639 4:0.0035163655 5:0.028422573 6:0.033983293 7:0.035616407 8:0 9:0.0039138943 10:0.012422529 11:0.017709933 12:0.015527796 
1503.018798828125 0:0.040935673 1:0.025386313 2:0.096153846 3:0.010484716 4:0.0075452152 5:0.030986281 6:0.026513147 7:0.030417747 8:0.044025157 9:0.021526419 10:0.012661012 11:0.012028651 12:0.014348742 
1503.018798828125 0:0.062378168 1:0.049116998 2:0 3:0.0088083381 4:0.0098152926 5:0.032749037 6:0.018813982 7:0.017596153 8:0.056603774 9:0.048923679 10:0.023147403 11:0.022092841 12:0.012468753 
1503.018798828125 0:0.033138402 1:0.018763797 2:0.044871795 3:0.0083197764 4:0.0053455036 5:0.021001919 6:0.017964675 7:0.012787315 8:0.037735849 9:0.011741683 10:0.0071591465 11:0.0070033448 12:0.0057392561 
1503.018798828125 0:0.023391813 1:0.014900662 2:0.038461538 3:0.004771985 4:0.0036727782 5:0.015350723 6:0.0077469186 7:0.011789493 8:0.018867925 9:0.0097847358 10:0.0067186698 11:0.0043436398 12:0.0029170731 
1503.018798828125 0:0.087719298 1:0.066777042 2:0.038461538 3:0.01697558 4:0.018091328 5:0.058562266 6:0.036691734 7:0.025767921 8:0.12578616 9:0.082191781 10:0.034899551 11:0.018717431 12:0.012561374 
1503.018798828125 0:0.01754386 1:0.0099337748 2:0.11538462 3:0.0059137474 4:0.0037996163 5:0.029964793 6:0.035827239 7:0.037548967 8:0 9:0 10:0.010214416 11:0.014997699 12:0.019706676 
1503.018798828125 0:0.027290448 1:0.018763797 2:0.032051282 3:0.0049188318 4:0.0042055187 5:0.011583953 6:0.0080369345 7:0.0059031513 8:0.018867925 9:0.017612524 10:0.0050198405 11:0.0068323204 12:0.0065343844 
1503.018798828125 0:0.093567251 1:0.062362031 2:0.064102564 3:0.038594365 4:0.031017488 5:0.079800206 6:0.07270155 7:0.076628414 8:0.06918239 9:0.048923679 10:0.03844003 11:0.04025926 12:0.038870978 
1503.018798828125 0:0.093567251 1:0.0700883 2:0.17948718 3:0.03952717 4:0.035761494 5:0.090729587 6:0.074383558 7:0.066785359 8:0.10691824 9:0.064579256 10:0.04461517 11:0.043581945 12:0.039890303 
1503.018798828125 0:0.038986355 1:0.025386313 2:0.15384615 3:0.018763186 4:0.014888583 5:0.041351408 6:0.046424737 7:0.048655742 8:0.012578616 9:0.015655577 10:0.017216164 11:0.024058524 12:0.020818259 
1503.018798828125 0:0.058479532 1:0.036975717 2:0.051282051 3:0.0095955348 4:0.0072834037 5:0.036601345 6:0.021429533 7:0.020557334 8:0.075471698 9:0.035225049 10:0.014941872 11:0.00887941 12:0.010754726 
1503.018798828125 0:0.011695906 1:0.0066225166 2:0.057692308 3:0.001379567 4:0.00088637963 5:0.014787952 6:0.017681133 7:0.018530825 8:0 9:0 10:0.0050409258 11:0.0087220682 12:0.0097254594 
1503.018798828125 0:0.015594542 1:0.014900662 2:0 3:0.0011765449 4:0.0030881496 5:0.025421229 6:0.018888023 7:0.019795713 8:0.025157233 9:0.011741683 10:0.018665482 11:0.022031251 12:0.01101321 
1503.018798828125 0:0.025341131 1:0.016004415 2:0.16666667 3:0.011563216 4:0.0077204281 5:0.041980137 6:0.05019332 7:0.052605429 8:0 9:0.0039138943 10:0.017479752 11:0.021349266 12:0.023805297 
1503.018798828125 0:0.019493177 1:0.017108168 2:0.057692308 3:0.0030382954 4:0.0034084522 5:0.014787952 6:0.017681133 7:0.018530825 8:0 9:0.015655577 10:0.010289191 11:0.0082102515 12:0.01064408 
1503.018798828125 0:0.072124756 1:0.044701987 2:0.13461538 3:0.020943362 4:0.01494566 5:0.067618519 6:0.061291009 7:0.050209083 8:0.062893082 9:0.023483366 10:0.024048265 11:0.027127922 12:0.025040838 
1503.018798828125 0:0.068226121 1:0.041390728 2:0.17307692 3:0.020422934 4:0.014049923 5:0.06285232 6:0.062068808 7:0.06505161 8:0.062893082 9:0.02739726 10:0.023543676 11:0.028874915 12:0.030916616 
1503.018798828125 0:0.023391813 1:0.014900662 2:0.15384615 3:0.0099361396 4:0.0066341247 5:0.038528889 6:0.046066853 7:0.048280659 8:0 9:0.0039138943 10:0.015867576 11:0.020609275 12:0.022980177 
1503.018798828125 0:0.023391813 1:0.014900662 2:0.1474359 3:0.0090459742 4:0.0060057348 5:0.037030724 6:0.04427558 7:0.046403305 8:0 9:0.0039138943 10:0.014036872 11:0.021057329 12:0.022243915 
1503.018798828125 0:0.031189084 1:0.017660044 2:0.20512821 3:0.017005274 4:0.010925985 5:0.051352372 6:0.06139918 7:0.064349802 8:0 9:0 10:0.017505027 11:0.02650393 12:0.029552956 
1503.018798828125 0:0.046783626 1:0.029801325 2:0.08974359 3:0.0091086761 4:0.0069079905 5:0.034819324 6:0.027658734 7:0.028987913 8:0.050314465 9:0.023483366 10:0.014272854 11:0.013643999 12:0.017532265 
1503.018798828125 0:0.027290448 1:0.021523179 2:0.13461538 3:0.0081304831 4:0.0070681719 5:0.033683551 6:0.040273552 7:0.042208953 8:0 9:0.015655577 10:0.016211101 11:0.020070266 12:0.022258379 
1503.018798828125 0:0.015594542 1:0.010485651 2:0.12179487 3:0.0057329976 4:0.0039982365 5:0.030853145 6:0.036889392 7:0.038662163 8:0 9:0.0039138943 10:0.013686775 11:0.019535368 12:0.016487508 
387.6969101872384 0:0.33723197 1:0.31567329 2:0.038461538 3:0.32818715 4:0.30383675 5:0.31802748 6:0.30844835 7:0.29787473 8:0.16981132 9:0.32093933 10:0.25491358 11:0.22267042 12:0.20237945 
1503.018798828125 0:0.12670565 1:0.10540839 2:0.064102564 3:0.027890841 4:0.030350478 5:0.087706371 6:0.054422481 7:0.056367476 8:0.12578616 9:0.1037182 10:0.058353074 11:0.038573464 12:0.040965004 
2.814077887512388 0:0.50877193 1:0.6098234 2:0.12179487 3:0.35896772 4:0.46322586 5:0.54915405 6:0.49670281 7:0.38859385 8:0.28930818 9:0.56751468 10:0.46889292 11:0.42956073 12:0.3791887 
1503.018798828125 0:0.083820663 1:0.071192053 2:0.064102564 3:0.0190062 4:0.020279281 5:0.042294155 6:0.033872547 7:0.027421515 8:0.050314465 9:0.064579256 10:0.035053741 11:0.030729476 12:0.028674259 
1503.018798828125 0:0.1208577 1:0.08995585 2:0 3:0.015057409 4:0.01730191 5:0.065558514 6:0.048997288 7:0.03955631 8:0.14465409 9:0.086105675 10:0.043455179 11:0.043880088 12:0.041814524 
1503.018798828125 0:0.033138402 1:0.026490066 2:0 3:0.0063139686 4:0.0078247379 5:0.030505321 6:0.02527288 7:0.023515966 8:0.025157233 9:0.019569472 10:0.020056164 11:0.022142025 12:0.0098118492 
1503.018798828125 0:0.062378168 1:0.039183223 2:0.083333333 3:0.019247238 4:0.01558106 5:0.055181542 6:0.037330918 7:0.031322014 8:0.06918239 9:0.029354207 10:0.024173381 11:0.020601352 12:0.022814183 
0.8009162929031903 0:0.84405458 1:1 2:0.23717949 3:0.58183177 4:0.83669298 5:1 6:1 7:1 8:0.35220126 9:1 10:1 11:1 12:1 
541.816667862829 0:0.15789474 1:0.13796909 2:0.057692308 3:0.12864736 4:0.13646834 5:0.17851909 6:0.1979656 7:0.1786083 8:0.018867925 9:0.15655577 10:0.13694142 11:0.12037046 12:0.1152207 
1503.018798828125 0:0.1539961 1:0.12251656 2:0.1025641 3:0.051234048 4:0.044116007 5:0.12286582 6:0.10116886 7:0.10603067 8:0.10691824 9:0.12915851 10:0.086742923 11:0.070521378 12:0.062556272 
1503.018798828125 0:0.18908382 1:0.19370861 2:0.28205128 3:0.10499881 4:0.13511243 5:0.13436941 6:0.12969664 7:0.11022725 8:0.075471698 9:0.17221135 10:0.1247024 11:0.12950696 12:0.11649963 
1503.018798828125 0:0.13840156 1:0.15342163 2:0.28205128 3:0.061268936 4:0.087640335 5:0.091397558 6:0.08724844 7:0.092582469 8:0.088050314 9:0.15459883 10:0.087308969 11:0.079382524 12:0.065478169 
1.156048060506591 0:0.33333333 1:0.31843267 2:0.43589744 3:0.19337149 4:0.17276113 5:0.26232919 6:0.24593365 7:0.25680212 8:0.1509434 9:0.31311155 10:0.21364317 11:0.16929664 12:0.16853746 
1503.018798828125 0:0.01754386 1:0.0099337748 2:0.11538462 3:0.0057712557 4:0.0037080645 5:0.029049287 6:0.034732619 7:0.036401743 8:0 9:0 10:0.0099023379 11:0.01524145 12:0.019104583 
1503.018798828125 0:0.058479532 1:0.036975717 2:0 3:0.0093587492 4:0.0068278909 5:0.037649103 6:0.027923417 7:0.029265316 8:0.056603774 9:0.025440313 10:0.015926819 11:0.010706169 12:0.01300043 
1503.018798828125 0:0.038986355 1:0.034768212 2:0.08974359 3:0.0072622065 4:0.0086958548 5:0.035642209 6:0.030161801 7:0.034172304 8:0.037735849 9:0.039138943 10:0.024426237 11:0.022266525 12:0.022492591 
1503.018798828125 0:0.19493177 1:0.15397351 2:0.32051282 3:0.1537728 4:0.13189158 5:0.20020525 6:0.21061096 7:0.21859496 8:0.06918239 9:0.11545988 10:0.11241771 11:0.13299452 12:0.11914446 
1503.018798828125 0:0.18323587 1:0.13465784 2:0.032051282 3:0.041206181 4:0.038160234 5:0.15892672 6:0.13151668 7:0.12458559 8:0.17610063 9:0.11350294 10:0.083267107 11:0.090770391 12:0.069739118 
1503.018798828125 0:0.048732943 1:0.029249448 2:0.012820513 3:0.0054955525 4:0.0037174241 5:0.019105215 6:0.012864914 7:0.013483155 8:0.031446541 9:0.017612524 10:0.0083172296 11:0.0077556821 12:0.00690706 
1503.018798828125 0:0.085769981 1:0.053532009 2:0.26923077 3:0.046654471 4:0.031950396 5:0.073654922 6:0.081477788 7:0.085393315 8:0.037735849 9:0.023483366 10:0.026997582 11:0.043293825 12:0.041308672 
1503.018798828125 0:0.011695906 1:0.0066225166 2:0.044871795 3:0.0027509141 4:0.0017674779 5:0.0033219489 6:0.0039718698 7:0.0041627435 8:0.0062893082 9:0.0019569472 10:0.0011323879 11:0.00094604113 12:0.0010548742 
1503.018798828125 0:0.019493177 1:0.012693157 2:0.032051282 3:0.0023095384 4:0.0021328647 5:0.0080198931 6:0.0095889409 7:0.010049751 8:0 9:0.0019569472 10:0.0039178595 11:0.0020794353 12:0.0043941048 
1503.018798828125 0:0.19688109 1:0.13520971 2:0.3525641 3:0.11068197 4:0.079279218 5:0.13287073 6:0.12675991 7:0.11780761 8:0.094339623 9:0.15264188 10:0.087298824 11:0.078694076 12:0.071729433 
1503.018798828125 0:0.18128655 1:0.12306843 2:0.55769231 3:0.25934547 4:0.18685397 5:0.19304883 6:0.22059542 7:0.20734349 8:0.050314465 9:0.17612524 10:0.13677043 11:0.1144046 12:0.12534257 
0.8859400544546403 0:0.54775828 1:0.60209713 2:0.32051282 3:0.19852338 4:0.2872985 5:0.37427207 6:0.30138479 7:0.28793425 8:0.34591195 9:0.53228963 10:0.33865295 11:0.34253283 12:0.26185206 
1503.018798828125 0:0.11500975 1:0.082229581 2:0.27564103 3:0.054042123 4:0.041012509 5:0.092203298 6:0.093120254 7:0.094330188 8:0.050314465 9:0.1037182 10:0.064002899 11:0.048825504 12:0.054590717 
1503.018798828125 0:0.0058479532 1:0.0049668874 2:0.038461538 3:0.00075278327 4:0.00066070035 5:0.010270474 6:0.012279835 7:0.01286996 8:0 9:0.0039138943 10:0.0051413007 11:0.0052738926 12:0.0052626736 
1503.018798828125 0:0.072124756 1:0.046357616 2:0 3:0.0098977128 4:0.0085166544 5:0.04472971 6:0.029957429 7:0.026677318 8:0.075471698 9:0.031311155 10:0.021968503 11:0.017780623 12:0.013782479 
1503.018798828125 0:0.021442495 1:0.01214128 2:0.1474359 3:0.0089048854 4:0.0057214394 5:0.037445259 6:0.044771217 7:0.04692276 8:0 9:0 10:0.012764362 11:0.022085553 12:0.020822882 
1503.018798828125 0:0.035087719 1:0.021523179 2:0.15384615 3:0.014627401 4:0.0096453272 5:0.05143911 6:0.049349397 7:0.049926127 8:0.025157233 9:0.011741683 10:0.020445875 11:0.021607092 12:0.022866727 
1503.018798828125 0:0.019493177 1:0.011037528 2:0.12820513 3:0.0070030693 4:0.0044995118 5:0.032714873 6:0.039115357 7:0.0409951 8:0 9:0 10:0.011151865 11:0.015394901 12:0.019405548 
1503.018798828125 0:0.027290448 1:0.017108168 2:0.14102564 3:0.0087989669 4:0.0057502087 5:0.035323966 6:0.042234905 7:0.044264562 8:0 9:0.0058708415 10:0.013908027 11:0.022172299 12:0.023231195 
1503.018798828125 0:0.038986355 1:0.02593819 2:0.038461538 3:0.0085784969 4:0.0071673241 5:0.02918655 6:0.019326705 7:0.016342773 8:0.056603774 9:0.025440313 10:0.01409391 11:0.0082336089 12:0.0051527694 
1503.018798828125 0:0.10916179 1:0.084437086 2:0.28205128 3:0.042287208 4:0.034990777 5:0.10526843 6:0.095178995 7:0.1013386 8:0.088050314 9:0.074363992 10:0.057315551 11:0.059119382 12:0.059569721 
1503.018798828125 0:0.099415205 1:0.089403974 2:0.08974359 3:0.020152241 4:0.033250718 5:0.081637264 6:0.065849882 7:0.059571524 8:0.11320755 9:0.082191781 10:0.055511441 11:0.051294015 12:0.048730774 
1503.018798828125 0:0.097465887 1:0.069536424 2:0.22435897 3:0.026715594 4:0.022437627 5:0.089061233 6:0.081931103 7:0.081848515 8:0.088050314 9:0.070450098 10:0.045264566 11:0.039890929 12:0.040846484 
1503.018798828125 0:0.050682261 1:0.030353201 2:0.051282051 3:0.0080621046 4:0.0057894675 5:0.029229017 6:0.019270265 7:0.016574473 8:0.062893082 9:0.02739726 10:0.010180166 11:0.0078012548 12:0.0086987152 
1503.018798828125 0:0.019493177 1:0.012693157 2:0.12179487 3:0.0069661417 4:0.0049303459 5:0.030853145 6:0.036889392 7:0.038662163 8:0 9:0.0039138943 10:0.011933009 11:0.015276092 12:0.017307276 
1503.018798828125 0:0.019493177 1:0.011037528 2:0.12820513 3:0.0069231795 4:0.0044481821 5:0.032438458 6:0.038784863 7:0.040648724 8:0 9:0 10:0.011057641 11:0.015348332 12:0.019223761 
1503.018798828125 0:0.044834308 1:0.030353201 2:0.064102564 3:0.01110854 4:0.009454726 5:0.037279406 6:0.028831421 7:0.021737437 8:0.056603774 9:0.025440313 10:0.015131186 11:0.015753082 12:0.006493272 
1503.018798828125 0:0.11500975 1:0.072847682 2:0.083333333 3:0.029235389 4:0.021824948 5:0.089604194 6:0.065329752 7:0.055381317 8:0.13207547 9:0.056751468 10:0.04171234 11:0.035528946 12:0.030623624 
1503.018798828125 0:0.0058479532 1:0.0033112583 2:0.038461538 3:0.00074903947 4:0.00048126211 5:0.0096238717 6:0.011506729 7:0.012059701 8:0 9:0 10:0.0032805911 11:0.0037841645 12:0 
1503.018798828125 0:0.025341131 1:0.016004415 2:0.16666667 3:0.012477674 4:0.0082901944 5:0.041826647 6:0.050009799 7:0.052413089 8:0 9:0.0039138943 10:0.016942695 11:0.021678089 12:0.024171948 
1503.018798828125 0:0.046783626 1:0.034216336 2:0.025641026 3:0.0044034209 4:0.0042378606 5:0.01857741 6:0.015374363 7:0.016113199 8:0.025157233 9:0.023483366 10:0.013569168 11:0.011205993 12:0.0084389935 
1503.018798828125 0:0.050682261 1:0.033112583 2:0 3:0.0070654854 4:0.0056518685 5:0.029832201 6:0.017334032 7:0.018167043 8:0.062893082 9:0.031311155 10:0.014490237 11:0.0093683312 12:0.0098769016 
1503.018798828125 0:0.052631579 1:0.031456954 2:0.28205128 3:0.037176897 4:0.024072867 5:0.070811614 6:0.084665515 7:0.088734233 8:0 9:0.0078277886 10:0.024849408 11:0.040819291 12:0.045515163 
1503.018798828125 0:0.037037037 1:0.023730684 2:0.20512821 3:0.021009285 4:0.014121712 5:0.052369348 6:0.062615121 7:0.065624177 8:0 9:0.0039138943 10:0.023319346 11:0.029550012 12:0.034441278 
1503.018798828125 0:0.11306043 1:0.082229581 2:0.16025641 3:0.057630592 4:0.047193927 5:0.15300434 6:0.16532865 7:0.17210669 8:0.050314465 9:0.043052838 10:0.07376269 11:0.097148265 12:0.094984873 
1503.018798828125 0:0.0097465887 1:0.0093818985 2:0.051282051 3:0.0016753506 4:0.0020518259 5:0.014346421 6:0.017153219 7:0.017977541 8:0 9:0.0078277886 10:0.0082014776 11:0.0092203372 12:0.0094350817 
1503.018798828125 0:0.029239766 1:0.016556291 2:0.044871795 3:0.0096659325 4:0.0062104165 5:0.017710827 6:0.0097700897 7:0.010239605 8:0.031446541 9:0.0097847358 10:0.0060372772 11:0.0057537078 12:0.0064156173 
1503.018798828125 0:0.021442495 1:0.013796909 2:0.1474359 3:0.0089513432 4:0.0059919199 5:0.03692636 6:0.044150799 7:0.046272526 8:0 9:0.0039138943 10:0.015321305 11:0.022725543 12:0.023230153 
1503.018798828125 0:0.083820663 1:0.060706402 2:0 3:0.0085687238 4:0.0087883814 5:0.022474636 6:0.022552224 7:0.021254778 8:0.062893082 9:0.054794521 10:0.017168843 11:0.011864388 12:0.010446628 
1503.018798828125 0:0.019493177 1:0.012693157 2:0.13461538 3:0.0075498354 4:0.0050914431 5:0.034025525 6:0.040682431 7:0.042637481 8:0 9:0.0039138943 10:0.014332467 11:0.017230439 12:0.019212638 
1503.018798828125 0:0.04288499 1:0.028145695 2:0.032051282 3:0.0017908168 4:0.0016439262 5:0.01122785 6:0.0095889409 7:0.010049751 8:0.012578616 9:0.011741683 10:0.0060777568 11:0.0066222879 12:0.0052743709 
1503.018798828125 0:0.0058479532 1:0.0033112583 2:0.038461538 3:0.00085047928 4:0.00054643776 5:0.010144451 6:0.012129157 7:0.01271204 8:0 9:0 10:0.0034580464 11:0.0033074809 12:0 
4.083673377333108 0:0.052631579 1:0.031456954 2:0.019230769 3:0.0022925552 4:0.0016334004 5:0.012556629 6:0.011177688 7:0.011714847 8:0.037735849 9:0.015655577 10:0.0053738418 11:0.0022839456 12:0.0025466919 
1503.018798828125 0:0.01754386 1:0.0099337748 2:0.11538462 3:0.0057637075 4:0.0037032148 5:0.029575904 6:0.035362267 7:0.037061649 8:0 9:0 10:0.010081852 11:0.015328723 12:0.019450919 
1503.018798828125 0:0.033138402 1:0.018763797 2:0.20512821 3:0.017804191 4:0.011439294 5:0.051726756 6:0.06184681 7:0.064818944 8:0 9:0 10:0.017632647 11:0.03050891 12:0.028051401 
1503.018798828125 0:0.046783626 1:0.029801325 2:0.064102564 3:0.0068614648 4:0.0054175045 5:0.025501568 6:0.020902542 7:0.020984496 8:0.037735849 9:0.02739726 10:0.010457547 11:0.010638937 12:0.010442513 
1503.018798828125 0:0.025341131 1:0.024834437 2:0.057692308 3:0.0017567277 4:0.0040079085 5:0.021632591 6:0.020440565 7:0.023087961 8:0.025157233 9:0.019569472 10:0.019815125 11:0.02960766 12:0.02318535 
1503.018798828125 0:0.056530214 1:0.033664459 2:0 3:0.010096896 4:0.0068790529 5:0.040390578 6:0.039115357 7:0.0409951 8:0.044025157 9:0.017612524 10:0.014996514 11:0.020274784 12:0.015231422 
1503.018798828125 0:0.15204678 1:0.10099338 2:0 3:0.010114996 4:0.0092144046 5:0.059368526 6:0.032834924 7:0.024644962 8:0.1572327 9:0.091976517 10:0.033434731 11:0.025545608 12:0.019474228 
1503.018798828125 0:0.015594542 1:0.010485651 2:0.11538462 3:0.0049646081 4:0.003376289 5:0.028916135 6:0.034573417 7:0.03623489 8:0 9:0.0058708415 10:0.01198187 11:0.018392904 12:0.016658244 
1503.018798828125 0:0.095516569 1:0.07615894 2:0.16666667 3:0.029182739 4:0.026917065 5:0.050557948 6:0.050804816 7:0.052297343 8:0.037735849 9:0.062622309 10:0.041195326 11:0.040317558 12:0.047570639 
1503.018798828125 0:0.099415205 1:0.08995585 2:0.44871795 3:0.097996908 4:0.076864972 5:0.11397331 6:0.1346828 7:0.14115517 8:0.012578616 9:0.10176125 10:0.09193917 11:0.070048177 12:0.076715016 
1503.018798828125 0:0.16179337 1:0.1285872 2:0.3974359 3:0.091759712 4:0.076632394 5:0.12040505 6:0.13154748 7:0.13218417 8:0.062893082 9:0.15264188 10:0.09088823 11:0.073865781 12:0.077973481 
1503.018798828125 0:0.13060429 1:0.092163355 2:0 3:0.012658895 4:0.013339318 5:0.052336845 6:0.025929243 7:0.018900088 8:0.13207547 9:0.084148728 10:0.036297596 11:0.029245715 12:0.015433305 
1503.018798828125 0:0.056530214 1:0.037527594 2:0.025641026 3:0.0073939112 4:0.0059038477 5:0.029534334 6:0.022405978 7:0.019213524 8:0.044025157 9:0.025440313 10:0.016090277 11:0.01236133 12:0.011290898 
1503.018798828125 0:0.052631579 1:0.03807947 2:0.08974359 3:0.013029517 4:0.011059689 5:0.04048259 6:0.048402786 7:0.050728848 8:0.0062893082 9:0.021526419 10:0.020312844 11:0.026998963 12:0.023933661 
1503.018798828125 0:0.056530214 1:0.038631347 2:0.044871795 3:0.0031027245 4:0.0027906908 5:0.017186273 6:0.016713096 7:0.017516267 8:0.025157233 9:0.023483366 10:0.012019869 11:0.016119908 12:0.011678584 
1503.018798828125 0:0.023391813 1:0.013245033 2:0.15384615 3:0.0097709509 4:0.0062778914 5:0.038795067 6:0.046385108 7:0.048614208 8:0 9:0 10:0.013224485 11:0.0209896 12:0.019097454 
1503.018798828125 0:0.066276803 1:0.04580574 2:0 3:0.0079611984 4:0.0071373138 5:0.035723505 6:0.02775449 7:0.031210233 8:0.06918239 9:0.04109589 10:0.018477711 11:0.01476959 12:0.013983372 
1503.018798828125 0:0.070175439 1:0.046909492 2:0 3:0.0089435931 4:0.0079983854 5:0.039499613 6:0.029400746 7:0.025424082 8:0.056603774 9:0.025440313 10:0.018274925 11:0.019047542 12:0.016855767 
1503.018798828125 0:0.01754386 1:0.0099337748 2:0.10897436 3:0.005064338 4:0.0032538659 5:0.027408798 6:0.032771178 7:0.034346042 8:0 9:0 10:0.0093431271 11:0.014273875 12:0.018025698 
1503.018798828125 0:0.066276803 1:0.042494481 2:0.051282051 3:0.010166991 4:0.0080809518 5:0.038388312 6:0.024840154 7:0.021213322 8:0.037735849 9:0.02739726 10:0.01860787 11:0.017923377 12:0.01626606 
1503.018798828125 0:0.095516569 1:0.061258278 2:0 3:0.0088717305 4:0.0071504103 5:0.032715035 6:0.026150218 7:0.020099501 8:0.06918239 9:0.04109589 10:0.015420811 11:0.014525509 12:0.007076311 
1503.018798828125 0:0.076023392 1:0.048013245 2:0 3:0.0088063323 4:0.0070853538 5:0.035164492 6:0.029726079 7:0.021839973 8:0.081761006 9:0.04109589 10:0.015644715 11:0.013772384 12:0.011420488 
1503.018798828125 0:0.029239766 1:0.022626932 2:0 3:0.0047847416 4:0.0056108491 5:0.017432852 6:0.020843493 7:0.018845224 8:0.012578616 9:0.011741683 10:0.012313636 11:0.014818071 12:0.0097147304 
1503.018798828125 0:0.007797271 1:0.0093818985 2:0 3:0.00055122761 4:0.0016198984 5:0.015768636 6:0.011182531 7:0.011719923 8:0.012578616 9:0.0078277886 10:0.012231196 11:0.0085143701 12:0.0084984384 
1503.018798828125 0:0.0097465887 1:0.0077262693 2:0.083333333 3:0.0026072366 4:0.0020827242 5:0.020851722 6:0.024931246 7:0.026129352 8:0 9:0.0039138943 10:0.010935304 11:0.014190617 12:0.01265849 
1503.018798828125 0:0.01754386 1:0.018211921 2:0.064102564 3:0.0021720608 4:0.0029988156 5:0.016039786 6:0.019177882 7:0.020099501 8:0 9:0.015655577 10:0.013513083 11:0.019700407 12:0.01699769 
1503.018798828125 0:0.013645224 1:0.011037528 2:0.076923077 3:0.0025986483 4:0.0021661057 5:0.019513243 6:0.023330901 7:0.0244521 8:0 9:0.011741683 10:0.012706912 11:0.013847829 12:0.012833099 
1503.018798828125 0:0.064327485 1:0.045253863 2:0.17307692 3:0.018850408 4:0.014573434 5:0.062790314 6:0.058009175 7:0.055191343 8:0.062893082 9:0.043052838 10:0.02770259 11:0.02868508 12:0.034125774 
1503.018798828125 0:0.07797271 1:0.061258278 2:0.019230769 3:0.011243906 4:0.012450308 5:0.041299846 6:0.023324895 7:0.024229407 8:0.075471698 9:0.062622309 10:0.025538629 11:0.019196357 12:0.011301589 
1503.018798828125 0:0.029239766 1:0.016556291 2:0 3:0.0086950153 4:0.0055865967 5:0.036891508 6:0.032602399 7:0.030149252 8:0.031446541 9:0.0097847358 10:0.012575599 11:0.016082699 12:0.017932861 
1503.018798828125 0:0.027290448 1:0.019315673 2:0.044871795 3:0.0043034986 4:0.0043070707 5:0.019158357 6:0.019071007 7:0.015967591 8:0.018867925 9:0.0097847358 10:0.012843989 11:0.016796508 12:0.013170548 
1503.018798828125 0:0.06042885 1:0.03807947 2:0.038461538 3:0.0078181719 4:0.0061112257 5:0.024266505 6:0.018089654 7:0.015914469 8:0.062893082 9:0.031311155 10:0.011944586 11:0.0096523548 12:0.0060752738 
1503.018798828125 0:0.087719298 1:0.054083885 2:0.096153846 3:0.016745529 4:0.012091805 5:0.061704454 6:0.04317435 7:0.0362861 8:0.11320755 9:0.046966732 10:0.024960342 11:0.020721319 12:0.020971015 
1503.018798828125 0:0.011695906 1:0.0066225166 2:0.083333333 3:0.0026676976 4:0.0017140108 5:0.021579325 6:0.025801201 7:0.027041113 8:0 9:0 10:0.007355973 11:0.01178164 12:0.011208247 
1503.018798828125 0:0.052631579 1:0.034768212 2:0.038461538 3:0.0062624081 4:0.0045667854 5:0.02165066 6:0.013009404 7:0.016382325 8:0.044025157 9:0.02739726 10:0.010800735 11:0.007713056 12:0.0066716097 
1503.018798828125 0:0.04288499 1:0.027593819 2:0.012820513 3:0.0036827774 4:0.0031530877 5:0.019247743 6:0.011506729 7:0.016079601 8:0.037735849 9:0.015655577 10:0.01012751 11:0.0056762468 12:0.0035069872 
1503.018798828125 0:0.025341131 1:0.016004415 2:0.1474359 3:0.011329394 4:0.0075152734 5:0.040644457 6:0.045746385 7:0.047944791 8:0.0062893082 9:0.0058708415 10:0.015526872 11:0.020451189 12:0.022803904 
1503.018798828125 0:0.095516569 1:0.067328918 2:0.044871795 3:0.018481422 4:0.015885186 5:0.061702936 6:0.051879885 7:0.048528016 8:0.062893082 9:0.050880626 10:0.030807868 11:0.02787746 12:0.026450084 
1503.018798828125 0:0.025341131 1:0.016004415 2:0.15384615 3:0.0096996674 4:0.0066303403 5:0.04174681 6:0.046701193 7:0.048945484 8:0.012578616 9:0.0078277886 10:0.01471541 11:0.020045962 12:0.02235206 
1503.018798828125 0:0.035087719 1:0.021523179 2:0.070512821 3:0.0090708151 4:0.0068601361 5:0.032364939 6:0.028269704 7:0.022916958 8:0.062893082 9:0.019569472 10:0.011032579 11:0.013446956 12:0.010101641 
1503.018798828125 0:0.07797271 1:0.05187638 2:0 3:0.010350717 4:0.0086844112 5:0.044184127 6:0.037924447 7:0.03458049 8:0.081761006 9:0.045009785 10:0.020715458 11:0.019821188 12:0.018148742 
1503.018798828125 0:0.040935673 1:0.024834437 2:0 3:0.0065898581 4:0.0048184001 5:0.022129499 6:0.017304003 7:0.014212494 8:0.037735849 9:0.015655577 10:0.0085419419 11:0.0093888557 12:0.0095180199 
1503.018798828125 0:0.021442495 1:0.01214128 2:0.12820513 3:0.0074034719 4:0.0047567727 5:0.033027942 6:0.039489677 7:0.041387408 8:0 9:0 10:0.011258584 11:0.01948018 12:0.018737554 
1503.018798828125 0:0.054580897 1:0.038631347 2:0.083333333 3:0.012125621 4:0.0095013363 5:0.045138322 6:0.034337267 7:0.033106316 8:0.075471698 9:0.037181996 10:0.022321624 11:0.017726481 12:0.016320184 
1503.018798828125 0:0.050682261 1:0.028697572 2:0.16666667 3:0.018492701 4:0.011881665 5:0.044782685 6:0.050009799 7:0.052413089 8:0.012578616 9:0.0039138943 10:0.015265548 11:0.024669735 12:0.02370435 
1503.018798828125 0:0.10526316 1:0.068984547 2:0.032051282 3:0.022526383 4:0.017622374 5:0.067269699 6:0.057277571 7:0.053869012 8:0.075471698 9:0.046966732 10:0.027222118 11:0.033602046 12:0.030535073 
1503.018798828125 0:0.054580897 1:0.040286976 2:0.019230769 3:0.0077605566 4:0.0085054452 5:0.032292276 6:0.022688255 7:0.022800412 8:0.044025157 9:0.037181996 10:0.018651641 11:0.019593947 12:0.011128089 
1503.018798828125 0:0.04288499 1:0.024282561 2:0.24358974 3:0.028996868 4:0.018630652 5:0.061622843 6:0.073679011 7:0.077219758 8:0 9:0 10:0.021006031 11:0.031615505 12:0.032288112 
1503.018798828125 0:0.068226121 1:0.04415011 2:0.10897436 3:0.012324028 4:0.010128877 5:0.042928936 6:0.040098167 7:0.04202514 8:0.050314465 9:0.031311155 10:0.017811579 11:0.017163782 12:0.018401946 
1503.018798828125 0:0.038986355 1:0.023730684 2:0.1474359 3:0.011696137 4:0.0077744008 5:0.038663687 6:0.045261426 7:0.047436526 8:0.012578616 9:0.011741683 10:0.013695995 11:0.022327372 12:0.022786176 
1503.018798828125 0:0.18128655 1:0.12306843 2:0.36538462 3:0.18493296 4:0.1392055 5:0.19645819 6:0.18527878 7:0.14649511 8:0.088050314 9:0.15655577 10:0.13681286 11:0.09718984 12:0.11081582 
1503.018798828125 0:0.07797271 1:0.049668874 2:0 3:0.013411703 4:0.010730773 5:0.056894604 6:0.045751656 7:0.051897518 8:0.081761006 9:0.033268102 10:0.024204225 11:0.024419885 12:0.023768324 
1503.018798828125 0:0.054580897 1:0.041390728 2:0.044871795 3:0.0092741676 4:0.009234628 5:0.037139331 6:0.021368256 7:0.018938162 8:0.056603774 9:0.04109589 10:0.02100096 11:0.013877712 12:0.012646568 
1503.018798828125 0:0.13450292 1:0.081125828 2:0 3:0.034872144 4:0.024119166 5:0.10017106 6:0.079960166 7:0.051306307 8:0.11949686 9:0.045009785 10:0.037358997 11:0.045379952 12:0.028109332 
1503.018798828125 0:0.10331384 1:0.066777042 2:0 3:0.021957562 4:0.01747121 5:0.072785009 6:0.053161756 7:0.041190717 8:0.13207547 9:0.056751468 10:0.035588142 11:0.028982477 12:0.028996437 
1503.018798828125 0:0.091617934 1:0.05187638 2:0.096153846 3:0.068818215 4:0.044216093 5:0.11113669 6:0.11064688 7:0.11596416 8:0.031446541 9:0.0097847358 10:0.037884342 11:0.057895271 12:0.058625439 
210.9099180073433 0:0.15204678 1:0.10706402 2:0.064102564 3:0.064137983 4:0.05477524 5:0.15317866 6:0.14444766 7:0.13647717 8:0.11320755 9:0.066536204 10:0.078603651 11:0.095767263 12:0.080967743 
1503.018798828125 0:0.095516569 1:0.081125828 2:0.057692308 3:0.022340525 4:0.033793558 5:0.10318219 6:0.068463598 7:0.06022755 8:0.13836478 9:0.093933464 10:0.064336856 11:0.060389455 12:0.058631068 
1503.018798828125 0:0.068226121 1:0.046357616 2:0 3:0.010430431 4:0.0085355173 5:0.047216668 6:0.03144389 7:0.029910462 8:0.06918239 9:0.037181996 10:0.025032309 11:0.019377625 12:0.013721795 
1503.018798828125 0:0.062378168 1:0.036975717 2:0 3:0.014794288 4:0.010194493 5:0.056267451 6:0.041068583 7:0.030149252 8:0.056603774 9:0.021526419 10:0.020165733 11:0.021760427 12:0.017133981 
1503.018798828125 0:0.07797271 1:0.057395143 2:0 3:0.012725756 4:0.013342673 5:0.055884169 6:0.0559333 7:0.054268654 8:0.050314465 9:0.046966732 10:0.037182276 11:0.036316754 12:0.030248987 
1503.018798828125 0:0.021442495 1:0.013796909 2:0.13461538 3:0.0081852148 4:0.0055162902 5:0.034101054 6:0.040772737 7:0.042732127 8:0 9:0.0039138943 10:0.014131736 11:0.021451014 12:0.020935116 
1503.018798828125 0:0.054580897 1:0.03807947 2:0.051282051 3:0.01124152 4:0.0096115564 5:0.040556673 6:0.035114708 7:0.036797486 8:0.044025157 9:0.033268102 10:0.021059146 11:0.021533648 12:0.022704191 
1503.018798828125 0:0.06042885 1:0.047461369 2:0.12179487 3:0.0092705807 4:0.0091926918 5:0.039838904 6:0.040928332 7:0.0428952 8:0.037735849 9:0.054794521 10:0.027410133 11:0.024388777 12:0.019286795 
1503.018798828125 0:0.068226121 1:0.045253863 2:0.17307692 3:0.033056079 4:0.022946948 5:0.069159114 6:0.070492469 7:0.076347267 8:0.056603774 9:0.033268102 10:0.027736961 11:0.040350886 12:0.036366412 
1503.018798828125 0:0.095516569 1:0.067328918 2:0.17948718 3:0.03188974 4:0.025680888 5:0.07541992 6:0.072484461 7:0.068277595 8:0.088050314 9:0.062622309 10:0.038215324 11:0.03653164 12:0.030780728 
1503.018798828125 0:0.17933723 1:0.13410596 2:0.18589744 3:0.050550971 4:0.049055508 5:0.14476649 6:0.12313671 7:0.099120926 8:0.16352201 9:0.12133072 10:0.081650071 11:0.089154481 12:0.059977781 
1503.018798828125 0:0.079922027 1:0.054083885 2:0.032051282 3:0.011277513 4:0.010152274 5:0.034537301 6:0.020683929 7:0.017143203 8:0.088050314 9:0.043052838 10:0.015419724 11:0.014626504 12:0.010973489 
1503.018798828125 0:0.056530214 1:0.045253863 2:0.032051282 3:0.011437695 4:0.012840943 5:0.044479822 6:0.031495203 7:0.023839152 8:0.056603774 9:0.045009785 10:0.027896097 11:0.017037427 12:0.017211062 
1503.018798828125 0:0.064327485 1:0.040286976 2:0.044871795 3:0.016166189 4:0.012121678 5:0.056565602 6:0.036872785 7:0.039309736 8:0.088050314 9:0.031311155 10:0.023458984 11:0.023031517 12:0.023177346 
1503.018798828125 0:0.1871345 1:0.13796909 2:0 3:0.045291305 4:0.045812139 5:0.16030425 6:0.12930003 7:0.11806365 8:0.22641509 9:0.12915851 10:0.090798402 11:0.088817355 12:0.065061574 
1503.018798828125 0:0.019493177 1:0.015452539 2:0.038461538 3:0.0020827217 4:0.0030819003 5:0.012780925 6:0.012129157 7:0.01271204 8:0.012578616 9:0.015655577 10:0.0074874937 11:0.0059832891 12:0.0044786003 
1503.018798828125 0:0.097465887 1:0.072847682 2:0.057692308 3:0.023396926 4:0.023724848 5:0.077816391 6:0.056754829 7:0.063000716 8:0.12578616 9:0.062622309 10:0.046090479 11:0.036279467 12:0.027965707 
1503.018798828125 0:0.062378168 1:0.046909492 2:0.15384615 3:0.016876062 4:0.014738049 5:0.055655991 6:0.048820937 7:0.052198281 8:0.050314465 9:0.043052838 10:0.026610228 11:0.034132213 12:0.026410264 
1503.018798828125 0:0.031189084 1:0.026490066 2:0.044871795 3:0.003574227 4:0.0049987073 5:0.016865384 6:0.013424517 7:0.014069651 8:0.025157233 9:0.02739726 10:0.010407174 11:0.0086091208 12:0.0052743709 
1503.018798828125 0:0.074074074 1:0.055739514 2:0.064102564 3:0.0097692479 4:0.0099486067 5:0.036864415 6:0.023893706 7:0.026564413 8:0.075471698 9:0.058708415 10:0.021591255 11:0.016762119 12:0.017870286 
750.0761071011856 0:0.14619883 1:0.093267108 2:0.044871795 3:0.10787032 4:0.075818458 5:0.19827846 6:0.22681886 7:0.23126992 8:0.037735849 9:0.031311155 10:0.077303157 11:0.10769071 12:0.1189923 
1503.018798828125 0:0.083820663 1:0.057395143 2:0 3:0.0092837093 4:0.0084907319 5:0.039962954 6:0.027893088 7:0.023439846 8:0.06918239 9:0.052837573 10:0.020385868 11:0.010482839 12:0.013011555 
1503.018798828125 0:0.056530214 1:0.035871965 2:0.1025641 3:0.011039466 4:0.0084454049 5:0.02684474 6:0.027209556 7:0.028033675 8:0.025157233 9:0.015655577 10:0.013038277 11:0.017493818 12:0.016921688 
1503.018798828125 0:0.038986355 1:0.022075055 2:0.19871795 3:0.018484795 4:0.011876586 5:0.055444131 6:0.061038713 7:0.063972013 8:0.012578616 9:0.0039138943 10:0.018899828 11:0.030110277 12:0.032519304 
1503.018798828125 0:0.021442495 1:0.027041943 2:0.076923077 3:0.0036152494 4:0.0062047785 5:0.030433353 6:0.036387471 7:0.026076422 8:0.0062893082 9:0.035225049 10:0.025259263 11:0.025725859 12:0.018722045 
1503.018798828125 0:0.064327485 1:0.036423841 2:0.051282051 3:0.017144025 4:0.011015134 5:0.043131039 6:0.031064406 7:0.01672792 8:0.094339623 9:0.029354207 10:0.014702534 11:0.015167173 12:0.0064460938 
1503.018798828125 0:0.054580897 1:0.030905077 2:0.15384615 3:0.015819683 4:0.010164236 5:0.048388446 6:0.052328723 7:0.047081072 8:0.044025157 9:0.01369863 10:0.016494682 11:0.020068272 12:0.021578019 
1503.018798828125 0:0.056530214 1:0.033664459 2:0.064102564 3:0.0081810536 4:0.0056570524 5:0.02888101 6:0.021302807 7:0.020984496 8:0.044025157 9:0.017612524 10:0.011126127 11:0.011908835 12:0.0093587802 
1503.018798828125 0:0.033138402 1:0.022075055 2:0.032051282 3:0.0045264021 4:0.003987136 5:0.011566648 6:0.010327606 7:0.010823914 8:0.012578616 9:0.015655577 10:0.0052729606 11:0.0065275729 12:0.0012052191 
1503.018798828125 0:0.021442495 1:0.01214128 2:0.12179487 3:0.0071185818 4:0.0045737292 5:0.030643968 6:0.036639291 7:0.038400043 8:0 9:0 10:0.010445934 11:0.01807409 12:0.01634994 
1503.018798828125 0:0.064327485 1:0.041390728 2:0 3:0.011277315 4:0.0092470764 5:0.044668905 6:0.025453994 7:0.0245773 8:0.088050314 9:0.039138943 10:0.01848804 11:0.015631326 12:0.011195692 
1503.018798828125 0:0.038986355 1:0.023730684 2:0.051282051 3:0.0063942209 4:0.0046227794 5:0.025645588 6:0.015461703 7:0.016204736 8:0.050314465 9:0.023483366 10:0.010375236 11:0.0076272274 12:0.0053400451 
1503.018798828125 0:0.06042885 1:0.048565121 2:0.025641026 3:0.0099118472 4:0.011370341 5:0.042104157 6:0.031381596 7:0.038302276 8:0.06918239 9:0.04109589 10:0.025464869 11:0.021441657 12:0.027380672 
1503.018798828125 0:0.13060429 1:0.093818985 2:0 3:0.017831563 4:0.017367226 5:0.048856955 6:0.042350272 7:0.033727927 8:0.11949686 9:0.095890411 10:0.028039836 11:0.018888231 12:0.016202578 
1503.018798828125 0:0.029239766 1:0.018211921 2:0.16666667 3:0.014933578 4:0.0099352128 5:0.044008885 6:0.050631063 7:0.053064209 8:0.012578616 9:0.0078277886 10:0.018867987 11:0.022300394 12:0.023374026 
1503.018798828125 0:0.064327485 1:0.03807947 2:0 3:0.0085743138 4:0.0060239105 5:0.035725267 6:0.024669634 7:0.03349834 8:0.044025157 9:0.021526419 10:0.012810685 11:0.015692845 12:0.012257339 
1503.018798828125 0:0.066276803 1:0.049116998 2:0.057692308 3:0.009949872 4:0.01089617 5:0.039548079 6:0.030658316 7:0.035583177 8:0.06918239 9:0.045009785 10:0.024639277 11:0.024191062 12:0.020394851 
1503.018798828125 0:0.050682261 1:0.036423841 2:0 3:0.0075397046 4:0.0074779912 5:0.029431674 6:0.0254124 7:0.016527666 8:0.037735849 9:0.02739726 10:0.015646565 11:0.011554148 12:0.010830848 
521.0577612628995 0:0.11890838 1:0.16390728 2:0.17948718 3:0.062748971 4:0.078291526 5:0.17399902 6:0.14236884 7:0.10776622 8:0.075471698 9:0.15655577 10:0.16033502 11:0.14704796 12:0.12792208 
1503.018798828125 0:0.1539961 1:0.09602649 2:0.21794872 3:0.059305179 4:0.040172968 5:0.095719265 6:0.084261721 7:0.085162436 8:0.075471698 9:0.10763209 10:0.061953965 11:0.046539324 12:0.054712331 
1503.018798828125 0:0.11890838 1:0.087748344 2:0.15384615 3:0.080982288 4:0.070856475 5:0.12435901 6:0.12928054 7:0.082212783 8:0.025157233 9:0.1037182 10:0.091203336 11:0.069439839 12:0.076643855 
1503.018798828125 0:0.12670565 1:0.11037528 2:0.25 3:0.055406595 4:0.065405667 5:0.082464952 6:0.077416395 7:0.083274374 8:0.06918239 9:0.099804305 10:0.066435811 11:0.062837847 12:0.056496999 
1503.018798828125 0:0.095516569 1:0.072847682 2:0.032051282 3:0.013855506 4:0.013047005 5:0.045406612 6:0.033063081 7:0.030934799 8:0.075471698 9:0.060665362 10:0.029938943 11:0.023549168 12:0.018201238 
1503.018798828125 0:0.06042885 1:0.082781457 2:0.070512821 3:0.021484519 4:0.047535164 5:0.0675338 6:0.049301292 7:0.068023445 8:0.018867925 9:0.064579256 10:0.063496185 11:0.060779743 12:0.049396609 
1503.018798828125 0:0.12670565 1:0.1285872 2:0.25 3:0.057672195 4:0.063935057 5:0.10825047 6:0.084453401 7:0.079589966 8:0.088050314 9:0.11545988 10:0.10547046 11:0.10395928 12:0.085513524 
1503.018798828125 0:0.097465887 1:0.066777042 2:0 3:0.013005133 4:0.012215919 5:0.061039388 6:0.046019542 7:0.035774228 8:0.10691824 9:0.060665362 10:0.030334669 11:0.030415678 12:0.028290546 
1503.018798828125 0:0.046783626 1:0.029801325 2:0.15384615 3:0.015189345 4:0.010912507 5:0.044930513 6:0.047015154 7:0.049274532 8:0.025157233 9:0.015655577 10:0.01795255 11:0.021854579 12:0.024368741 
1503.018798828125 0:0.031189084 1:0.019315673 2:0.15384615 3:0.012067781 4:0.0079942486 5:0.046625868 6:0.050652403 7:0.049438238 8:0.012578616 9:0.0078277886 10:0.01862768 11:0.02371071 12:0.024891601 
1503.018798828125 0:0.06042885 1:0.036423841 2:0.076923077 3:0.010940343 4:0.0073761537 5:0.038675588 6:0.032687602 7:0.030588162 8:0.075471698 9:0.02739726 10:0.015370818 11:0.013575962 12:0.011166672 
1503.018798828125 0:0.054580897 1:0.039735099 2:0.038461538 3:0.015700865 4:0.013644999 5:0.048284352 6:0.045658493 7:0.039423626 8:0.037735849 9:0.023483366 10:0.024676228 11:0.027190952 12:0.025429488 
1503.018798828125 0:0.01754386 1:0.011589404 2:0.13461538 3:0.0066824489 4:0.0045501181 5:0.033835965 6:0.040455784 7:0.042399943 8:0 9:0.0039138943 10:0.014445305 11:0.017841347 12:0.022252594 
1503.018798828125 0:0.040935673 1:0.024834437 2:0 3:0.019938478 4:0.013037192 5:0.042544642 6:0.045875063 7:0.048079652 8:0.031446541 9:0.01369863 10:0.015401364 11:0.022972333 12:0.023125985 
1503.018798828125 0:0.029239766 1:0.022075055 2:0.038461538 3:0.0053140045 4:0.0050974786 5:0.017709961 6:0.013872975 7:0.0041862497 8:0.031446541 9:0.021526419 10:0.011134016 11:0.005110128 12:0.0044624795 
1503.018798828125 0:0.072124756 1:0.071743929 2:0.032051282 3:0.011839682 4:0.023515845 5:0.062521073 6:0.035778523 7:0.025656433 8:0.094339623 9:0.072407045 10:0.051799672 11:0.038644887 12:0.034442425 
1503.018798828125 0:0.15789474 1:0.12527594 2:0.038461538 3:0.047270575 4:0.048519474 5:0.13234969 6:0.12960711 7:0.1231067 8:0.1509434 9:0.11741683 10:0.079766653 11:0.078057408 12:0.06190141 
1503.018798828125 0:0.066276803 1:0.076710817 2:0.070512821 3:0.011358279 4:0.031140247 5:0.057822951 6:0.041768733 7:0.028452396 8:0.11320755 9:0.10567515 10:0.054067706 11:0.036810792 12:0.035246288 
1503.018798828125 0:0.091617934 1:0.064569536 2:0.26923077 3:0.049590529 4:0.035982656 5:0.094812064 6:0.097225541 7:0.097877949 8:0.10062893 9:0.054794521 10:0.041672936 11:0.049066352 12:0.051452029 
1503.018798828125 0:0.038986355 1:0.027593819 2:0 3:0.011113656 4:0.0079910848 5:0.057832269 6:0.061488966 7:0.057556211 8:0.0062893082 9:0.01369863 10:0.024471648 11:0.036002079 12:0.031712091 
1503.018798828125 0:0.029239766 1:0.018211921 2:0.17948718 3:0.015689185 4:0.01032753 5:0.045621843 6:0.054547504 7:0.05716886 8:0 9:0.0039138943 10:0.018462884 11:0.025016094 12:0.026667902 
1503.018798828125 0:0.019493177 1:0.012693157 2:0.13461538 3:0.0075881159 4:0.0051391586 5:0.034550756 6:0.041310421 7:0.04329565 8:0 9:0.0039138943 10:0.014462486 11:0.017386705 12:0.019386881 
1503.018798828125 0:0.076023392 1:0.064569536 2:0.1025641 3:0.0094480217 4:0.013296807 5:0.065349102 6:0.069532478 7:0.067669474 8:0.044025157 9:0.04109589 10:0.04945115 11:0.058638772 12:0.04300929 
1503.018798828125 0:0.031189084 1:0.020971302 2:0.12820513 3:0.0072684894 4:0.0051799743 5:0.032279449 6:0.038594744 7:0.040449468 8:0 9:0.015655577 10:0.014291215 11:0.019538091 12:0.020099091 
1503.018798828125 0:0.01754386 1:0.011589404 2:0.12179487 3:0.006358882 4:0.004342861 5:0.030475594 6:0.036437975 7:0.038189053 8:0 9:0.0039138943 10:0.012895887 11:0.016082699 12:0.02004261 
1503.018798828125 0:0.044834308 1:0.027041943 2:0 3:0.0024552944 4:0.0017144683 5:0.012143971 6:0.0097788403 7:0.010248776 8:0.012578616 9:0.0078277886 10:0.0045925994 11:0.0048238826 12:0.0031646226 
1503.018798828125 0:0.027290448 1:0.017108168 2:0.15384615 3:0.012922031 4:0.008545696 5:0.038528889 6:0.046066853 7:0.048280659 8:0 9:0.0039138943 10:0.015679956 11:0.023670729 12:0.025338948 
1503.018798828125 0:0.025341131 1:0.017660044 2:0.044871795 3:0.0019018759 4:0.0017318943 5:0.011341842 6:0.01356081 7:0.014212494 8:0 9:0.015655577 10:0.0071539922 11:0.0057434798 12:0.0074590869 
1503.018798828125 0:0.0097465887 1:0.0055187638 2:0.064102564 3:0.0019283013 4:0.0012389446 5:0.016746029 6:0.020022297 7:0.020984496 8:0 9:0 10:0.0057083961 11:0.0098769595 12:0.0089034617 
1503.018798828125 0:0.025341131 1:0.020971302 2:0.032051282 3:0.001508343 4:0.0018998268 5:0.0086376899 6:0.010327606 7:0.010823914 8:0 9:0.015655577 10:0.0087539734 11:0.0085055871 12:0.0086643058 
1503.018798828125 0:0.083820663 1:0.054083885 2:0.051282051 3:0.0097905981 4:0.0076777466 5:0.035265796 6:0.025421455 7:0.029714047 8:0.06918239 9:0.04109589 10:0.014106355 11:0.013793437 12:0.012375249 
1503.018798828125 0:0.015594542 1:0.010485651 2:0.12820513 3:0.0055897215 4:0.0041135802 5:0.032478092 6:0.038832251 7:0.040698389 8:0 9:0.0039138943 10:0.014772931 11:0.019155873 12:0.016642034 
1503.018798828125 0:0.033138402 1:0.018763797 2:0.057692308 3:0.0070351103 4:0.0045200983 5:0.02245487 6:0.011612946 7:0.012171022 8:0.056603774 9:0.017612524 10:0.0076544293 11:0.0057286434 12:0.0063876695 
1503.018798828125 0:0.035087719 1:0.039735099 2:0.057692308 3:0.0028637814 4:0.0081085296 5:0.024698914 6:0.024961653 7:0.018200872 8:0.025157233 9:0.048923679 10:0.026214934 11:0.019938601 12:0.022549614 
1503.018798828125 0:0.044834308 1:0.027041943 2:0 3:0.0059739915 4:0.0040978897 5:0.022800168 6:0.015461703 7:0.016204736 8:0.031446541 9:0.01369863 10:0.0080302824 11:0.0076272274 12:0.0076796 
1503.018798828125 0:0.046783626 1:0.028145695 2:0.032051282 3:0.010932823 4:0.0077249547 5:0.034050388 6:0.0154862 7:0.015258428 8:0.075471698 9:0.031311155 10:0.012460465 11:0.0091997361 12:0.0038716202 
1503.018798828125 0:0.023391813 1:0.013245033 2:0.1474359 3:0.0099158028 4:0.0063709596 5:0.03741089 6:0.044730124 7:0.046879692 8:0 9:0 10:0.012752646 11:0.020727377 12:0.018452761 
1503.018798828125 0:0.0097465887 1:0.0071743929 2:0.070512821 3:0.0020861053 4:0.0015102228 5:0.01828817 6:0.02186615 7:0.022916958 8:0 9:0.0039138943 10:0.008132525 11:0.01173257 12:0.0096686452 
1503.018798828125 0:0.019493177 1:0.011037528 2:0.12820513 3:0.0069185324 4:0.0044451963 5:0.032079572 6:0.038355764 7:0.040199003 8:0 9:0 10:0.010935304 11:0.015020195 12:0.018738713 
1503.018798828125 0:0.025341131 1:0.016004415 2:0.1474359 3:0.010575552 4:0.007035483 5:0.037030724 6:0.04427558 7:0.046403305 8:0 9:0.0039138943 10:0.015356881 11:0.019002933 12:0.02118904 
1503.018798828125 0:0.015594542 1:0.010485651 2:0.10897436 3:0.0052691425 4:0.0036586729 5:0.027267637 6:0.032602399 7:0.034169152 8:0 9:0.0039138943 10:0.011979812 11:0.017420603 12:0.014597056 
1503.018798828125 0:0.025341131 1:0.014348786 2:0.20512821 3:0.014811723 4:0.0095166163 5:0.051652096 6:0.061757543 7:0.064725387 8:0 9:0 10:0.017607197 11:0.025113257 12:0.022756103 
1503.018798828125 0:0.050682261 1:0.028697572 2:0 3:0.0062847374 4:0.0040379794 5:0.022380435 6:0.01147905 7:0.014203325 8:0.044025157 9:0.01369863 10:0.0076290557 11:0.0080505116 12:0.0059825185 
1503.018798828125 0:0.0097465887 1:0.0055187638 2:0.064102564 3:0.0018777648 4:0.0012064745 5:0.016039786 6:0.019177882 7:0.020099501 8:0 9:0 10:0.0054676518 11:0.0094604113 12:0.0084389935 
1503.018798828125 0:0.021442495 1:0.013796909 2:0.14102564 3:0.0089505336 4:0.0060080119 5:0.035505581 6:0.042452052 7:0.044492144 8:0 9:0.0039138943 10:0.014610511 11:0.022279418 12:0.021858817 
1503.018798828125 0:0.01754386 1:0.0099337748 2:0.11538462 3:0.0058946112 4:0.0037873212 5:0.029575904 6:0.035362267 7:0.037061649 8:0 9:0 10:0.010081852 11:0.016106233 12:0.019450919 
1503.018798828125 0:0.052631579 1:0.031456954 2:0.025641026 3:0.0056132466 4:0.0038661087 5:0.020716762 6:0.011900461 7:0.011110731 8:0.050314465 9:0.023483366 10:0.0075782371 11:0.0037841645 12:0.0044360678 
1503.018798828125 0:0.081871345 1:0.054635762 2:0.08974359 3:0.01795795 4:0.014309524 5:0.053974379 6:0.050744673 7:0.049163378 8:0.06918239 9:0.04109589 10:0.024301583 11:0.024385962 12:0.022759169 
1503.018798828125 0:0.058479532 1:0.043598234 2:0.057692308 3:0.0070994375 4:0.0081659758 5:0.026063533 6:0.021233682 7:0.018530825 8:0.050314465 9:0.031311155 10:0.017427629 11:0.016636724 12:0.016240356 
1503.018798828125 0:0.01754386 1:0.011589404 2:0.12179487 3:0.0062041146 4:0.0042362775 5:0.030643968 6:0.036639291 7:0.038400043 8:0 9:0.0039138943 10:0.01317976 11:0.015958677 12:0.020153343 
1503.018798828125 0:0.054580897 1:0.035871965 2:0 3:0.01012358 4:0.007712942 5:0.02426928 6:0.022082792 7:0.020868671 8:0.031446541 9:0.021526419 10:0.011634209 11:0.008924934 12:0.009951663 
1503.018798828125 0:0.027290448 1:0.015452539 2:0.044871795 3:0.0061283308 4:0.0039374873 5:0.017422036 6:0.0094648351 7:0.0059651298 8:0.044025157 9:0.01369863 10:0.0059388337 11:0.0028076608 12:0.0052061069 
1503.018798828125 0:0.044834308 1:0.029801325 2:0.051282051 3:0.0097001712 4:0.0083417995 5:0.024837099 6:0.02034703 7:0.020761909 8:0.062893082 9:0.023483366 10:0.014897845 11:0.0099274934 12:0.0099776492 
1503.018798828125 0:0.072124756 1:0.049668874 2:0.025641026 3:0.010440969 4:0.0095372949 5:0.032650829 6:0.023519672 7:0.025686495 8:0.056603774 9:0.048923679 10:0.020380439 11:0.013718608 12:0.0081284756 
1503.018798828125 0:0.019493177 1:0.011037528 2:0.044871795 3:0.0015711158 4:0.0010094508 5:0.020965713 6:0.017396387 7:0.014212494 8:0.037735849 9:0.011741683 10:0.0071468047 11:0.0057434798 12:0.0074590869 
1503.018798828125 0:0.025341131 1:0.016004415 2:0.14102564 3:0.011180775 4:0.0074474625 5:0.03810136 6:0.042581809 7:0.044628136 8:0.012578616 9:0.0078277886 10:0.015672818 11:0.018013878 12:0.020086204 
1503.018798828125 0:0.091617934 1:0.059050773 2:0.025641026 3:0.0082970633 4:0.0068995045 5:0.035209458 6:0.017725577 7:0.019397969 8:0.10062893 9:0.043052838 10:0.018945831 11:0.011938502 12:0.0067763702 
1503.018798828125 0:0.085769981 1:0.062913907 2:0 3:0.0074268161 4:0.0086809726 5:0.027809581 6:0.028646013 7:0.02207966 8:0.044025157 9:0.037181996 10:0.020133545 11:0.019272095 12:0.014543969 
1503.018798828125 0:0.11306043 1:0.076710817 2:0 3:0.027070071 4:0.024034422 5:0.082723351 6:0.06064579 7:0.069065392 8:0.13207547 9:0.064579256 10:0.043682375 11:0.038115507 12:0.032537781 
1503.018798828125 0:0.04288499 1:0.031456954 2:0 3:0.0047627685 4:0.0049952993 5:0.010948851 6:0.013090933 7:0.010049751 8:0.012578616 9:0.023483366 10:0.011101298 11:0.0064577315 12:0.0091825097 
1503.018798828125 0:0.040935673 1:0.025386313 2:0.032051282 3:0.0094590797 4:0.007239237 5:0.027902408 6:0.018453557 7:0.010874604 8:0.062893082 9:0.023483366 10:0.0098176974 11:0.0050323863 12:0.0033571973 
1057.254526951354 0:0.021442495 1:0.017108168 2:0 3:0.0031854627 4:0.003865803 5:0.02037829 6:0.013424517 7:0.014069651 8:0.037735849 9:0.019569472 10:0.011217967 11:0.010266835 12:0.0084389935 
1503.018798828125 0:0.023391813 1:0.013245033 2:0 3:0.0035112137 4:0.0022559747 5:0.024704085 6:0.02186615 7:0.022916958 8:0.025157233 9:0.0078277886 10:0.0084211429 11:0.0089749338 12:0.0064165499 
1503.018798828125 0:0.0097465887 1:0.0055187638 2:0.070512821 3:0.0021542559 4:0.0013841216 5:0.018705445 6:0.022365062 7:0.023439846 8:0 9:0 10:0.0063763232 11:0.011032641 12:0.0099430707 
1503.018798828125 0:0.033138402 1:0.018763797 2:0.12820513 3:0.010998976 4:0.0070669045 5:0.036274824 6:0.039536216 7:0.033396383 8:0.031446541 9:0.0097847358 10:0.012365383 11:0.015718973 12:0.018582166 
1503.018798828125 0:0.019493177 1:0.012693157 2:0.12820513 3:0.0069643259 4:0.0047247175 5:0.03223957 6:0.038547064 7:0.040399496 8:0 9:0.0039138943 10:0.013723669 11:0.016177067 12:0.018038085 
1503.018798828125 0:0.046783626 1:0.028145695 2:0.20512821 3:0.017859279 4:0.011628228 5:0.056114942 6:0.063257944 7:0.066297892 8:0.012578616 9:0.011741683 10:0.020034406 11:0.031988745 12:0.033739987 
1503.018798828125 0:0.031189084 1:0.019315673 2:0.16025641 3:0.011435584 4:0.007606994 5:0.041641706 6:0.049788676 7:0.05218134 8:0 9:0.0078277886 10:0.014711145 11:0.022668574 12:0.027386127 
1503.018798828125 0:0.033138402 1:0.018763797 2:0.1025641 3:0.01354727 4:0.0087041976 5:0.022961958 6:0.015581098 7:0.016329869 8:0.037735849 9:0.011741683 10:0.0078272858 11:0.0095644475 12:0.0085046676 
1503.018798828125 0:0.14424951 1:0.10651214 2:0 3:0.016845005 4:0.017114678 5:0.078098647 6:0.058656574 7:0.047278491 8:0.16352201 9:0.11350294 10:0.04868262 11:0.035522995 12:0.035858906 
80.03918051554248 0:0.3411306 1:0.29470199 2:0.08974359 3:0.25073921 4:0.20647903 5:0.2872124 6:0.29596719 7:0.30357605 8:0.13836478 9:0.35420744 10:0.23520257 11:0.22041082 12:0.20934047 
1503.018798828125 0:0.06042885 1:0.043046358 2:0.33333333 3:0.044514923 4:0.035619601 5:0.084692499 6:0.10126212 7:0.10612841 8:0 9:0.058708415 10:0.063387083 11:0.051844486 12:0.055698954 
1503.018798828125 0:0.099415205 1:0.086644592 2:0.26923077 3:0.047222003 4:0.042376273 5:0.077674921 6:0.081364861 7:0.085274962 8:0.025157233 9:0.082191781 10:0.057680768 11:0.051650416 12:0.056473016 
636.1738747058114 0:0.17348928 1:0.26931567 2:0.23076923 3:0.064051942 4:0.1633067 5:0.21276663 6:0.17021922 7:0.11929469 8:0.10062893 9:0.21722114 10:0.22320922 11:0.24032658 12:0.16272268 
1503.018798828125 0:0.079922027 1:0.078918322 2:0.20512821 3:0.030941592 4:0.032044748 5:0.069193281 6:0.072566903 7:0.064943478 8:0.031446541 9:0.078277886 10:0.058910556 11:0.051586701 12:0.050095289 
73.82791198638728 0:0.51267057 1:0.4696468 2:0.076923077 3:0.33590927 4:0.35027998 5:0.42617973 6:0.41088901 7:0.36556269 8:0.25786164 9:0.45009785 10:0.34656716 11:0.2807101 12:0.28944157 
1503.018798828125 0:0.15789474 1:0.1495585 2:0.11538462 3:0.037091821 4:0.057628548 5:0.10003409 6:0.079373455 7:0.11115975 8:0.050314465 9:0.12720157 10:0.08776286 11:0.079895906 12:0.075654065 
1503.018798828125 0:0.087719298 1:0.066777042 2:0.070512821 3:0.011350377 4:0.014394197 5:0.04409753 6:0.025917609 7:0.031025548 8:0.062893082 9:0.052837573 10:0.03301826 11:0.034211359 12:0.025358593 
1503.018798828125 0:0.062378168 1:0.043046358 2:0 3:0.0098612244 4:0.0093034155 5:0.058405854 6:0.059950618 7:0.073188541 8:0.018867925 9:0.019569472 10:0.027640477 11:0.039233806 12:0.03284419 
1503.018798828125 0:0.099415205 1:0.059602649 2:0 3:0.020475593 4:0.01402927 5:0.072717513 6:0.055053087 7:0.034580736 8:0.10062893 9:0.035225049 10:0.029893188 11:0.024714404 12:0.027215866 
1503.018798828125 0:0.10136452 1:0.097682119 2:0.1025641 3:0.020808521 4:0.03985587 5:0.12642158 6:0.11076348 7:0.095422111 8:0.10062893 9:0.090019569 10:0.092789778 11:0.11444505 12:0.10091575 
555.0005249995621 0:0.11500975 1:0.1098234 2:0.25 3:0.04589761 4:0.060962712 5:0.13138384 6:0.12300664 7:0.11909251 8:0.088050314 9:0.13307241 10:0.087911841 11:0.08381567 12:0.082995997 
1503.018798828125 0:0.13645224 1:0.084437086 2:0.33974359 3:0.06769448 4:0.044514474 5:0.10876061 6:0.11251075 7:0.11389771 8:0.075471698 9:0.037181996 10:0.041790401 11:0.059877069 12:0.064775494 
1503.018798828125 0:0.048732943 1:0.03807947 2:0.064102564 3:0.0085299828 4:0.010147062 5:0.032309553 6:0.023580415 7:0.021091751 8:0.037735849 9:0.039138943 10:0.017443325 11:0.014604762 12:0.016025179 
1503.018798828125 0:0.01754386 1:0.0099337748 2:0.11538462 3:0.0056816842 4:0.0036505143 5:0.029269863 6:0.034996349 7:0.036678147 8:0 9:0 10:0.0099775279 11:0.015371548 12:0.019249647 
1503.018798828125 0:0.019493177 1:0.011037528 2:0.12179487 3:0.0063592854 4:0.004085877 5:0.030517776 6:0.03648841 7:0.038241911 8:0 9:0 10:0.010402917 11:0.01458866 12:0.018578532 
1503.018798828125 0:0.056530214 1:0.042494481 2:0 3:0.01194984 4:0.013353696 5:0.042572136 6:0.02608474 7:0.031114535 8:0.088050314 9:0.046966732 10:0.025055091 11:0.018582578 12:0.015997975 
1503.018798828125 0:0.17738791 1:0.13465784 2:0 3:0.046165885 4:0.05568989 5:0.15700813 6:0.11504961 7:0.08788108 8:0.24528302 9:0.12720157 10:0.083851616 11:0.087993864 12:0.058359092 
1503.018798828125 0:0.027290448 1:0.017108168 2:0.13461538 3:0.01018086 4:0.006654695 5:0.035031423 6:0.041885127 7:0.043897975 8:0 9:0.0058708415 10:0.014261259 11:0.021999754 12:0.023038801 
1503.018798828125 0:0.052631579 1:0.036423841 2:0 3:0.0078941728 4:0.0072586819 5:0.040300263 6:0.027923417 7:0.029265316 8:0.056603774 9:0.029354207 10:0.021117929 11:0.017505561 12:0.013867382 
1503.018798828125 0:0.0097465887 1:0.0055187638 2:0.064102564 3:0.0019497008 4:0.0012526938 5:0.016357437 6:0.019557679 7:0.02049755 8:0 9:0 10:0.0055759326 11:0.0096477644 12:0.0083988775 
1503.018798828125 0:0.0058479532 1:0.0033112583 2:0.038461538 3:0.00076377481 4:0.00049072965 5:0.0096238717 6:0.011506729 7:0.012059701 8:0 9:0 10:0.0032805911 11:0.0035608345 12:0 
1503.018798828125 0:0.0019493177 1:0.0011037528 2:0.064102564 3:0.0011849998 4:0.0007613691 5:0.0030416296 6:0.0036367076 7:0.0038114746 8:0 9:0 10:0.0010368325 11:0 12:0 
1503.018798828125 0:0.0097465887 1:0.0055187638 2:0.064102564 3:0.0018725987 4:0.0012031553 5:0.016039786 6:0.019177882 7:0.020099501 8:0 9:0 10:0.0054676518 11:0.0094604113 12:0.0084389935 
1503.018798828125 0:0.007797271 1:0.004415011 2:0.051282051 3:0.0012631345 4:0.00081157109 5:0.012831829 6:0.015342305 7:0.016079601 8:0 9:0 10:0.0043741214 11:0.0037841645 12:0.0084389935 
1503.018798828125 0:0.0058479532 1:0.0033112583 2:0.038461538 3:0.00074903947 4:0.00048126211 5:0.0096238717 6:0.011506729 7:0.012059701 8:0 9:0 10:0.0032805911 11:0.0037841645 12:0 
1503.018798828125 0:0.097465887 1:0.081125828 2:0.28846154 3:0.047394443 4:0.041221477 5:0.10593246 6:0.098448615 7:0.09100436 8:0.094339623 9:0.068493151 10:0.059225816 11:0.068402768 12:0.066212775 
1503.018798828125 0:0.056530214 1:0.048565121 2:0.038461538 3:0.016867383 4:0.019098008 5:0.047599285 6:0.047190806 7:0.040429081 8:0.056603774 9:0.052837573 10:0.033069206 11:0.022880991 12:0.033713543 
1503.018798828125 0:0.097465887 1:0.056843267 2:0.25641026 3:0.040690877 4:0.026689358 5:0.10102084 6:0.10234349 7:0.094189976 8:0.050314465 9:0.019569472 10:0.035503236 11:0.045745782 12:0.041650191 
1503.018798828125 0:0.04288499 1:0.033664459 2:0.16025641 3:0.015051689 4:0.014230852 5:0.046643493 6:0.048097882 7:0.050409292 8:0.025157233 9:0.02739726 10:0.026488598 11:0.022192305 12:0.025114228 
1503.018798828125 0:0.089668616 1:0.059050773 2:0.20512821 3:0.029478335 4:0.022137477 5:0.066150082 6:0.071687934 7:0.066546728 8:0.062893082 9:0.039138943 10:0.029627631 11:0.033791284 12:0.037792217 
1503.018798828125 0:0.076023392 1:0.048013245 2:0.29487179 3:0.038821871 4:0.026565841 5:0.093925906 6:0.097444949 7:0.093435662 8:0.037735849 9:0.023483366 10:0.03654562 11:0.048371434 12:0.047270085 
1503.018798828125 0:0.044834308 1:0.027041943 2:0.24358974 3:0.030616998 4:0.02018205 5:0.06639426 6:0.074695327 7:0.078284914 8:0.012578616 9:0.0078277886 10:0.02637325 11:0.037967851 12:0.038727191 
1503.018798828125 0:0.035087719 1:0.021523179 2:0.27564103 3:0.025500322 4:0.016698854 5:0.06898973 6:0.08248719 7:0.086451226 8:0 9:0.0039138943 10:0.026686796 11:0.038014961 12:0.041568451 
1503.018798828125 0:0.033138402 1:0.018763797 2:0.08974359 3:0.010814199 4:0.0069481844 5:0.030165144 6:0.013697026 7:0.014355255 8:0.050314465 9:0.015655577 10:0.010282712 11:0.0073767937 12:0.0075340118 
1503.018798828125 0:0.064327485 1:0.038631347 2:0.057692308 3:0.01624074 4:0.011458186 5:0.04804047 6:0.029219706 7:0.024690932 8:0.081761006 9:0.033268102 10:0.018225169 11:0.01415161 12:0.0083325575 
1503.018798828125 0:0.021442495 1:0.013796909 2:0.13461538 3:0.0079932308 4:0.0053623018 5:0.034550756 6:0.041310421 7:0.04329565 8:0 9:0.0039138943 10:0.013449648 11:0.021716253 12:0.021230868 
1503.018798828125 0:0.050682261 1:0.035320088 2:0.019230769 3:0.0076773198 4:0.0068820245 5:0.024465662 6:0.023808832 7:0.020734856 8:0.031446541 9:0.033268102 10:0.013666747 11:0.011545224 12:0.0041361607 
1503.018798828125 0:0.07797271 1:0.061810155 2:0.12179487 3:0.010997981 4:0.013312368 5:0.050363597 6:0.044027418 7:0.045490874 8:0.075471698 9:0.066536204 10:0.034252839 11:0.023688214 12:0.025738055 
1503.018798828125 0:0.087719298 1:0.051324503 2:0.34615385 3:0.06648027 4:0.043294844 5:0.096019289 6:0.10535803 7:0.10855592 8:0.025157233 9:0.015655577 10:0.034245831 11:0.053143657 12:0.052631874 
1503.018798828125 0:0.027290448 1:0.015452539 2:0.13461538 3:0.0082980176 4:0.0053315234 5:0.034699364 6:0.041488103 7:0.043481871 8:0 9:0 10:0.01182834 11:0.020465999 12:0.022820419 
1503.018798828125 0:0.04288499 1:0.024282561 2:0.26282051 3:0.030617423 4:0.019671868 5:0.067156729 6:0.080295572 7:0.084154287 8:0 9:0 10:0.022892425 11:0.036198646 12:0.038485689 
1503.018798828125 0:0.04288499 1:0.02593819 2:0.25641026 3:0.032236433 4:0.020978801 5:0.070422814 6:0.078348162 7:0.082113292 8:0.0062893082 9:0.0058708415 10:0.02651312 11:0.035810871 12:0.040736423 
1503.018798828125 0:0.10136452 1:0.06401766 2:0.019230769 3:0.019675628 4:0.014029768 5:0.064520111 6:0.062554649 7:0.06096801 8:0.075471698 9:0.043052838 10:0.02572449 11:0.026696475 12:0.034107348 
1503.018798828125 0:0.038986355 1:0.034216336 2:0.083333333 3:0.0079110527 4:0.0093744729 5:0.027691986 6:0.025586486 7:0.02681608 8:0.025157233 9:0.031311155 10:0.017335168 11:0.018035098 12:0.018618048 
1503.018798828125 0:0.064327485 1:0.045253863 2:0.038461538 3:0.003378037 4:0.0041592043 5:0.017065036 6:0.01656814 7:0.017364344 8:0.018867925 9:0.025440313 10:0.011676806 11:0.0092876055 12:0.0091132603 
1503.018798828125 0:0.074074074 1:0.046909492 2:0.12179487 3:0.013130053 4:0.0096326799 5:0.04687589 6:0.043330301 7:0.042419943 8:0.044025157 9:0.021526419 10:0.018424289 11:0.025289575 12:0.022263091 
1503.018798828125 0:0.038986355 1:0.042494481 2:0.044871795 3:0.0066769966 4:0.011908425 5:0.037271907 6:0.040728374 7:0.027174912 8:0.025157233 9:0.035225049 10:0.028281288 11:0.030981995 12:0.031710771 
1503.018798828125 0:0.025341131 1:0.014348786 2:0.1474359 3:0.0095730273 4:0.0061507244 5:0.037753173 6:0.045139373 7:0.047308608 8:0 9:0 10:0.012869324 11:0.018366536 12:0.019148119 
1503.018798828125 0:0.021442495 1:0.01214128 2:0.14102564 3:0.0082796772 4:0.0053197396 5:0.035433044 6:0.042365324 7:0.044401248 8:0 9:0 10:0.012078437 11:0.020898731 12:0.018953573 
1503.018798828125 0:0.01754386 1:0.0099337748 2:0.11538462 3:0.0056701014 4:0.0036430723 5:0.028916135 6:0.034573417 7:0.03623489 8:0 9:0 10:0.009856949 11:0.015162916 12:0.019017014 
1503.018798828125 0:0.040935673 1:0.026490066 2:0.11538462 3:0.013981145 4:0.0094426846 5:0.035431288 6:0.037492904 7:0.038136121 8:0.018867925 9:0.015655577 10:0.014316875 11:0.017003827 12:0.02001483 
1503.018798828125 0:0.040935673 1:0.036975717 2:0.19230769 3:0.01850156 4:0.015155272 5:0.0627828 6:0.057533645 7:0.060298504 8:0.025157233 9:0.02739726 10:0.035308945 11:0.034506654 12:0.037129504 
1503.018798828125 0:0.046783626 1:0.028145695 2:0.051282051 3:0.010564959 4:0.0069983036 5:0.028592939 6:0.019295538 7:0.017771569 8:0.044025157 9:0.017612524 10:0.012292983 11:0.010063906 12:0.0096406863 
1503.018798828125 0:0.068226121 1:0.040286976 2:0.16666667 3:0.057816633 4:0.03744449 5:0.090009239 6:0.10761905 7:0.10581085 8:0.0062893082 9:0.0058708415 10:0.033367205 11:0.052777726 12:0.051146928 
1503.018798828125 0:0.011695906 1:0.0082781457 2:0.051282051 3:0.0013984934 4:0.0016906275 5:0.013610209 6:0.016272972 7:0.017054992 8:0 9:0.0039138943 10:0.0076345996 11:0.010598417 12:0.0089509039 
1503.018798828125 0:0.068226121 1:0.04415011 2:0.038461538 3:0.0094443214 4:0.006946269 5:0.035346342 6:0.019023144 7:0.01647765 8:0.088050314 9:0.045009785 10:0.016523905 11:0.0095714324 12:0.0092007778 
1503.018798828125 0:0.048732943 1:0.032560706 2:0.057692308 3:0.0099056439 4:0.0067846831 5:0.030690718 6:0.026458646 7:0.018530825 8:0.044025157 9:0.025440313 10:0.016640625 11:0.011827921 12:0.011053153 
1503.018798828125 0:0.12280702 1:0.088852097 2:0 3:0.016723213 4:0.016044452 5:0.07317707 6:0.050436825 7:0.042347053 8:0.13207547 9:0.084148728 10:0.042135162 11:0.034713138 12:0.022865556 
1503.018798828125 0:0.10526316 1:0.072847682 2:0 3:0.014246021 4:0.013406587 5:0.061156494 6:0.038444061 7:0.030002813 8:0.14465409 9:0.072407045 10:0.03519226 11:0.022648402 12:0.01699011 
1503.018798828125 0:0.07797271 1:0.068432671 2:0.051282051 3:0.018477082 4:0.023899559 5:0.079521659 6:0.059672377 7:0.05451992 8:0.081761006 9:0.068493151 10:0.055377444 11:0.047134331 12:0.047251876 
1503.018798828125 0:0.058479532 1:0.041942605 2:0 3:0.015621808 4:0.013580188 5:0.076289612 6:0.076633065 7:0.074590156 8:0.018867925 9:0.025440313 10:0.031598071 11:0.039239649 12:0.037538317 
1503.018798828125 0:0.066276803 1:0.041390728 2:0 3:0.021128827 4:0.014382824 5:0.069166145 6:0.069146834 7:0.07246978 8:0.018867925 9:0.01369863 10:0.026908208 11:0.0392625 12:0.035675261 
1503.018798828125 0:0.062378168 1:0.039183223 2:0.11538462 3:0.01551786 4:0.011008903 5:0.051475455 6:0.046994092 7:0.040665898 8:0.050314465 9:0.023483366 10:0.021722065 11:0.02245688 12:0.019772557 
1503.018798828125 0:0.081871345 1:0.052428256 2:0 3:0.059045952 4:0.039795695 5:0.100023 6:0.10808522 7:0.10355405 8:0.056603774 9:0.029354207 10:0.041955843 11:0.059712906 12:0.04965758 
1503.018798828125 0:0.040935673 1:0.024834437 2:0.26923077 3:0.029437139 4:0.019170772 5:0.067975392 6:0.081274402 7:0.085180155 8:0 9:0.0039138943 10:0.025678841 11:0.03820042 12:0.04321295 
897.5652063193721 0:0.13645224 1:0.11037528 2:0.32692308 3:0.080142042 4:0.074093847 5:0.17012333 6:0.18050278 7:0.1891771 8:0.094339623 9:0.1037182 10:0.091264131 11:0.10830563 12:0.0952293 
1503.018798828125 0:0.04288499 1:0.030353201 2:0.13461538 3:0.013382995 4:0.011471072 5:0.043269566 6:0.041488103 7:0.043481871 8:0.050314465 9:0.02739726 10:0.019527476 11:0.019497831 12:0.020685997 
1503.018798828125 0:0.062378168 1:0.043598234 2:0 3:0.023596522 4:0.018405646 5:0.072669121 6:0.073486014 7:0.060785822 8:0.031446541 9:0.025440313 10:0.035019877 11:0.044145155 12:0.044179991 
1503.018798828125 0:0.033138402 1:0.022075055 2:0.08974359 3:0.010574066 4:0.0087597528 5:0.030783652 6:0.028509971 7:0.029880057 8:0.037735849 9:0.015655577 10:0.01253961 11:0.016585872 12:0.0078532976 
1503.018798828125 0:0.044834308 1:0.028697572 2:0 3:0.0098768865 4:0.0072888152 5:0.036537906 6:0.037038641 7:0.038818584 8:0.025157233 9:0.015655577 10:0.016753154 11:0.018271089 12:0.020373004 
1503.018798828125 0:0.035087719 1:0.024834437 2:0.025641026 3:0.0040586677 4:0.0042057984 5:0.014854499 6:0.010089547 7:0.0089887704 8:0.025157233 9:0.017612524 10:0.0071127299 11:0.0056513073 12:0.0026665785 
1503.018798828125 0:0.06042885 1:0.035871965 2:0.1025641 3:0.01236816 4:0.0084918524 5:0.037051001 6:0.036135248 7:0.035351768 8:0.037735849 9:0.015655577 10:0.014010066 11:0.015810032 12:0.019876095 
1503.018798828125 0:0.023391813 1:0.014900662 2:0.14102564 3:0.010821715 4:0.0072273975 5:0.036293892 6:0.043394592 7:0.045479979 8:0 9:0.0039138943 10:0.015767898 11:0.019291056 12:0.021510309 
1503.018798828125 0:0.01754386 1:0.011589404 2:0.13461538 3:0.0070169542 4:0.0047445061 5:0.034326641 6:0.041042459 7:0.043014811 8:0 9:0.0039138943 10:0.013373251 11:0.018130753 12:0.022575293 
1503.018798828125 0:0.027290448 1:0.018763797 2:0.17948718 3:0.014527884 4:0.010232135 5:0.046977877 6:0.053732303 7:0.056314483 8:0.0062893082 9:0.0097847358 10:0.022383174 11:0.02745208 12:0.027196537 
1503.018798828125 0:0.025341131 1:0.014348786 2:0.1474359 3:0.0094842168 4:0.0060936631 5:0.038024782 6:0.04546412 7:0.047648962 8:0 9:0 10:0.01296191 11:0.019016362 12:0.017400611 
1503.018798828125 0:0.062378168 1:0.040838852 2:0.076923077 3:0.015836615 4:0.013329012 5:0.04228126 6:0.034819293 7:0.027603433 8:0.056603774 9:0.025440313 10:0.020482313 11:0.016201541 12:0.014867912 
833.459677518912 0:0.072124756 1:0.049116998 2:0.044871795 3:0.013282488 4:0.011684281 5:0.044019131 6:0.025934876 7:0.017973002 8:0.12578616 9:0.062622309 10:0.020430236 11:0.0073008114 12:0.0088881734 
1503.018798828125 0:0.066276803 1:0.046357616 2:0.051282051 3:0.012318939 4:0.011445839 5:0.04767996 6:0.032968792 7:0.026382436 8:0.088050314 9:0.050880626 10:0.023296169 11:0.018309092 12:0.015645621 
1503.018798828125 0:0.031189084 1:0.017660044 2:0.17307692 3:0.013458499 4:0.008647162 5:0.043337117 6:0.051815784 7:0.054305863 8:0 9:0 10:0.014772782 11:0.022884815 12:0.025517496 
1503.018798828125 0:0.033138402 1:0.020419426 2:0.044871795 3:0.0071925355 4:0.0048683841 5:0.020880925 6:0.017362595 7:0.018196978 8:0.031446541 9:0.01369863 10:0.010029185 11:0.0076355621 12:0.0074405005 
1503.018798828125 0:0.044834308 1:0.033664459 2:0.10897436 3:0.0099557687 4:0.0088215011 5:0.033340249 6:0.033715433 7:0.033058885 8:0.044025157 9:0.043052838 10:0.014817827 11:0.018050798 12:0.017873032 
1503.018798828125 0:0.033138402 1:0.020419426 2:0.044871795 3:0.0060960841 4:0.0045011472 5:0.018064631 6:0.010369301 7:0.012270678 8:0.044025157 9:0.017612524 10:0.0068433983 11:0.0057755491 12:0.0043810393 
1503.018798828125 0:0.027290448 1:0.017108168 2:0.17307692 3:0.013885014 4:0.0091314576 5:0.044595221 6:0.05332003 7:0.055882397 8:0 9:0.0039138943 10:0.017747851 11:0.027248707 12:0.029328538 
1503.018798828125 0:0.023391813 1:0.015452539 2:0 3:0.0057253684 4:0.0051921075 5:0.031824016 6:0.026275431 7:0.021366063 8:0.025157233 9:0.011741683 10:0.013231426 11:0.01159122 12:0.016231115 
1503.018798828125 0:0.052631579 1:0.034768212 2:0.20512821 3:0.033590588 4:0.022876498 5:0.061869707 6:0.066262528 7:0.065624177 8:0.018867925 9:0.021526419 10:0.027988537 11:0.034710331 12:0.032949461 
1503.018798828125 0:0.06042885 1:0.039183223 2:0.19871795 3:0.025569936 4:0.018057751 5:0.055825632 6:0.061038713 7:0.063972013 8:0.025157233 9:0.019569472 10:0.023389998 11:0.029634513 12:0.03146443 
1503.018798828125 0:0.054580897 1:0.030905077 2:0 3:0.0094822691 4:0.0060924117 5:0.038530507 6:0.03091234 7:0.02696631 8:0.044025157 9:0.01369863 10:0.013134302 11:0.012639586 12:0.009544162 
1503.018798828125 0:0.17153996 1:0.15121413 2:0.12179487 3:0.055475682 4:0.065057552 5:0.17250322 6:0.13899164 7:0.12775906 8:0.17610063 9:0.1409002 10:0.10746172 11:0.11798834 12:0.092542547 
1503.018798828125 0:0.066276803 1:0.056291391 2:0.038461538 3:0.01268189 4:0.017482491 5:0.04400324 6:0.021519429 7:0.026114751 8:0.081761006 9:0.056751468 10:0.032799157 11:0.030082553 12:0.020902661 
1503.018798828125 0:0.14230019 1:0.11092715 2:0.11538462 3:0.06366677 4:0.068395627 5:0.18206008 6:0.15873023 7:0.14563312 8:0.16352201 9:0.1037182 10:0.10075602 11:0.10317533 12:0.076620435 
1503.018798828125 0:0.087719298 1:0.078366446 2:0.34615385 3:0.061032316 4:0.062214877 5:0.1207295 6:0.11500513 7:0.10935311 8:0.062893082 9:0.066536204 10:0.069116988 11:0.073581172 12:0.072807936 
1503.018798828125 0:0.12280702 1:0.07781457 2:0.21794872 3:0.066562136 4:0.049896327 5:0.12925741 6:0.10931792 7:0.10310024 8:0.13207547 9:0.056751468 10:0.054541778 11:0.059214724 12:0.060677873 
1503.018798828125 0:0.050682261 1:0.03200883 2:0 3:0.010909245 4:0.0078906064 5:0.051701498 6:0.046727991 7:0.049011297 8:0.044025157 9:0.021526419 10:0.021307266 11:0.029305317 12:0.0276952 
1503.018798828125 0:0.052631579 1:0.037527594 2:0 3:0.010033043 4:0.0082251728 5:0.042808119 6:0.031709731 7:0.026206545 8:0.056603774 9:0.029354207 10:0.022964258 11:0.025711834 12:0.018672894 
1503.018798828125 0:0.085769981 1:0.061258278 2:0.051282051 3:0.013030661 4:0.012478666 5:0.037709155 6:0.033965439 7:0.023545767 8:0.088050314 9:0.062622309 10:0.021853279 11:0.016862603 12:0.01340037 
1503.018798828125 0:0.048732943 1:0.027593819 2:0.30128205 3:0.11769395 4:0.075619029 5:0.082281012 6:0.091169589 7:0.086618972 8:0.0062893082 9:0.0019569472 10:0.028048 11:0.044649905 12:0.047803739 
1503.018798828125 0:0.16569201 1:0.11313466 2:0.38461538 3:0.082357448 4:0.062132914 5:0.17406391 6:0.15521252 7:0.15075956 8:0.18867925 9:0.093933464 10:0.07836359 11:0.073245411 12:0.082182813 
1503.018798828125 0:0.031189084 1:0.033112583 2:0.057692308 3:0.0052821421 4:0.010803351 5:0.019176392 6:0.020903484 7:0.018530825 8:0.037735849 9:0.035225049 10:0.016715361 11:0.011154348 12:0.011995729 
1503.018798828125 0:0.12670565 1:0.075607064 2:0.3974359 3:0.071834572 4:0.047362015 5:0.12870389 6:0.12718531 7:0.13329738 8:0.062893082 9:0.035225049 10:0.046575589 11:0.062740263 12:0.065266216 
1503.018798828125 0:0.040935673 1:0.026490066 2:0.26923077 3:0.031695752 4:0.022055076 5:0.067462511 6:0.080661178 7:0.084537463 8:0 9:0.0078277886 10:0.028304087 11:0.039348532 12:0.044367463 
1503.018798828125 0:0.10331384 1:0.071192053 2:0.27564103 3:0.054806577 4:0.042959962 5:0.10375262 6:0.10129728 7:0.10227228 8:0.050314465 9:0.054794521 10:0.049825395 11:0.050925237 12:0.05391188 
1503.018798828125 0:0.072124756 1:0.055739514 2:0 3:0.016963869 4:0.015731719 5:0.065725989 6:0.053299238 7:0.048653753 8:0.075471698 9:0.058708415 10:0.041632264 11:0.041236879 12:0.032804523 
1503.018798828125 0:0.074074074 1:0.045253863 2:0.19871795 3:0.024016038 4:0.016671028 5:0.070558631 6:0.064484991 7:0.067511342 8:0.050314465 9:0.023483366 10:0.027155203 11:0.035486214 12:0.035295188 
1503.018798828125 0:0.19883041 1:0.17163355 2:0.076923077 3:0.040828937 4:0.063754095 5:0.16348244 6:0.11681245 7:0.096490917 8:0.20754717 9:0.1702544 10:0.11582249 11:0.096694632 12:0.087820538 
1503.018798828125 0:0.13450292 1:0.098233996 2:0.25641026 3:0.054072346 4:0.047893521 5:0.13100793 6:0.14487955 7:0.13422462 8:0.062893082 9:0.074363992 10:0.068527616 11:0.071155188 12:0.075997878 
1503.018798828125 0:0.12280702 1:0.092163355 2:0 3:0.027827901 4:0.034910488 5:0.087175208 6:0.079930025 7:0.072434158 8:0.11320755 9:0.074363992 10:0.059836113 11:0.042087596 12:0.050547952 
1503.018798828125 0:0.066276803 1:0.043598234 2:0.032051282 3:0.0069982008 4:0.0062584581 5:0.028919261 6:0.015548151 7:0.016392163 8:0.056603774 9:0.029354207 10:0.014721668 11:0.010336291 12:0.0091559139 
1503.018798828125 0:0.064327485 1:0.040286976 2:0.038461538 3:0.010134947 4:0.0078678441 5:0.035633627 6:0.026945402 7:0.0202005 8:0.050314465 9:0.02739726 10:0.015070378 11:0.013479467 12:0.012411659 
1503.018798828125 0:0.050682261 1:0.032560706 2:0.032051282 3:0.01052139 4:0.0081219131 5:0.028496503 6:0.022555273 7:0.018176892 8:0.056603774 9:0.025440313 10:0.012449196 11:0.014415691 12:0.0059509218 
1503.018798828125 0:0.064327485 1:0.048565121 2:0.025641026 3:0.011258298 4:0.012397723 5:0.044859463 6:0.035217004 7:0.020082141 8:0.056603774 9:0.04109589 10:0.026684716 11:0.019656492 12:0.016020007 
1503.018798828125 0:0.064327485 1:0.039735099 2:0.032051282 3:0.0068523493 4:0.0052098702 5:0.026402609 6:0.016487419 7:0.017774617 8:0.075471698 9:0.031311155 10:0.010147595 11:0.0088655177 12:0.0089131807 
1503.018798828125 0:0.10331384 1:0.061810155 2:0.41666667 3:0.06267311 4:0.040637872 5:0.11720142 6:0.1286245 7:0.13480573 8:0.037735849 9:0.017612524 10:0.041995918 11:0.066680201 12:0.072241377 
1103.773691528844 0:0.23781676 1:0.1892936 2:0.19230769 3:0.054616981 4:0.06692654 5:0.17963929 6:0.12809588 7:0.10765873 8:0.31446541 9:0.21526419 10:0.10983515 11:0.099719911 12:0.083957924 
1503.018798828125 0:0.072124756 1:0.059050773 2:0.19871795 3:0.021720665 4:0.021102869 5:0.072443873 6:0.071858333 7:0.064147867 8:0.037735849 9:0.046966732 10:0.038802373 11:0.048340062 12:0.042881466 
1503.018798828125 0:0.10916179 1:0.087196468 2:0.0064102564 3:0.0502165 4:0.044936278 5:0.1085085 6:0.086065485 7:0.0780103 8:0.11949686 9:0.088062622 10:0.066136869 11:0.0480273 12:0.043742218 
1503.018798828125 0:0.062378168 1:0.040286976 2:0.18589744 3:0.025161085 4:0.018124497 5:0.065911079 6:0.060365409 7:0.059962578 8:0.06918239 9:0.029354207 10:0.024333484 11:0.031822271 12:0.029363342 
793.4670673723589 0:0.21832359 1:0.15562914 2:0.30769231 3:0.10998831 4:0.094300614 5:0.21133581 6:0.15581212 7:0.13362333 8:0.21383648 9:0.13307241 10:0.1044998 11:0.10441541 12:0.087680872 
1503.018798828125 0:0.074074074 1:0.060154525 2:0.17948718 3:0.028180277 4:0.033700638 5:0.078822855 6:0.091352893 7:0.077823393 8:0.037735849 9:0.046966732 10:0.048974028 11:0.052032648 12:0.051574126 
1503.018798828125 0:0.058479532 1:0.040286976 2:0.044871795 3:0.0094511639 4:0.0090063321 5:0.030114251 6:0.017713829 7:0.017834345 8:0.044025157 9:0.029354207 10:0.013358596 11:0.012662832 12:0.0068434709 
1503.018798828125 0:0.027290448 1:0.017108168 2:0.1474359 3:0.011188791 4:0.0075365756 5:0.038260859 6:0.045746385 7:0.047944791 8:0 9:0.0039138943 10:0.014539955 11:0.022566602 12:0.022803904 
1503.018798828125 0:0.021442495 1:0.013796909 2:0.13461538 3:0.0078620533 4:0.0051648485 5:0.034625138 6:0.041399355 7:0.043388859 8:0 9:0.0058708415 10:0.014122766 11:0.021760126 12:0.021279786 
1503.018798828125 0:0.17348928 1:0.10706402 2:0.051282051 3:0.02963825 4:0.021892161 5:0.064257796 6:0.038186304 7:0.032533039 8:0.1572327 9:0.064579256 10:0.025083987 11:0.026623616 12:0.019323102 
1503.018798828125 0:0.0097465887 1:0.0055187638 2:0.064102564 3:0.0018725987 4:0.0012031553 5:0.016039786 6:0.019177882 7:0.020099501 8:0 9:0 10:0.0054676518 11:0.0094604113 12:0.0084389935 
1503.018798828125 0:0.01754386 1:0.013245033 2:0.051282051 3:0.0020206153 4:0.0017113627 5:0.012931689 6:0.015461703 7:0.016204736 8:0 9:0.015655577 10:0.0077520932 11:0.0077895431 12:0.0074497934 
1503.018798828125 0:0.06042885 1:0.045253863 2:0 3:0.0033823773 4:0.0048226508 5:0.028528115 6:0.02712162 7:0.028472 8:0.031446541 9:0.017612524 10:0.021791126 11:0.02797228 12:0.026867581 
1503.018798828125 0:0.044834308 1:0.030353201 2:0.064102564 3:0.0041387204 4:0.0034170117 5:0.019986156 6:0.020744052 7:0.021740936 8:0.012578616 9:0.02739726 10:0.011184088 11:0.010233 12:0.012963127 
1503.018798828125 0:0.074074074 1:0.051324503 2:0.19230769 3:0.017060646 4:0.013009376 5:0.063410082 6:0.066556015 7:0.065734556 8:0.050314465 9:0.039138943 10:0.031849053 11:0.034062334 12:0.031273482 
1503.018798828125 0:0.076023392 1:0.046357616 2:0 3:0.0029577586 4:0.0023699362 5:0.021947623 6:0.0085766096 7:0.012059701 8:0.031446541 9:0.01369863 10:0.0077396653 11:0.0069066327 12:0.0072031312 
1503.018798828125 0:0.031189084 1:0.019315673 2:0.19871795 3:0.017752618 4:0.011662765 5:0.049904102 6:0.059667564 7:0.062534971 8:0 9:0.0039138943 10:0.019922623 11:0.026442247 12:0.031765107 
1503.018798828125 0:0.046783626 1:0.036423841 2:0.19871795 3:0.024921586 4:0.020621362 5:0.058439134 6:0.059944301 7:0.062825008 8:0.025157233 9:0.02739726 10:0.029917208 11:0.030499779 12:0.030862452 
1503.018798828125 0:0.068226121 1:0.076710817 2:0.24358974 3:0.024354696 4:0.026066372 5:0.095221644 6:0.076453726 7:0.07640455 8:0.037735849 9:0.074363992 10:0.073768647 11:0.065779603 12:0.066497193 
1330.025177214234 0:0.013645224 1:0.014900662 2:0.032051282 3:0.00085689631 4:0.0017459199 5:0.0090734731 6:0.010848648 7:0.011369995 8:0 9:0.023483366 10:0.011849601 11:0.01013662 12:0.0053424052 
1503.018798828125 0:0.01754386 1:0.011589404 2:0.11538462 3:0.0058075618 4:0.0039178919 5:0.030263807 6:0.036184754 7:0.037923663 8:0 9:0.0039138943 10:0.012214787 11:0.016511964 12:0.019903326 
1503.018798828125 0:0.007797271 1:0.0060706402 2:0.044871795 3:0.001090851 4:0.00085441768 5:0.011341842 6:0.01356081 7:0.014212494 8:0 9:0.0058708415 10:0.0050924114 11:0.0053516167 12:0.0074590869 
1503.018798828125 0:0.019493177 1:0.012693157 2:0.14102564 3:0.0079040474 4:0.005351614 5:0.036044935 6:0.043096928 7:0.04516801 8:0 9:0.0039138943 10:0.014971823 11:0.018267985 12:0.020369544 
1503.018798828125 0:0.025341131 1:0.016004415 2:0.17948718 3:0.012761737 4:0.0084560952 5:0.04618233 6:0.055217648 7:0.057871209 8:0 9:0.0039138943 10:0.018653942 11:0.024247111 12:0.027036511 
1503.018798828125 0:0.013645224 1:0.013245033 2:0 3:0.0011068958 4:0.0021758732 5:0.016929831 6:0.011665451 7:0.012226051 8:0.025157233 9:0.015655577 10:0.010820835 11:0.0086590972 12:0.0052743709 
1503.018798828125 0:0.0058479532 1:0.0033112583 2:0.038461538 3:0.0007836762 4:0.0005035164 5:0.0097566221 6:0.011665451 7:0.012226051 8:0 9:0 10:0.0033258431 11:0.0038624619 12:0 
1503.018798828125 0:0.01754386 1:0.0099337748 2:0.11538462 3:0.0055855526 4:0.0035887493 5:0.030136022 6:0.036031968 7:0.037763534 8:0 9:0 10:0.010272785 11:0.015882416 12:0.019819286 
1503.018798828125 0:0.035087719 1:0.028697572 2:0.051282051 3:0.0026684536 4:0.0031596834 5:0.015568163 6:0.015461703 7:0.016204736 8:0.012578616 9:0.023483366 10:0.0123077 11:0.0122902 12:0.011293448 
1503.018798828125 0:0.019493177 1:0.012693157 2:0.13461538 3:0.0073052845 4:0.0049669057 5:0.033721719 6:0.040319188 7:0.042256782 8:0 9:0.0039138943 10:0.014179883 11:0.016897731 12:0.018841655 
1503.018798828125 0:0.091617934 1:0.071192053 2:0 3:0.01838169 4:0.017664251 5:0.05961522 6:0.055698101 7:0.05435485 8:0.037735849 9:0.043052838 10:0.034117856 11:0.039072057 12:0.036353358 
1503.018798828125 0:0.019493177 1:0.011037528 2:0.12820513 3:0.0071835201 4:0.0046154524 5:0.032478092 6:0.038832251 7:0.040698389 8:0 9:0 10:0.011071151 11:0.015255245 12:0.019000803 
1503.018798828125 0:0.058479532 1:0.039183223 2:0 3:0.0089391813 4:0.0071533385 5:0.035557832 6:0.025007387 7:0.022189251 8:0.056603774 9:0.033268102 10:0.020389498 11:0.015226939 12:0.011447937 
1503.018798828125 0:0.013645224 1:0.012693157 2:0.057692308 3:0.0016208763 4:0.0015183899 5:0.014787952 6:0.017681133 7:0.018530825 8:0 9:0.019569472 10:0.0095793845 11:0.0087220682 12:0.0097254594 
1503.018798828125 0:0.12865497 1:0.093267108 2:0 3:0.017776004 4:0.016550682 5:0.097678329 6:0.064446334 7:0.040279613 8:0.14465409 9:0.086105675 10:0.059274235 11:0.046803525 12:0.043977647 
1503.018798828125 0:0.01754386 1:0.0099337748 2:0.11538462 3:0.005839838 4:0.0037521291 5:0.028916135 6:0.034573417 7:0.03623489 8:0 9:0 10:0.009856949 11:0.015162916 12:0.019017014 
1503.018798828125 0:0.076023392 1:0.048013245 2:0.21794872 3:0.041303247 4:0.029405546 5:0.079766401 6:0.076756863 7:0.07817018 8:0.050314465 9:0.031311155 10:0.032780675 11:0.039802631 12:0.039214295 
1503.018798828125 0:0.06042885 1:0.059050773 2:0.057692308 3:0.0061807471 4:0.013740666 5:0.044290486 6:0.027360102 7:0.030260572 8:0.050314465 9:0.062622309 10:0.041589402 11:0.032670065 12:0.03219156 
1503.018798828125 0:0.007797271 1:0.0060706402 2:0.038461538 3:0.00098910708 4:0.0010025889 5:0.010144451 6:0.012129157 7:0.01271204 8:0 9:0.0078277886 10:0.0048359608 11:0.0033074809 12:0.0033358054 
1503.018798828125 0:0.040935673 1:0.023178808 2:0.13461538 3:0.010843274 4:0.006966865 5:0.044912087 6:0.044862972 7:0.04329565 8:0.050314465 9:0.015655577 10:0.015309659 11:0.018486267 12:0.021169767 
1503.018798828125 0:0.052631579 1:0.029801325 2:0.1474359 3:0.014695216 4:0.0094417599 5:0.057650832 6:0.055067989 7:0.050920111 8:0.050314465 9:0.015655577 10:0.019652049 11:0.023510766 12:0.023904986 
1503.018798828125 0:0.0097465887 1:0.0071743929 2:0.064102564 3:0.0017363143 4:0.0013421973 5:0.016039786 6:0.019177882 7:0.020099501 8:0 9:0.0039138943 10:0.0071396172 11:0.010798316 12:0.0084389935 
1503.018798828125 0:0.019493177 1:0.011037528 2:0.051282051 3:0.0047936233 4:0.0030799301 5:0.0079307292 6:0.0056916116 7:0.0019922425 8:0.018867925 9:0.0058708415 10:0.0027034316 11:0.00093770652 12:0.0020881182 
1503.018798828125 0:0.023391813 1:0.013245033 2:0.12820513 3:0.0081844805 4:0.0052585752 5:0.033492057 6:0.040044593 7:0.041968992 8:0 9:0 10:0.011416792 11:0.015969754 12:0.017806923 
1503.018798828125 0:0.035087719 1:0.01986755 2:0.21153846 3:0.019956887 4:0.012822413 5:0.054440837 6:0.065091886 7:0.068219967 8:0 9:0 10:0.018557825 11:0.030217619 12:0.02729895 
1503.018798828125 0:0.021442495 1:0.01214128 2:0.14102564 3:0.0082803516 4:0.0053201729 5:0.035433044 6:0.042365324 7:0.044401248 8:0 9:0 10:0.012078437 11:0.020898731 12:0.019083435 
1503.018798828125 0:0.044834308 1:0.031456954 2:0.019230769 3:0.0042703594 4:0.0041935917 5:0.013497055 6:0.010467232 7:0.01097025 8:0.031446541 9:0.021526419 10:0.0077906701 11:0.0041751512 12:0.0057853045 
1503.018798828125 0:0.019493177 1:0.017108168 2:0.032051282 3:0.0018344164 4:0.0026377773 5:0.0081787191 6:0.0097788403 7:0.010248776 8:0 9:0.023483366 10:0.0057950494 11:0.0045838853 12:0.0032690762 
1503.018798828125 0:0.072124756 1:0.051324503 2:0.19871795 3:0.019760004 4:0.015594265 5:0.084862586 6:0.074863568 7:0.074798615 8:0.062893082 9:0.035225049 10:0.03893521 11:0.041136531 12:0.044148226 
1503.018798828125 0:0.04288499 1:0.027593819 2:0.0064102564 3:0.0018984538 4:0.0015833006 5:0.0054763261 6:0.006547739 7:0.0068623997 8:0.012578616 9:0.011741683 10:0.0042181714 11:0.0022839456 12:0.0021708487 
1503.018798828125 0:0.044834308 1:0.036975717 2:0.25 3:0.025742075 4:0.018627166 5:0.062903779 6:0.075210556 7:0.078824903 8:0 9:0.023483366 10:0.031733183 11:0.044532195 12:0.044002463 
1503.018798828125 0:0.058479532 1:0.037527594 2:0.083333333 3:0.011895691 4:0.0089694801 5:0.039398383 6:0.042102695 7:0.036023206 8:0.050314465 9:0.023483366 10:0.018338905 11:0.022044625 12:0.017191205 
1503.018798828125 0:0.023391813 1:0.014900662 2:0.16025641 3:0.010618935 4:0.007344879 5:0.040387151 6:0.048288674 7:0.050609253 8:0 9:0.0039138943 10:0.017468976 11:0.023028188 12:0.023225248 
1503.018798828125 0:0.054580897 1:0.035871965 2:0.051282051 3:0.006813774 4:0.005524305 5:0.025992963 6:0.025729828 7:0.017977541 8:0.037735849 9:0.02739726 10:0.011795061 11:0.013107035 12:0.014614875 
1503.018798828125 0:0.01754386 1:0.011589404 2:0.12820513 3:0.0065145729 4:0.0044327892 5:0.033066866 6:0.039536216 7:0.041436184 8:0 9:0.0039138943 10:0.014183134 11:0.017611055 12:0.021746789 
1503.018798828125 0:0.062378168 1:0.039183223 2:0.22435897 3:0.023993032 4:0.016090682 5:0.067008804 6:0.074821129 7:0.073447897 8:0.037735849 9:0.023483366 10:0.026773506 11:0.036909115 12:0.036935663 
1503.018798828125 0:0.019493177 1:0.012693157 2:0.038461538 3:0.0020712054 4:0.0019011421 5:0.0097566221 6:0.011665451 7:0.012226051 8:0 9:0.0039138943 10:0.004527654 11:0.0040953872 12:0.0032519271 
1503.018798828125 0:0.019493177 1:0.012693157 2:0.12820513 3:0.0073348758 4:0.0049533304 5:0.032438458 6:0.038784863 7:0.040648724 8:0 9:0.0039138943 10:0.013791467 11:0.016294373 12:0.018168886 
1503.018798828125 0:0.064327485 1:0.043598234 2:0.051282051 3:0.010080678 4:0.0093181435 5:0.033842435 6:0.026242573 7:0.024533266 8:0.037735849 9:0.019569472 10:0.017071963 11:0.013409798 12:0.01894732 
1503.018798828125 0:0.040935673 1:0.024834437 2:0.20512821 3:0.019397691 4:0.013033508 5:0.058338194 6:0.054943968 7:0.053564476 8:0.037735849 9:0.015655577 10:0.020953549 11:0.028621127 12:0.030221781 
1503.018798828125 0:0.019493177 1:0.012693157 2:0.12820513 3:0.0070686304 4:0.0047988784 5:0.032438458 6:0.038784863 7:0.040648724 8:0 9:0.0039138943 10:0.013564989 11:0.016294373 12:0.018168886 
1503.018798828125 0:0.062378168 1:0.038631347 2:0.051282051 3:0.0096450233 4:0.0072165989 5:0.038875705 6:0.023865436 7:0.028935399 8:0.044025157 9:0.021526419 10:0.016532564 11:0.017329329 12:0.0087777611 
1503.018798828125 0:0.037037037 1:0.028145695 2:0.032051282 3:0.002904635 4:0.0029541502 5:0.010681502 6:0.011182531 7:0.011719923 8:0.012578616 9:0.02739726 10:0.0071709988 11:0.0080173777 12:0.0061509209 
1503.018798828125 0:0.019493177 1:0.011037528 2:0.12179487 3:0.0066282229 4:0.0042586708 5:0.031959046 6:0.038211657 7:0.040047971 8:0 9:0 10:0.010894219 11:0.014949108 12:0.01890847 
1503.018798828125 0:0.15984405 1:0.11258278 2:0 3:0.015789836 4:0.013073285 5:0.080359284 6:0.069232099 7:0.061597185 8:0.14465409 9:0.091976517 10:0.043270533 11:0.041313726 12:0.038510723 
1503.018798828125 0:0.021442495 1:0.01214128 2:0.13461538 3:0.0078794027 4:0.0050625609 5:0.034101054 6:0.040772737 7:0.042732127 8:0 9:0 10:0.011624387 11:0.020113111 12:0.018077575 
1503.018798828125 0:0.06042885 1:0.039735099 2:0.032051282 3:0.0088319923 4:0.0077908998 5:0.03692715 6:0.021902564 7:0.01833219 8:0.062893082 9:0.023483366 10:0.017556755 11:0.020363647 12:0.019794903 
1503.018798828125 0:0.033138402 1:0.018763797 2:0.051282051 3:0.010295811 4:0.0066151167 5:0.020914563 6:0.021390088 7:0.022188197 8:0.018867925 9:0.0058708415 10:0.0071293684 11:0.012335599 12:0.0033635709 
1503.018798828125 0:0.048732943 1:0.042494481 2:0.08974359 3:0.0073630841 4:0.0078426762 5:0.029095761 6:0.026917441 7:0.028210995 8:0.025157233 9:0.039138943 10:0.022434701 11:0.023109699 12:0.01995785 
1503.018798828125 0:0.052631579 1:0.041390728 2:0.057692308 3:0.009795548 4:0.011018295 5:0.046196373 6:0.033299092 7:0.027519594 8:0.050314465 9:0.039138943 10:0.029707582 11:0.022187606 12:0.022565008 
1503.018798828125 0:0.054580897 1:0.032560706 2:0.33333333 3:0.049189764 4:0.031854799 5:0.087079958 6:0.10001959 7:0.10482617 8:0.018867925 9:0.0097847358 10:0.032417693 11:0.046501344 12:0.051850883 
1503.018798828125 0:0.052631579 1:0.033664459 2:0.032051282 3:0.010462563 4:0.0075936528 5:0.033398992 6:0.029786827 7:0.025872003 8:0.037735849 9:0.019569472 10:0.01557433 11:0.013810588 12:0.014737599 
1503.018798828125 0:0.023391813 1:0.013245033 2:0.15384615 3:0.010285522 4:0.0066085063 5:0.039842003 6:0.047636871 7:0.049926127 8:0 9:0 10:0.013581365 11:0.021383762 12:0.01944804 
1503.018798828125 0:0.083820663 1:0.056291391 2:0 3:0.0097353406 4:0.0088313536 5:0.037833417 6:0.023679955 7:0.027915281 8:0.081761006 9:0.060665362 10:0.016225299 11:0.015231522 12:0.011263357 
1503.018798828125 0:0.048732943 1:0.029249448 2:0.17948718 3:0.015911001 4:0.010818763 5:0.04802175 6:0.052948673 7:0.055493195 8:0.018867925 9:0.0097847358 10:0.016790872 11:0.02518839 12:0.025602984 
1503.018798828125 0:0.023391813 1:0.014900662 2:0.16666667 3:0.010569684 4:0.0070643007 5:0.042346253 6:0.050631063 7:0.053064209 8:0 9:0.0039138943 10:0.017119818 11:0.022860791 12:0.025490708 
1503.018798828125 0:0.040935673 1:0.026490066 2:0.032051282 3:0.0065234364 4:0.0051014171 5:0.021868669 6:0.013711023 7:0.012069851 8:0.050314465 9:0.025440313 10:0.0096401036 11:0.0071207108 12:0.0081853531 
1503.018798828125 0:0.048732943 1:0.029249448 2:0.25641026 3:0.029578937 4:0.019455415 5:0.067081377 6:0.078348162 7:0.082113292 8:0.012578616 9:0.0078277886 10:0.025570095 11:0.036057818 12:0.040985446 
1503.018798828125 0:0.015594542 1:0.010485651 2:0.10897436 3:0.0051517041 4:0.0035666059 5:0.028012281 6:0.03349273 7:0.035102269 8:0 9:0.0039138943 10:0.012460125 11:0.017467939 12:0.015086782 
1503.018798828125 0:0.087719298 1:0.062913907 2:0 3:0.010466427 4:0.010478891 5:0.045286272 6:0.032290425 7:0.030369938 8:0.081761006 9:0.056751468 10:0.02671309 11:0.025338645 12:0.018704975 
43.78629147286615 0:0.20662768 1:0.19315673 2:0 3:0.04777019 4:0.081942722 5:0.15480605 6:0.12630067 7:0.096329366 8:0.20754717 9:0.20547945 10:0.12007252 11:0.089255428 12:0.085167337 
1503.018798828125 0:0.013645224 1:0.012693157 2:0 3:0.0019313094 4:0.0033347828 5:0.022182991 6:0.02652297 7:0.019068061 8:0.012578616 9:0.0078277886 10:0.015040862 11:0.0083576662 12:0.011556732 
1503.018798828125 0:0.0097465887 1:0.012693157 2:0.025641026 3:0.0009958086 4:0.0023088372 5:0.013317976 6:0.015923564 7:0.0027311525 8:0.0062893082 9:0.021526419 10:0.011713535 11:0.013870764 12:0.0070832449 
1503.018798828125 0:0.050682261 1:0.030353201 2:0.044871795 3:0.014378477 4:0.0097487387 5:0.034728887 6:0.034255195 7:0.032417791 8:0.031446541 9:0.017612524 10:0.0129816 11:0.015918765 12:0.018841977 
1503.018798828125 0:0.027290448 1:0.02593819 2:0.13461538 3:0.0086268787 4:0.0074967366 5:0.034550756 6:0.041310421 7:0.04329565 8:0 9:0.019569472 10:0.023458723 11:0.027562376 12:0.025887308 
1503.018798828125 0:0.058479532 1:0.041942605 2:0 3:0.011703376 4:0.010695884 5:0.045371784 6:0.040772737 7:0.045479979 8:0.056603774 9:0.033268102 10:0.025420115 11:0.021173802 12:0.019928355 
1503.018798828125 0:0.062378168 1:0.035320088 2:0 3:0.011792682 4:0.007576865 5:0.047127509 6:0.044468819 7:0.037061649 8:0.044025157 9:0.01369863 10:0.016064853 11:0.017849868 12:0.015647516 
